	PA3423	PA0084	PA2455	PA3029	PA1588	PA2220	PA4656	PA3585	PA1325	PA3067	PA1018	PA3558	PA2145	PA4624	PA5159	PA1429	PA5032	PA4551	PA1532	PA2918	PA0748	PA4370	PA3387	PA4813	PA4142	PA1365	PA1214	PA1687	PA0638	PA1558	PA2809	PA2648	PA0193	PA3770	PA2792	PA0221	PA4197	PA3414	PA0029	PA0055	PA5460	PA1342	PA4772	PA1466	PA2356	PA0816	PA5367	PA3406	PA0868	PA4755	PA1489	PA3083	PA1909	PA4309	PA4903	PA2713	PA0330	PA1907	PA0982	PA4103	PA1774	PA4567	PA5508	PA1524	PA2118	PA4842	PA3564	PA4264	PA1064	PA0341	PA1345	PA2478	PA0077	PA1232	PA1878	PA2875	PA4436	PA2812	PA1286	PA3173	PA2662	PA0106	PA0405	PA0499	PA3658	PA0644	PA3190	PA1471	PA0096	PA3023	PA1766	PA4217	PA0996	PA3950	PA5115	PA0505	PA0114	PA5150	PA4042	PA2678	PA5112	PA3528	PA4610	PA1692	PA3056	PA5552	PA0999	PA4667	PA1252	PA0672	PA4146	PA1382	PA2816	PA1939	PA1706	PA1370	PA1363	PA2418	PA1255	PA4504	PA0760	PA4358	PA0028	PA1225	PA0027	PA5509	PA4155	PA1552	PA5091	PA0803	PA2217	PA4237	PA3404	PA0556	PA3861	PA3494	PA1527	PA2043	PA1547	PA0233	PA3128	PA2772	PA1475	PA3309	PA1491	PA1493	PA4792	PA4347	PA2090	PA3466	PA4305	PA3501	PA2727	PA1006	PA0569	PA5393	PA3858	PA1637	PA5263	PA5207	PA4789	PA1694	PA1130	PA4453	PA1960	PA2770	PA4760	PA2451	PA1049	PA4513	PA4281	PA0497	PA2182	PA3579	PA0372	PA3053	PA4334	PA4494	PA4814	PA0901	PA5274	PA0571	PA1306	PA3115	PA5319	PA0299	PA2307	PA3722	PA3094	PA3367	PA2577	PA3764	PA5116	PA2218	PA2614	PA4125	PA4024	PA0425	PA2225	PA3735	PA0250	PA1842	PA2895	PA1138	PA0017	PA5242	PA0698	PA0260	PA0929	PA5050	PA1578	PA3327	PA4109	PA1526	PA2287	PA2930	PA1749	PA2518	PA2642	PA3256	PA0633	PA5171	PA2524	PA3091	PA0343	PA3515	PA1594	PA1344	PA0687	PA1194	PA2570	PA1952	PA2791	PA3556	PA1685	PA0121	PA1253	PA0951	PA4312	PA0268	PA2861	PA3288	PA2679	PA0346	PA2027	PA0835	PA4060	PA1242	PA4851	PA1730	PA2175	PA4778	PA4465	PA3010	PA1324	PA2384	PA0321	PA0769	PA0787	PA4425	PA1739	PA4607	PA4229	PA5505	PA3440	PA4395	PA0132	PA4361	PA1267	PA4934	PA4459	PA2730	PA4931	PA1372	PA3833	PA3477	PA3686	PA0210	PA3119	PA5549	PA0234	PA3258	PA2966	PA4535	PA5512	PA4982	PA0147	PA2677	PA3938	PA3670	PA0386	PA2675	PA2625	PA3266	PA2505	PA1050	PA3185	PA4739	PA5217	PA0477	PA4781	PA0919	PA4072	PA0993	PA0807	PA5153	PA1458	PA0282	PA0432	PA2590	PA1816	PA4404	PA0808	PA3857	PA4181	PA3928	PA0495	PA3549	PA1845	PA1862	PA2764	PA1358	PA3215	PA4932	PA4555	PA2029	PA3949	PA1513	PA1748	PA4642	PA4817	PA4621	PA5360	PA1795	PA1333	PA3817	PA0126	PA5449	PA1636	PA0614	PA0586	PA4700	PA1024	PA0791	PA2226	PA4751	PA1980	PA1792	PA2330	PA1889	PA4168	PA3106	PA3744	PA5554	PA3381	PA4713	PA2091	PA5450	PA3777	PA4231	PA0908	PA4346	PA0256	PA4302	PA4529	PA3088	PA2006	PA3350	PA4131	PA0692	PA3534	PA3899	PA2749	PA2092	PA3724	PA2548	PA3560	PA4746	PA1043	PA1434	PA1828	PA3228	PA2201	PA4782	PA5331	PA5272	PA0047	PA4333	PA2318	PA0203	PA4014	PA2787	PA5289	PA2535	PA0240	PA3333	PA3079	PA1807	PA4705	PA2102	PA1935	PA0773	PA1712	PA2109	PA4693	PA0049	PA0143	PA1265	PA4723	PA4881	PA1116	PA2755	PA1789	PA1075	PA5107	PA5221	PA4280	PA2398	PA0247	PA1762	PA3596	PA3298	PA4872	PA3365	PA5415	PA5365	PA5532	PA3690	PA4785	PA4715	PA2349	PA4205	PA2370	PA5514	PA3997	PA4043	PA5436	PA1327	PA3538	PA0401	PA0824	PA0998	PA2236	PA5557	PA2638	PA3462	PA3290	PA3994	PA0777	PA3268	PA5382	PA1014	PA3613	PA1931	PA5202	PA0062	PA3844	PA1301	PA5253	PA0125	PA2985	PA1339	PA2264	PA1207	PA3248	PA1341	PA2615	PA2705	PA5256	PA5036	PA2651	PA3605	PA0332	PA2971	PA2060	PA5034	PA3836	PA0229	PA2910	PA4170	PA1147	PA5087	PA3138	PA2506	PA4590	PA1107	PA4178	PA3784	PA0097	PA3905	PA3085	PA1940	PA3435	PA3951	PA1890	PA5170	PA4262	PA2853	PA4118	PA2480	PA4989	PA1920	PA3484	PA2681	PA0817	PA1254	PA1560	PA4477	PA0391	PA1030	PA3246	PA1048	PA3109	PA0540	PA1681	PA5521	PA1804	PA0010	PA0801	PA2829	PA2189	PA4928	PA5465	PA5160	PA2324	PA5141	PA4805	PA2603	PA2909	PA2640	PA3284	PA0183	PA1013	PA4936	PA3674	PA3691	PA5376	PA2644	PA2141	PA0833	PA2432	PA0513	PA4191	PA1078	PA1178	PA4426	PA1653	PA2250	PA1770	PA2142	PA3006	PA0398	PA0669	PA1181	PA1961	PA0377	PA1165	PA0169	PA0303	PA1203	PA3170	PA3557	PA4860	PA1450	PA1291	PA4279	PA1205	PA4120	PA0878	PA2989	PA0628	PA1304	PA0191	PA0603	PA2972	PA1106	PA3027	PA2870	PA1778	PA2471	PA1644	PA4540	PA2780	PA3401	PA0594	PA2781	PA1361	PA3957	PA4630	PA1420	PA4675	PA1105	PA3227	PA3725	PA1226	PA2151	PA1140	PA1292	PA4658	PA5029	PA2123	PA2147	PA2431	PA0019	PA4341	PA4733	PA3093	PA3361	PA4637	PA1698	PA3160	PA0845	PA0912	PA5364	PA4521	PA1422	PA3886	PA4203	PA1551	PA0629	PA5547	PA4919	PA0913	PA0903	PA3458	PA1271	PA0384	PA5332	PA3386	PA2167	PA2396	PA1108	PA4372	PA1888	PA1478	PA5337	PA0821	PA1231	PA2337	PA2049	PA1002	PA2632	PA5558	PA3320	PA4680	PA4938	PA2210	PA1791	PA3134	PA3275	PA2597	PA0044	PA2446	PA5142	PA3633	PA3779	PA3509	PA4066	PA0881	PA3973	PA3974	PA1846	PA4929	PA0389	PA2939	PA1462	PA4254	PA1593	PA1835	PA0647	PA4887	PA4650	PA1750	PA1487	PA1469	PA5378	PA0040	PA0854	PA1080	PA0493	PA2194	PA1022	PA4471	PA0113	PA4033	PA5098	PA4902	PA1885	PA2840	PA5327	PA0781	PA0214	PA5422	PA3455	PA0836	PA2592	PA3719	PA0588	PA0616	PA3218	PA3782	PA2751	PA3932	PA1201	PA5309	PA4391	PA3148	PA2086	PA3446	PA1204	PA3627	PA2995	PA3272	PA3868	PA2885	PA0991	PA4003	PA1003	PA5099	PA2293	PA0636	PA4412	PA1699	PA0225	PA0872	PA3373	PA5492	PA2714	PA4677	PA4141	PA5434	PA1530	PA2015	PA3586	PA1019	PA1431	PA3200	PA1963	PA1581	PA3419	PA5504	PA0112	PA4937	PA3745	PA4208	PA2778	PA4724	PA3269	PA3523	PA2288	PA3422	PA0454	PA5495	PA0812	PA3074	PA3714	PA0101	PA2579	PA0413	PA3866	PA5544	PA4572	PA5493	PA0871	PA4344	PA3746	PA3642	PA1100	PA0354	PA0717	PA1386	PA1294	PA3679	PA3676	PA2668	PA2741	PA2882	PA4707	PA4585	PA4092	PA2216	PA5321	PA2711	PA3554	PA0670	PA1505	PA2087	PA4095	PA4037	PA4798	PA4492	PA0746	PA2256	PA4560	PA2685	PA2907	PA4622	PA2598	PA4458	PA2962	PA2842	PA0626	PA0856	PA3839	PA3636	PA3850	PA3581	PA1871	PA2035	PA2963	PA3848	PA3653	PA3411	PA4405	PA0814	PA0209	PA2959	PA3671	PA0192	PA2039	PA0318	PA1196	PA3131	PA4906	PA5259	PA0002	PA1639	PA0222	PA2439	PA3322	PA4199	PA5417	PA1511	PA1684	PA2779	PA2663	PA2864	PA3540	PA2056	PA1623	PA3910	PA0020	PA1921	PA1948	PA3717	PA1480	PA0347	PA3907	PA1160	PA1136	PA2958	PA5147	PA1908	PA2703	PA0252	PA0825	PA1326	PA1122	PA1027	PA1007	PA4991	PA3644	PA4853	PA2785	PA5474	PA2929	PA1768	PA3234	PA0721	PA3576	PA1659	PA3726	PA1738	PA0977	PA1335	PA5377	PA4664	PA3121	PA0934	PA1041	PA5396	PA1192	PA2858	PA1864	PA4245	PA4749	PA4004	PA2227	PA2334	PA4080	PA2789	PA0003	PA2752	PA4243	PA4704	PA0223	PA3069	PA5101	PA2041	PA0189	PA0530	PA4979	PA1442	PA3036	PA2452	PA3760	PA3877	PA0272	PA0310	PA4345	PA0592	PA4717	PA4738	PA2691	PA1834	PA4964	PA3570	PA2723	PA4339	PA0137	PA0904	PA4653	PA1686	PA5200	PA2533	PA1146	PA1118	PA3525	PA4911	PA1626	PA3925	PA2766	PA1378	PA3513	PA3104	PA1103	PA1886	PA3594	PA2096	PA3604	PA0706	PA2073	PA3470	PA1543	PA4545	PA4883	PA5369	PA4296	PA0083	PA5081	PA2848	PA4061	PA0104	PA2624	PA3589	PA2159	PA4052	PA0911	PA2146	PA2831	PA1808	PA4577	PA0063	PA0078	PA5444	PA1125	PA5516	PA2582	PA3374	PA3797	PA4972	PA0709	PA3008	PA3193	PA4741	PA4753	PA3526	PA0634	PA4676	PA1405	PA2631	PA0479	PA1661	PA4259	PA1772	PA5481	PA5281	PA5038	PA0923	PA5479	PA3353	PA5551	PA3101	PA3180	PA2380	PA0607	PA0212	PA3818	PA0840	PA2575	PA0014	PA1664	PA2323	PA3143	PA0254	PA2243	PA3038	PA5249	PA0053	PA3718	PA3537	PA4308	PA4057	PA0103	PA4294	PA0963	PA4410	PA4737	PA0793	PA3323	PA2369	PA0858	PA5372	PA3651	PA0779	PA4850	PA2897	PA3493	PA0579	PA2759	PA4514	PA0031	PA5128	PA4377	PA2826	PA0167	PA1651	PA4475	PA5520	PA0766	PA2645	PA4589	PA2237	PA2788	PA2516	PA0066	PA4067	PA1531	PA0414	PA3236	PA2419	PA5082	PA0727	PA0733	PA2005	PA4376	PA2266	PA3300	PA0094	PA3237	PA2377	PA0619	PA0442	PA0790	PA0961	PA5346	PA0707	PA1263	PA0015	PA2077	PA5403	PA1554	PA5483	PA0621	PA1994	PA0177	PA3210	PA2997	PA0659	PA3891	PA1650	PA2205	PA3941	PA5451	PA1737	PA3541	PA1033	PA1691	PA3555	PA3720	PA4912	PA2606	PA3887	PA2053	PA3396	PA3073	PA4330	PA2133	PA5025	PA3297
0	0.01928476244211197	-0.005022954195737839	0.01542665995657444	-0.016531387344002724	0.0004995409399271011	-0.0017340537160634995	0.017152240499854088	-0.011366184800863266	0.003999127075076103	-0.017027918249368668	-0.004452543333172798	0.013439211063086987	-0.019863322377204895	-0.0011208802461624146	0.014774607494473457	0.022395504638552666	-0.014459384605288506	-0.005687447264790535	0.01639026217162609	-0.009211719036102295	-0.0027424225118011236	0.010681682266294956	0.0017224084585905075	0.0023222574964165688	0.034117963165044785	0.014220227487385273	-0.010958420112729073	0.0016759773716330528	-0.0001338217407464981	0.007961560040712357	0.020296331495046616	0.008689897134900093	0.007270758971571922	0.018128735944628716	0.00810767337679863	-0.009119434282183647	0.002247598022222519	0.016904456540942192	-0.006232844665646553	-0.0007535908371210098	0.009772904217243195	-0.017111001536250114	0.01663457229733467	-0.013131452724337578	-0.005626852624118328	0.005389196798205376	-0.00037619564682245255	-0.0053693922236561775	0.003188531845808029	0.004209272563457489	-0.010376030579209328	-0.01817357912659645	0.002761799842119217	-0.008989798836410046	0.025966716930270195	0.026423707604408264	-0.004499213770031929	-0.01794854924082756	-0.017908938229084015	-0.012709205970168114	0.0011048559099435806	0.004840008914470673	-0.003206193447113037	-0.0004390273243188858	-5.61857596039772e-05	-0.001133175566792488	-0.002823229879140854	0.005447454750537872	0.0008757561445236206	-0.01700432598590851	0.00833517499268055	0.006921730935573578	-0.0024316301569342613	-0.0015637464821338654	0.010896964929997921	-0.0005584061145782471	0.005379147361963987	0.00616585835814476	0.026109345257282257	0.008754912763834	0.006272466853260994	-0.004704426974058151	-0.00880417786538601	0.012973744422197342	0.020076720044016838	0.004111050628125668	-0.009006181731820107	0.0017630085349082947	0.02734292857348919	0.01972236856818199	-0.017011944204568863	0.0249455738812685	-0.010643884539604187	0.012376857921481133	0.031032485887408257	-0.010053291916847229	-0.012471904046833515	0.01506901066750288	0.007308389991521835	0.004054058343172073	0.02262134850025177	0.018385756760835648	0.07352319359779358	0.11261703819036484	-0.017491187900304794	-0.06576428562402725	-0.12010632455348969	0.009575163014233112	0.06086115539073944	-0.01513362955302	0.08735140413045883	0.031411826610565186	-0.001451617106795311	-0.04096595570445061	-0.012193644419312477	-0.0397329144179821	0.04281743988394737	0.04628464952111244	0.10559098422527313	-0.06056845560669899	-0.012179192155599594	0.0060670822858810425	0.059169210493564606	0.013850565999746323	0.025645427405834198	0.16774094104766846	0.04570488631725311	0.017810028046369553	0.10983914136886597	-0.020725511014461517	0.029958046972751617	0.06760231405496597	0.1541876494884491	-0.010294274426996708	0.024266153573989868	0.02088005840778351	-0.020290236920118332	0.008790785446763039	-0.09790414571762085	0.03378994017839432	-0.002882416360080242	-0.0036867442540824413	0.024473052471876144	0.048523738980293274	0.10120373964309692	-0.028540559113025665	-0.004095584154129028	0.01155347004532814	0.06464605033397675	-0.012030202895402908	-0.01738446019589901	-0.036794744431972504	-0.02418436110019684	-0.03243927285075188	0.0056307935155928135	0.09664314985275269	-0.00876175332814455	-0.005529568064957857	0.020107600837945938	0.032049745321273804	-5.141831934452057e-06	0.10439588874578476	0.012782085686922073	0.0033063888549804688	0.04738699644804001	-0.052505459636449814	-0.03628259897232056	-0.02386399358510971	-0.015445290133357048	0.09375322610139847	-0.05589134246110916	0.03612791374325752	-0.016366127878427505	0.03546842187643051	-0.030380329117178917	-0.06722379475831985	0.06164923682808876	-0.06321524828672409	0.12477079033851624	0.06344442814588547	0.02760053426027298	0.016856567934155464	-0.06269174814224243	-0.04022463783621788	0.02238328941166401	0.033071503043174744	0.030092960223555565	-0.01589309610426426	0.039017267525196075	0.09349821507930756	-0.031785156577825546	0.03265276178717613	0.06639288365840912	0.03231019899249077	0.0031283292919397354	0.07028122246265411	-0.007945427671074867	-0.04920776188373566	0.0060671791434288025	0.060121797025203705	0.00737270200625062	0.010899335145950317	0.04259088635444641	0.09783300012350082	0.010569396428763866	0.03346584737300873	0.06026499718427658	0.028384387493133545	0.040022872388362885	-0.042838163673877716	0.027371954172849655	-0.02018085867166519	0.05449662730097771	-0.05812807381153107	0.05709853023290634	0.04825645685195923	-0.058179743587970734	0.05091935768723488	0.015036381781101227	-0.05311480909585953	-0.0329449437558651	-0.038656190037727356	0.009360669180750847	-0.051097214221954346	0.13740675151348114	0.07733633369207382	0.06397251039743423	-0.07833560556173325	0.09402020275592804	0.02014753594994545	-0.1162409707903862	0.10091641545295715	0.01474645547568798	-0.0948038250207901	0.008173145353794098	0.1349010169506073	0.11654509603977203	0.020526329055428505	-0.04212894290685654	0.025136739015579224	0.09131689369678497	0.018086209893226624	-0.015526978299021721	0.07322198152542114	0.05549897253513336	-0.06664396077394485	0.05238243564963341	-0.00033913692459464073	0.046296313405036926	0.011394577100872993	0.0029233787208795547	-0.051605816930532455	-0.04618437960743904	-0.05215749889612198	-0.03694019094109535	-0.04565931484103203	0.04842482879757881	-0.013277587480843067	0.028908278793096542	-0.0406045988202095	0.05564868077635765	-0.09734982252120972	0.0022407900542020798	0.02027977630496025	-0.04576321691274643	0.033539533615112305	0.01922685280442238	0.010094573721289635	0.05220373347401619	0.015839461237192154	-0.03186412155628204	0.012012411840260029	0.022913403809070587	-0.056827936321496964	-0.08465472608804703	-0.0750996470451355	-0.01367077324539423	0.07069007307291031	0.06377788633108139	-0.0038859229534864426	0.0788557231426239	0.10196318477392197	0.06530256569385529	0.006531906314194202	0.0371042937040329	0.06585001945495605	0.03165096789598465	0.10994386672973633	0.032281193882226944	0.03700947016477585	0.0021207183599472046	-0.026331400498747826	0.00469089113175869	-0.05105646327137947	0.04451426491141319	-0.016984907910227776	-0.019237177446484566	-0.06704716384410858	0.08004451543092728	0.039741065353155136	-0.010797977447509766	0.007553456351161003	0.11737186461687088	-0.03612068295478821	-0.019847700372338295	0.08083772659301758	0.006990271154791117	0.028685178607702255	-0.0009018378332257271	0.002932896837592125	0.002365635707974434	0.021552108228206635	0.009589148685336113	-0.05257096141576767	0.11334148049354553	0.0900343731045723	0.13440793752670288	-0.014942388981580734	0.04765807464718819	0.01576889492571354	0.004320240579545498	-0.03135616332292557	0.051204901188611984	0.03490573912858963	0.014556096866726875	0.00226786732673645	0.02642962336540222	0.03252258524298668	0.04648037254810333	0.03710272163152695	0.07051151990890503	0.05647152662277222	0.07852758467197418	-0.011449119076132774	0.020451528951525688	-0.011190496385097504	0.09772640466690063	-0.0027789531741291285	0.06659344583749771	0.021443352103233337	-0.15831120312213898	0.012080837041139603	0.08223555237054825	0.06034381687641144	-0.03584489971399307	-0.04618839547038078	0.05200759321451187	-0.06134580448269844	0.031050805002450943	-0.0937894880771637	0.053026653826236725	0.02869315817952156	-0.06892607361078262	0.00031564198434352875	0.07840516418218613	-0.09857406467199326	0.07332097738981247	0.0008691158145666122	0.020794406533241272	0.05722314119338989	0.058556292206048965	-0.012921838089823723	0.003266771323978901	0.014033015817403793	0.008918697014451027	0.018142908811569214	0.08425658196210861	0.09203846752643585	-0.06289105117321014	0.01973598077893257	0.055834703147411346	0.048689208924770355	0.049189746379852295	0.06769845634698868	-0.10684178024530411	0.1274949014186859	0.0645034909248352	-0.08977111428976059	0.024922870099544525	0.024797042831778526	-0.008513073436915874	-0.015532121062278748	-0.06413841247558594	0.0026745563372969627	-0.05777078494429588	-0.009180191904306412	0.024926088750362396	0.029222602024674416	0.08050409704446793	0.0908079519867897	0.058616865426301956	0.0345122329890728	0.058931827545166016	0.03481388837099075	0.059386637061834335	-0.08248666673898697	0.03914684057235718	0.011138548143208027	-0.019576625898480415	-0.0037204292602837086	0.06074618548154831	0.027521628886461258	-0.010786466300487518	0.10417020320892334	-0.05489403009414673	0.07568398863077164	0.003938719630241394	0.11673561483621597	0.05383443459868431	0.07294204086065292	0.09673845767974854	-0.05501144379377365	-0.05984124541282654	0.0018338663503527641	-0.10015848278999329	0.04341719672083855	-0.026226624846458435	-0.06914899498224258	0.07836569845676422	-0.02851692959666252	0.08532054722309113	0.03138392046093941	0.0240796972066164	0.039251841604709625	0.08235445618629456	0.019158698618412018	0.053250525146722794	-0.003819812089204788	-0.016446346417069435	0.05605114996433258	0.08734089881181717	-0.010197455994784832	-0.031268659979104996	0.0719635933637619	0.0021542194299399853	0.055095572024583817	0.0150242168456316	0.0189326461404562	0.01723078265786171	-0.02975468896329403	-0.04527236521244049	-0.14721785485744476	-0.01526555884629488	-0.004169334191828966	-0.012948276475071907	0.04430627077817917	0.018871314823627472	0.07072301208972931	0.08129630237817764	0.07041227072477341	0.10903935879468918	-0.08245114982128143	0.023979246616363525	-0.008105218410491943	0.06170332059264183	-0.05338839814066887	0.0031172307208180428	0.012276260182261467	-0.07493147253990173	0.05109769478440285	-0.038190603256225586	0.02213955856859684	0.032492369413375854	0.009241784922778606	0.10879436880350113	-0.021727390587329865	-0.038801975548267365	-0.024109601974487305	-0.04114142805337906	0.012971876189112663	-0.02394012361764908	0.055204249918460846	-0.0069224536418914795	-0.022579390555620193	0.0334944874048233	0.0001804754137992859	0.005015932954847813	0.0033380298409610987	0.08893030881881714	0.004550735466182232	0.012369628995656967	-0.045695289969444275	-0.0066291699185967445	0.09404587745666504	-0.14708909392356873	0.04518372565507889	0.03066685050725937	0.07303917407989502	0.008791121654212475	-0.037666745483875275	0.033246222883462906	0.026717109605669975	0.03760142624378204	-0.0028394535183906555	0.02173307165503502	0.010263620875775814	-0.05858179181814194	0.06086542829871178	-0.005267898552119732	0.03889402374625206	0.00520308455452323	0.11135557293891907	0.0231461338698864	0.034606754779815674	0.10443064570426941	0.13879252970218658	-0.01300525851547718	-0.026189541444182396	0.06220139190554619	-0.05088525265455246	0.024754537269473076	-0.031607482582330704	0.05898800119757652	-0.005386830773204565	-0.08308509737253189	0.014562036842107773	-0.004689511843025684	0.06792866438627243	0.11717519164085388	0.11686884611845016	-0.06613941490650177	0.05475408583879471	0.017107931897044182	0.011371741071343422	0.06690290570259094	0.04321650415658951	0.08439511805772781	-0.030775491148233414	0.07945980131626129	-0.047392167150974274	0.003282170742750168	0.15779387950897217	0.024500273168087006	-0.026079867035150528	0.01349642500281334	-0.01576596312224865	0.009194973856210709	0.008577391505241394	0.036473728716373444	0.011201510205864906	0.044368430972099304	-0.040103740990161896	0.02612132765352726	0.029519643634557724	0.037341970950365067	0.03976137191057205	0.04281240701675415	0.007121826522052288	-0.04254785552620888	0.015684563666582108	0.02766936644911766	-0.08426688611507416	0.05452466011047363	0.005832701921463013	0.032850295305252075	0.06739742308855057	0.1305323839187622	0.09080945700407028	-0.009794523939490318	0.05542660504579544	-0.051116764545440674	-0.01312789972871542	0.05219676345586777	0.07767602801322937	0.014004729688167572	-0.04438331723213196	0.018006937578320503	0.06331154704093933	0.04588133469223976	-0.018135955557227135	-0.08174361288547516	0.02274540439248085	0.06358642131090164	0.08798632025718689	0.029098041355609894	-0.047432009130716324	0.0004835114814341068	0.012148445472121239	0.05789811164140701	0.0014365741517394781	0.007462653331458569	0.055684894323349	-0.04681593179702759	0.10567307472229004	-0.023986399173736572	0.005253804847598076	0.0728025957942009	-0.009157884865999222	0.03879788517951965	0.1829405128955841	0.013740231283009052	0.03676244243979454	-0.04888194054365158	0.027416732162237167	0.03415601700544357	0.001324692741036415	0.03858356922864914	0.03954131901264191	0.0210480485111475	0.040748849511146545	-0.05350947380065918	0.09003700315952301	0.006542975082993507	-0.06738235056400299	0.04298018664121628	-3.418978303670883e-05	0.034518953412771225	-0.116066113114357	0.07607968151569366	0.06374179571866989	-0.036550793796777725	0.008781258016824722	0.07441830635070801	0.059702131897211075	-0.06483756005764008	0.05605839565396309	0.07387122511863708	0.10701768100261688	-0.09244463592767715	0.01267010997980833	0.04183541238307953	0.08840084820985794	0.0377749539911747	-0.025072896853089333	0.017022300511598587	0.031041773036122322	-0.047508686780929565	-0.018061146140098572	-0.05056192725896835	-0.04196614399552345	-0.14033673703670502	0.049292370676994324	0.004599294625222683	-0.10743006318807602	0.06073860824108124	-0.003984495997428894	-0.10847505927085876	0.027998756617307663	-0.036151185631752014	0.053925469517707825	-0.10663996636867523	-0.06174084544181824	0.014108735136687756	-0.040883272886276245	-0.021846383810043335	-0.06201724708080292	0.0417121946811676	0.016680819913744926	0.0005054278299212456	0.037730954587459564	0.0850527212023735	0.023141194134950638	0.09128738194704056	-0.05127476900815964	0.01634807512164116	0.06319992244243622	0.03904232382774353	0.06945523619651794	0.12294274568557739	0.061331044882535934	0.0344931036233902	0.049218662083148956	-0.021463211625814438	0.040993817150592804	-0.06398914754390717	-0.0876089483499527	0.03086426667869091	0.025367319583892822	-0.016787586733698845	-0.0780239999294281	0.0963684618473053	-0.004473979584872723	0.016487030312418938	0.14545363187789917	-0.0056292032822966576	-0.028779661282896996	-0.05422794073820114	-0.04222574084997177	0.015031537041068077	0.1170201301574707	-0.042380623519420624	0.04407776892185211	-0.052444372326135635	0.04517301544547081	0.06048589199781418	0.06903563439846039	0.02506464160978794	0.017719650641083717	0.02833232656121254	0.09007080644369125	0.09367774426937103	0.12262413650751114	0.008268700912594795	-0.0018372505437582731	-0.006487064063549042	-0.11401890218257904	0.08557560294866562	-0.09814329445362091	-0.05434025079011917	0.12385477125644684	0.054290108382701874	-0.04369225353002548	0.008492141962051392	0.012002562172710896	0.07432786375284195	0.028396598994731903	0.03531721979379654	0.06739611178636551	0.01826108805835247	0.025464795529842377	-0.014603955671191216	0.00904306024312973	0.011604728177189827	-0.04036085307598114	0.08722476661205292	-0.016132276505231857	-0.010062065906822681	-0.13223114609718323	0.05432701110839844	0.10778185725212097	0.020908277481794357	-0.022911909967660904	0.06730082631111145	0.06396239250898361	-0.0003466689959168434	0.04636732116341591	-0.000664418563246727	0.01848149672150612	-0.002961263060569763	-0.05706484988331795	-0.004250137135386467	-0.002853202633559704	0.10653292387723923	0.10018490254878998	0.06345123797655106	-0.10585004091262817	-0.03491921350359917	0.05657369643449783	0.011131659150123596	-0.005452587269246578	-0.0017270720563828945	0.05295627564191818	0.01158322487026453	-0.06964851915836334	0.06606181710958481	-0.036665599793195724	0.02696967124938965	0.07632178068161011	0.07660062611103058	0.022527579218149185	0.03320471942424774	0.04774018004536629	0.024115068838000298	0.057641785591840744	0.01888149045407772	0.05981170013546944	0.0505535751581192	0.006699105259031057	0.015339571051299572	0.017437029629945755	0.06366021931171417	0.028935464099049568	-0.009570777416229248	0.09422984719276428	0.031296130269765854	-0.02043377049267292	0.05427909269928932	0.012568116188049316	0.03606504201889038	-0.048566389828920364	0.0037218937650322914	-0.014176344498991966	-0.01879742741584778	0.10867887735366821	-0.017292657867074013	-0.015877531841397285	0.07996934652328491	-0.002439499832689762	0.04928159341216087	0.03409792110323906	0.05285274237394333	0.023305950686335564	0.04400923475623131	-0.01462184265255928	-0.03325323015451431	0.004813854582607746	0.06222803145647049	0.06224248558282852	0.0507657490670681	0.035655803978443146	0.006084116641432047	0.0646471306681633	0.05408686399459839	0.006950421258807182	0.03965257853269577	0.04113030433654785	0.06815142184495926	-0.04358094930648804	-0.02144443988800049	-0.0213150791823864	0.07212928682565689	-0.03668344393372536	-0.04828260838985443	0.06525111943483353	-0.032836735248565674	0.013490362092852592	-0.008363810367882252	-0.06953701376914978	0.030068473890423775	-0.018083970993757248	-0.02789890207350254	-0.07160128653049469	-0.002881122287362814	0.0473160482943058	0.08890248835086823	0.05852651968598366	-0.014491774141788483	0.03266638517379761	0.14419551193714142	-0.0517629012465477	0.048903513699769974	0.0570870041847229	-0.012033372186124325	0.07903242856264114	0.05320469290018082	-0.003968565259128809	0.09119918197393417	0.09774887561798096	0.006027469411492348	0.06424298882484436	0.10360535979270935	0.04436873272061348	-0.02243824675679207	-0.023221103474497795	-0.06620778143405914	0.10247951000928879	-0.03776359185576439	0.024053234606981277	0.004841416142880917	-0.07498778402805328	0.07790527492761612	0.045524533838033676	0.02205699309706688	0.006197762675583363	0.04056130349636078	-0.02260710671544075	0.04364992305636406	-0.04320448637008667	0.02229662425816059	-0.008571610786020756	-0.013918554410338402	-0.03397610783576965	0.030563004314899445	-0.01421784982085228	0.009140084497630596	-0.03432556614279747	0.07672625780105591	0.025510329753160477	-0.010198713280260563	0.011979859322309494	-0.0004480117931962013	-0.048425450921058655	-0.029047146439552307	0.02490878291428089	0.025392964482307434	0.05631791055202484	0.006375173106789589	-0.044027797877788544	0.03452203422784805	0.04694037139415741	-0.011630434542894363	0.004216684028506279	-0.021260881796479225	0.06590347737073898	0.1057022362947464	-0.008994318544864655	-0.015497279353439808	0.03358663618564606	-0.017951631918549538	-0.05034089833498001	0.028388774022459984	-0.07422207295894623	0.00716954143717885	0.05275667458772659	-0.05718770995736122	-0.12762045860290527	0.03860747441649437	0.017631839960813522	0.041532907634973526	0.023027576506137848	0.01979362592101097	-0.036438003182411194	-0.025158464908599854	-0.06964202970266342	0.026327596977353096	0.1313430368900299	-0.05151604861021042	0.07503128051757812	0.03346659988164902	0.14120501279830933	0.0897541493177414	0.1307346671819687	-0.03151896968483925	0.10883016884326935	-0.033443085849285126	0.07070821523666382	0.04866320639848709	0.015849776566028595	0.1220979318022728	-0.05537344515323639	-0.0197637639939785	-0.1004931703209877	0.021796341985464096	0.06738036125898361	0.0026200246065855026	0.06974866986274719	0.08120807260274887	-0.051853857934474945	0.0002548452466726303	0.05241808295249939	-0.01992090418934822	-0.020330367609858513	-0.0224910955876112	-0.08053881675004959	0.039841074496507645	0.061273977160453796	0.04173198714852333	-0.020000522956252098	0.03975304961204529	0.11428666114807129	0.06684982776641846	0.008404575288295746	0.0012774579226970673	0.02616632543504238	-0.07378142327070236	0.03946349024772644	0.0001501217484474182	0.06582876294851303	0.018025606870651245	0.018689952790737152	-0.0458664745092392	0.014298295602202415	0.026148004457354546	-0.030795706436038017	0.00567292794585228	0.037107326090335846	0.02259073778986931	-0.08440238237380981	-0.017618320882320404	0.015577276237308979	0.0767492726445198	-0.028434699401259422	0.19421975314617157	-0.015954062342643738	0.06728286296129227	0.05724821984767914	-0.019710183143615723	0.013821875676512718	0.123166523873806	0.022553086280822754	-0.029558813199400902	0.05542551353573799	-0.01112530380487442	0.03748996555805206	0.056615378707647324	0.041569098830223083	0.09655608236789703	0.0160954799503088	0.030132725834846497	0.04990623518824577	-0.016307881101965904	0.04211852326989174	0.021341755986213684	-0.028371326625347137	-0.03949109837412834	0.0009488124051131308	-0.01106400229036808	-0.01813863404095173	0.03043873980641365	0.13731394708156586	-0.035326357930898666	0.02968241646885872	0.02782825008034706	-0.02348664216697216	-0.07161140441894531	-0.07979682087898254	0.017089931294322014	-0.06443426012992859	0.012417519465088844	0.024960007518529892	-0.009934771806001663	0.05379047244787216	0.0035287197679281235	0.07047557830810547	-0.004486219957470894	-0.016223754733800888	0.06102710962295532	-0.022830484434962273	0.06981853395700455	-0.012944081798195839	-0.0031355321407318115	0.022244414314627647	0.013445405289530754	-0.01682911440730095	0.10391920059919357	0.042821891605854034	0.021755829453468323	0.06671953946352005	0.043027885258197784	0.0592777281999588	0.03001587465405464	-0.005201568827033043	-0.018510892987251282	0.05146355926990509	-0.019749924540519714	0.026302853599190712	-0.021626228466629982	-0.049869291484355927	0.035738714039325714	-0.008164767175912857	0.06102252006530762	-0.013595868833363056	0.013071475550532341	-0.09439883381128311	0.031747616827487946	-0.01160256564617157	-0.05458533763885498	0.048359598964452744	-0.03667011857032776	-0.018187202513217926	0.05015373229980469	0.07395823299884796	0.006238247733563185	-0.035194966942071915	0.0162999015301466	0.042541950941085815	0.06334412842988968	0.05838705599308014	0.045957569032907486	0.008311723358929157	-0.05491149425506592	-0.03427308052778244	-0.03636828809976578	-0.09193895757198334	0.06502234935760498	0.01875779591500759	0.026066629216074944	-0.02540639042854309	0.008596980944275856	0.008732082322239876	0.06166675314307213	0.16459006071090698	0.020614072680473328	0.04178047925233841	0.13129682838916779	0.008786488324403763	0.04880163073539734	-0.0219577569514513	0.01861504465341568	2.3934990167617798e-05	0.015451369807124138	-0.022771671414375305	0.02243165858089924	0.1059054285287857	-0.0005473536439239979	-0.00893615186214447	-0.02143864706158638	-0.020391426980495453	0.007709600031375885	0.12468603253364563	0.046094510704278946	-0.04025482013821602	-0.05254466459155083	-0.07543215155601501	0.025693587958812714	-0.02918722666800022	0.02141391858458519	0.04537589102983475	0.052784234285354614	0.09580286592245102	0.0065569039434194565	0.027102742344141006	0.03359798341989517	-0.006548050791025162	0.026851311326026917	-0.027735719457268715	-0.014922266826033592	0.05881363898515701	-0.03409264236688614	-0.006577027961611748	0.01594228856265545	-0.08458645641803741	0.037097811698913574	0.06084062159061432	0.11186695098876953	0.02257753536105156	0.0768212229013443	0.0600396990776062	0.035805463790893555	0.006302455440163612
1	0.032279111444950104	0.0353645458817482	0.00797916017472744	0.00853089801967144	0.023012589663267136	0.03783837705850601	0.00956929475069046	0.02343829907476902	0.029921473935246468	0.005265047773718834	0.01478518359363079	0.023350458592176437	0.023025887086987495	0.027744591236114502	0.020765017718076706	0.018991556018590927	0.003762204200029373	0.013292735442519188	0.01396981906145811	0.030904509127140045	0.009864619933068752	0.0313800610601902	0.0032966462895274162	0.017353013157844543	0.04308696836233139	0.010168887674808502	0.00010889628902077675	-0.00671001709997654	0.01223946362733841	0.022655900567770004	0.022841360419988632	0.02356734685599804	0.02856513299047947	0.01791594922542572	0.029119201004505157	0.013095305301249027	0.01705540344119072	0.007543066516518593	0.013462422415614128	0.0099217239767313	0.0134587986394763	0.020705439150333405	0.00922832079231739	0.011855420656502247	0.0030840877443552017	0.0018599508330225945	0.030350595712661743	0.020552700385451317	0.007103653158992529	0.028233332559466362	-0.00614024605602026	0.034818295389413834	0.019701635465025902	0.010638093575835228	0.029281076043844223	0.030754785984754562	0.017139475792646408	0.0258046742528677	0.01840798556804657	0.005845488980412483	0.01306285709142685	0.019732460379600525	0.025552719831466675	0.020618105307221413	0.010906762443482876	0.031231539323925972	0.023881986737251282	0.02828989177942276	0.028073152527213097	0.030432485044002533	0.011461208574473858	0.015276001766324043	0.01999845914542675	0.03156274929642677	0.026618123054504395	0.021118614822626114	0.016050489619374275	0.00309576652944088	0.036273568868637085	0.02431238256394863	0.0244764294475317	0.004960675723850727	0.00970307644456625	0.014134637080132961	0.03092031180858612	0.038550566881895065	0.026383984833955765	0.022162683308124542	0.029837775975465775	0.028972433879971504	0.02542477287352085	0.019475750625133514	0.009851844981312752	0.035270728170871735	0.036172859370708466	0.03493625298142433	0.038276076316833496	0.032100118696689606	0.015645727515220642	0.012557593174278736	0.034786537289619446	0.02436475083231926	-0.029427994042634964	-0.03158745542168617	-0.031584396958351135	-0.045467980206012726	-0.1226288303732872	-0.005247775465250015	-0.0616314522922039	0.07037167996168137	0.029611952602863312	0.09503968060016632	-0.02052493765950203	0.09234390407800674	0.07555307447910309	0.1650921106338501	0.07974064350128174	0.07319766283035278	-0.043250419199466705	-0.07233268767595291	-0.06336832046508789	0.015340781770646572	0.019742747768759727	-0.005636164918541908	-0.030457153916358948	0.11205633729696274	0.003080263501033187	-0.007470135577023029	-0.04462697356939316	-0.03260573372244835	0.11067229509353638	-0.002277437597513199	0.07334566116333008	-0.05729581043124199	0.022485174238681793	0.03848700225353241	-0.14455117285251617	-0.0276852548122406	0.018292905762791634	0.014777611009776592	-0.01431300863623619	0.07212362438440323	-0.03127627819776535	-0.2072264850139618	0.14050813019275665	-0.013687575235962868	-0.12877613306045532	-0.12691043317317963	0.010055520571768284	-0.031925179064273834	-0.027752190828323364	0.08638574182987213	-0.06787845492362976	0.046079862862825394	-0.09761741757392883	0.11221778392791748	-0.03364032506942749	0.10356536507606506	0.03594877943396568	0.1385217159986496	-0.05751189589500427	0.0667361244559288	-0.052689407020807266	0.05624169856309891	0.06912919878959656	-0.04524722695350647	-0.0455666109919548	0.022515177726745605	-0.0335095152258873	0.001421365886926651	0.1017189547419548	0.1521953046321869	0.05303715914487839	-0.12810947000980377	-0.007704507559537888	0.054723240435123444	0.044903118163347244	-0.01880459114909172	0.020170636475086212	-0.0019178278744220734	0.055896155536174774	-0.026449348777532578	-0.08875042200088501	-0.19876480102539062	0.07644443958997726	-0.057083651423454285	0.017205487936735153	0.10449595749378204	0.0637800320982933	0.06998217850923538	-0.02113606408238411	-0.003348458558320999	-0.03747311607003212	0.08102311193943024	-0.08638034760951996	0.03145347535610199	0.10170058161020279	-0.030527271330356598	0.08820748329162598	0.008188818581402302	-0.03822563588619232	0.05006604269146919	-0.11440156400203705	0.04493261128664017	-0.08877404779195786	0.00476008141413331	-0.02253694273531437	0.07421201467514038	0.0863690972328186	0.006721288897097111	0.003451284021139145	-0.025693118572235107	0.11565690487623215	-0.013750339858233929	0.11487815529108047	0.005632493644952774	-0.08900526165962219	0.09342798590660095	-0.03871810436248779	-0.09998086839914322	0.030122214928269386	-0.025266628712415695	0.01533496007323265	-0.021977916359901428	0.10865522176027298	0.05806216597557068	-0.01644638366997242	-0.09692639857530594	-0.05437272787094116	0.09563831239938736	0.09636050462722778	0.10943024605512619	0.1338883638381958	0.06422708183526993	0.007878182455897331	-0.011042546480894089	0.06905759871006012	0.10103308409452438	-0.06164160743355751	0.12278880178928375	0.04205573350191116	0.043600521981716156	-0.07978788018226624	0.07286856323480606	0.04212963581085205	-0.08932431042194366	0.061694055795669556	0.10202787071466446	-0.04291962832212448	-0.06360115110874176	0.10538949072360992	0.01599735952913761	0.1248314380645752	0.03634447604417801	0.002253856509923935	0.020019399002194405	0.11150245368480682	0.1115434318780899	0.010779599659144878	0.040369968861341476	0.09399699419736862	-0.026857241988182068	0.04002160578966141	-0.008179619908332825	0.04896273836493492	0.07352719455957413	0.0696272924542427	0.046280618757009506	-0.032516248524188995	0.011892431415617466	0.19130253791809082	0.15243032574653625	0.1428755223751068	0.22915299236774445	-0.056784868240356445	0.0714166909456253	0.04883550852537155	0.04169885814189911	-0.07045221328735352	0.10143550485372543	0.15174606442451477	0.009756265208125114	-0.015467315912246704	-0.03988707810640335	-0.005845129489898682	0.052923403680324554	0.13982728123664856	0.004065155982971191	-0.0245053768157959	0.04993943125009537	-0.07238443195819855	0.10037896037101746	0.007904351688921452	-0.032720357179641724	0.10152816772460938	-0.10288925468921661	-0.04669548198580742	-0.05809283256530762	-0.03079858608543873	-0.004962332546710968	0.03462116792798042	-0.02937997132539749	0.13352499902248383	0.15973609685897827	-0.0019512418657541275	0.10986565798521042	-0.07916238903999329	-0.08050107210874557	-0.042044930160045624	0.11459939926862717	0.012780522927641869	-0.12961609661579132	-0.01150929369032383	0.026785219088196754	0.06593577563762665	-0.041014984250068665	-0.016523348167538643	0.005633533000946045	0.026065491139888763	0.07276515662670135	-0.05860724300146103	0.11365827172994614	0.0848652645945549	0.009117549285292625	0.10851646959781647	0.05883851647377014	-0.013179440051317215	0.06895776093006134	0.035705726593732834	0.0590510368347168	0.08991223573684692	-0.000982021912932396	0.035522423684597015	-0.026516824960708618	-0.0034665025305002928	-0.005629886873066425	0.04640749469399452	-0.06618064641952515	-0.14309732615947723	-0.10622715950012207	-0.10077986866235733	0.10136264562606812	-0.011876187287271023	-0.03884514421224594	0.13022799789905548	-0.07176308333873749	0.1196131482720375	0.11147135496139526	-0.13602565228939056	0.0759114921092987	0.15252400934696198	-0.1095934733748436	-0.04706059768795967	0.05273681879043579	-0.09420468658208847	0.05379193276166916	0.04480892792344093	-0.04216909036040306	-0.07854031026363373	0.04616307467222214	0.027106108143925667	0.0001259632408618927	0.12708060443401337	-0.08568747341632843	0.0603436604142189	0.030687730759382248	-0.00240820599719882	0.038925956934690475	-0.024348054081201553	0.07480856031179428	-0.04283679276704788	0.09249413013458252	0.16243328154087067	0.03581913933157921	0.0902557447552681	-0.03927921503782272	-0.042184438556432724	0.15971894562244415	-0.03532929718494415	-0.08578971028327942	-0.046490587294101715	-0.06758950650691986	0.012624494731426239	0.034042615443468094	-0.03693726658821106	0.029839089140295982	-0.02459653839468956	-0.060305483639240265	0.04542190954089165	0.1423252671957016	-0.028640512377023697	0.030833397060632706	-0.15852606296539307	0.07606345415115356	0.10087168216705322	0.044623568654060364	0.0014498643577098846	0.13361035287380219	-0.03441667556762695	0.1968907117843628	0.09320353716611862	-0.19278526306152344	0.13214370608329773	0.10869842022657394	0.1844608187675476	0.04690474271774292	-0.012110333889722824	0.05992620065808296	-0.0077941203489899635	0.08870565891265869	0.10562149435281754	-0.10571534186601639	-0.042934298515319824	0.01499275490641594	-0.07096080482006073	-0.038461506366729736	0.09397120028734207	0.25137045979499817	0.06430055946111679	0.05297689139842987	-0.04868387058377266	0.0685969740152359	-0.03472670167684555	0.049333106726408005	-0.0010314211249351501	-0.1362839937210083	0.04772218316793442	-0.07785908877849579	-0.047453418374061584	0.12322299182415009	0.019164131954312325	-0.0055902376770973206	-0.015331756323575974	0.1687658727169037	-0.07830460369586945	-0.10461926460266113	0.07431469112634659	-0.03739826753735542	0.09538095444440842	-0.06731114536523819	0.11860176920890808	-0.02457534521818161	-0.15042530000209808	-0.0037307720631361008	0.0719078928232193	-0.041925348341464996	-0.023880112916231155	0.08715332299470901	-0.009710466489195824	0.02843627706170082	0.05643118917942047	0.06494992971420288	-0.047275569289922714	-0.013679271563887596	-0.006032843142747879	0.05165571719408035	-0.10834699124097824	0.035742081701755524	-0.08254080265760422	-0.04587836563587189	-0.12120699882507324	0.04793065786361694	-0.04260290041565895	0.07984503358602524	-0.03444099426269531	0.0847427099943161	-0.08630328625440598	0.015726357698440552	0.05298396944999695	-0.0801425576210022	0.08067706227302551	0.0651194155216217	-0.1472485214471817	0.05312270671129227	0.06318581849336624	-0.016518985852599144	0.023918654769659042	0.11511080712080002	0.01568092592060566	0.016607249155640602	0.06788115948438644	0.2790919542312622	0.06170247122645378	0.04610088840126991	0.14475055038928986	0.029115058481693268	0.08143088966608047	-0.030273843556642532	-0.03365969657897949	-0.06610797345638275	0.006346222013235092	0.10403235256671906	-0.004970774054527283	0.013169292360544205	-0.030268056318163872	-0.05615399777889252	-0.02744409441947937	-0.0006055384874343872	0.02421628311276436	-0.012065345421433449	-0.09010682255029678	0.1292044222354889	0.0950932502746582	0.050591930747032166	0.050628043711185455	0.030051494017243385	0.07545061409473419	-0.005240443162620068	-0.01217849925160408	-0.07292427867650986	0.11454953998327255	-0.04758766293525696	0.02960166148841381	0.0992535650730133	-0.015557587146759033	0.03635368496179581	-0.05395250767469406	0.09438091516494751	-0.029185349121689796	0.17755621671676636	0.10619206726551056	-0.021241847425699234	-0.00044777803122997284	0.14401672780513763	0.0457119345664978	-0.041208334267139435	0.0769861489534378	-0.018783606588840485	0.049624618142843246	-0.06707505881786346	-0.020705848932266235	-0.013226404786109924	-0.02325170487165451	-0.043625880032777786	0.03216451779007912	-0.05162374675273895	-0.05120410770177841	0.13712485134601593	0.04480251669883728	-0.003420748747885227	0.1752791404724121	0.031830012798309326	0.04494829848408699	0.0607498437166214	0.11198108643293381	0.0923401415348053	0.025101259350776672	-0.01025325246155262	-0.05257124453783035	0.10963211953639984	0.1152641773223877	0.09339545667171478	0.1271723061800003	0.0012550204992294312	0.06508518010377884	0.0007175300270318985	-0.07093343138694763	0.15605144202709198	0.06639665365219116	-0.03158525377511978	-0.1542181819677353	-0.008483584970235825	0.106728695333004	-0.07355386018753052	0.023607395589351654	0.07478374242782593	-0.15814337134361267	0.007003471255302429	0.057920340448617935	0.13006022572517395	-0.024049337953329086	0.07686124742031097	-0.050832755863666534	-0.032443273812532425	0.01160239428281784	0.004991524387151003	-0.043305665254592896	0.015518875792622566	0.11940890550613403	-0.013991950079798698	0.06011895090341568	0.05523603409528732	0.16077956557273865	0.09905324131250381	-0.049085453152656555	0.027934405952692032	0.014153474941849709	0.07166105508804321	0.09744423627853394	0.07949022203683853	0.08363400399684906	0.10100895166397095	0.053916722536087036	-0.11412952095270157	-0.047327592968940735	0.10482167452573776	0.07046204805374146	-0.00032674800604581833	-0.08438907563686371	0.03539670258760452	0.0031146048568189144	0.10332979261875153	0.09285925328731537	0.037433695048093796	0.0658852607011795	-0.07286374270915985	-0.01534125953912735	0.05391112342476845	0.1344524621963501	0.0674719288945198	0.09576577693223953	0.0715290904045105	0.0696205273270607	-0.02670828253030777	-0.10694622993469238	0.07558033615350723	-0.07212740182876587	-0.04428023472428322	0.03915311396121979	-0.012400772422552109	0.14366033673286438	0.017244528979063034	-0.0553232803940773	-0.1458396166563034	-0.06846737116575241	0.09038439393043518	-0.049306392669677734	-0.000341806560754776	-0.03261673450469971	-0.01918032392859459	0.09096986055374146	0.09775201976299286	-0.08743767440319061	0.053189024329185486	-0.03818279504776001	-0.07284705340862274	0.1529754400253296	-0.00069398432970047	0.024900740012526512	-0.0900353193283081	0.03039945662021637	0.13311490416526794	-0.005554240196943283	0.04717458784580231	-0.001766163855791092	0.016556767746806145	0.051767315715551376	0.008796531707048416	0.03673579543828964	0.10454975068569183	-0.07361028343439102	0.013156374916434288	-0.03797442466020584	-0.024242697283625603	0.0698801577091217	0.017183348536491394	0.030092697590589523	0.10968835651874542	0.03307697921991348	-0.01693234220147133	0.060592785477638245	-0.040360622107982635	-0.0206867977976799	0.09260272979736328	-0.005050620064139366	-0.03119140863418579	0.010198265314102173	-0.08609695732593536	-0.0017126016318798065	0.21135732531547546	-0.023296155035495758	0.06323662400245667	0.015271864831447601	-0.037871841341257095	0.017433851957321167	0.09903763234615326	0.10998622328042984	-0.011128795333206654	0.030404560267925262	-0.004683181643486023	0.04327327013015747	0.01618582382798195	0.11311846226453781	0.05809345841407776	0.17168182134628296	-0.017993975430727005	0.008051164448261261	-0.013586420565843582	-0.02478620782494545	0.028723236173391342	0.08933764696121216	0.010779877193272114	-0.008471610024571419	-0.01244281604886055	-0.06377668678760529	0.003382991999387741	0.01664816215634346	-0.05422411113977432	0.01260916143655777	0.09334374219179153	-0.0841626450419426	0.12222601473331451	-0.0647919699549675	-0.07465581595897675	0.01759396307170391	0.08891135454177856	0.14737114310264587	0.005713792517781258	-0.06983043253421783	-0.024065576493740082	-0.13326303660869598	0.12127818912267685	-0.026329733431339264	0.1639517843723297	0.11223022639751434	0.2513739764690399	0.014413239434361458	-0.02894952893257141	0.021696466952562332	0.005690271034836769	-0.00819494016468525	-0.05043797194957733	0.060839585959911346	0.057912711054086685	0.13820679485797882	-0.033379655331373215	0.09883131831884384	0.057061851024627686	-0.06129053235054016	-2.495851367712021e-05	0.14535406231880188	0.12493971735239029	0.009793698787689209	-0.09592710435390472	0.08899776637554169	0.028441905975341797	-0.03532430902123451	-0.07718226313591003	0.0208122618496418	-0.1307399868965149	-0.009345082566142082	0.010157469660043716	-0.08463190495967865	-0.10676293075084686	0.02102058380842209	-0.08862212300300598	0.0023987870663404465	0.07473790645599365	0.08226999640464783	-0.10284439474344254	0.1869533360004425	0.09245388209819794	-0.049475640058517456	0.059471406042575836	-0.02834772691130638	0.0473700687289238	-0.12131484597921371	-0.0021264778915792704	-0.08252276480197906	0.159808948636055	0.10834585875272751	-0.07331182062625885	-0.04525110498070717	0.046803493052721024	-0.11974789947271347	-0.04868980869650841	0.07239361107349396	-0.0011534523218870163	-0.07546672970056534	0.11845257133245468	0.2417180836200714	-0.1507687270641327	-0.11685153841972351	0.04344312846660614	0.15370716154575348	0.01600271835923195	-0.02814069576561451	-0.013989139348268509	-0.10707129538059235	0.039256416261196136	0.10630229115486145	-0.05404971167445183	-0.06170929968357086	0.033738575875759125	0.03480539843440056	0.003998598083853722	0.07192587852478027	0.03265387564897537	0.11391596496105194	-0.012091189622879028	0.035671211779117584	0.006400985177606344	-0.01244310848414898	-0.05005490407347679	0.015248982235789299	-0.1840360164642334	0.07746517658233643	0.014228247106075287	0.01946103200316429	-0.20948068797588348	0.09248922020196915	-0.004133444279432297	0.050654858350753784	-0.04097139835357666	0.04435998946428299	-0.05210655927658081	-0.05935821309685707	0.06124367564916611	-0.03248710557818413	0.18166103959083557	-0.04122915118932724	-0.08565176278352737	0.03358674421906471	0.001322406344115734	-0.0036216601729393005	-0.060526371002197266	0.00696602463722229	0.03508376702666283	0.09710237383842468	0.16136564314365387	-0.049027495086193085	-0.08214830607175827	0.02474028617143631	-0.03805449977517128	0.002235676161944866	0.03850454092025757	0.009459157474339008	0.09343994408845901	0.02722739800810814	0.024080634117126465	-0.06520925462245941	0.10870161652565002	0.15835890173912048	-0.06246132776141167	-0.001441827043890953	-0.06064630299806595	-0.01635383628308773	0.052868373692035675	-0.004447677172720432	-0.037101633846759796	0.04616028070449829	0.04505224525928497	-0.0039034076035022736	0.008581051602959633	-0.003781702369451523	-0.03810722380876541	-0.018960943445563316	0.06274643540382385	-0.08850006014108658	0.04245615750551224	0.10618375241756439	0.022335395216941833	0.01849880814552307	0.045202337205410004	0.10273164510726929	0.23371344804763794	-0.023534249514341354	0.05964228883385658	-0.04187089949846268	0.11657765507698059	-0.11776408553123474	-0.016507089138031006	0.03730916231870651	-0.04998691752552986	-0.025442129001021385	-0.12146072089672089	0.1460111439228058	-0.12377293407917023	0.04857814684510231	-0.09126792848110199	0.03531308099627495	0.06787461787462234	-0.058939848095178604	0.2735912799835205	-0.09670449793338776	-0.0110249575227499	-0.07313908636569977	-0.07962831854820251	-0.008542697876691818	-0.09333886206150055	0.1602238416671753	0.11862510442733765	-0.10772141814231873	0.02316683903336525	-0.025073524564504623	-0.03060140088200569	0.046264298260211945	0.1797334849834442	0.06437935680150986	0.18766933679580688	0.05051078647375107	0.12610626220703125	0.13889789581298828	-0.003921023104339838	-0.023927219212055206	0.06916578114032745	0.05619888752698898	0.012381499633193016	0.14393019676208496	0.09675447642803192	0.05936172977089882	0.046539030969142914	0.028033088892698288	0.14996227622032166	-0.020899266004562378	0.04095420986413956	0.13038238883018494	0.09322579205036163	0.026772765442728996	-0.06961232423782349	0.0200197771191597	0.012130185030400753	0.05677960440516472	-0.00023493170738220215	-0.07680580765008926	-0.038095906376838684	-0.05014285817742348	0.03170689940452576	-0.033447373658418655	0.04589501768350601	0.06973385810852051	0.1220364198088646	-0.03836610168218613	-0.15875908732414246	0.036994799971580505	0.08359652757644653	0.065877266228199	-0.0018987739458680153	0.047603439539670944	0.02621448040008545	0.02289086952805519	0.011314991861581802	0.13991905748844147	0.08860660344362259	0.0056471507996320724	-0.10957222431898117	-0.0579364113509655	0.032733067870140076	0.0124483872205019	-0.03136347234249115	0.12616977095603943	0.08031468093395233	-0.14094369113445282	0.024349583312869072	0.08280319720506668	0.11986100673675537	-0.08984801918268204	-0.015381095930933952	-0.01255696639418602	0.04880551993846893	-0.053176552057266235	-0.020842626690864563	0.16961264610290527	-0.051590822637081146	0.02077306993305683	0.11238052695989609	-0.14036667346954346	0.000673346221446991	0.06550556421279907	-0.021724745631217957	0.056721363216638565	-0.09487833827733994	0.1024114340543747	-0.08395075052976608	0.0456513948738575	-0.04504331201314926	0.06654799729585648	0.00890595093369484	0.009659179486334324	-0.02647009864449501	0.07139530777931213	0.14380700886249542	-0.0011001043021678925	-0.11029218137264252	-0.003428170457482338	0.26353251934051514	0.01056080311536789	0.02660352550446987	0.07251589000225067	0.031084779649972916	-0.01795310154557228	-0.06618420034646988	0.07029366493225098	-0.008995615877211094	-0.019961373880505562	0.08031010627746582	-0.05573485419154167	-0.01794162020087242	0.060366109013557434	0.13168789446353912	0.0019774511456489563	0.17996667325496674	0.04303570091724396	0.020092714577913284	0.1281137317419052	0.019777968525886536	0.020431960001587868	0.0338532030582428	-0.023072952404618263	-0.03389279171824455	0.12003032863140106	0.07334598153829575	-0.07880806177854538	0.15323448181152344	0.038813892751932144	-0.04927016794681549	0.04454713314771652	-0.006467018276453018	0.03596056252717972	0.07470318675041199	-0.05222287029027939	-0.20131830871105194	-0.02617458999156952	-0.07871075719594955	-0.005087388679385185	0.04811379685997963	-0.04558936879038811	0.10763919353485107	-0.032529015094041824	0.005453253164887428	-0.008788663893938065	0.05090968310832977	0.1271805316209793	-0.13980121910572052	0.022128015756607056	-0.026101352646946907	-0.06545709073543549	-0.05351094901561737	-0.0014651753008365631	0.10147373378276825	0.01763559877872467	0.052282676100730896	0.04810779541730881	-0.06023404747247696	-0.006243446841835976	-0.0006014928221702576	-0.05283444747328758	-0.17008182406425476	0.06217446178197861	-0.13374166190624237	0.09956854581832886	0.0699368491768837	0.0040145330131053925	-0.004583599045872688	0.09003306180238724	0.11833342909812927	0.020939400419592857	0.02199360355734825	-0.042291317135095596	0.11778980493545532	0.1117875725030899	0.198372483253479	0.037900086492300034	-0.03607838228344917	-0.05314849317073822	0.06597664952278137	-0.02554973214864731	-0.002728613093495369	0.056695543229579926	0.032497815787792206	0.08409459888935089	-0.07183316349983215	0.44784533977508545	0.043616145849227905	0.028343565762043	-0.08320546895265579	0.019486043602228165	-0.028253287076950073	0.016171103343367577	0.11424423009157181	0.254962682723999	0.04465106874704361	-0.06323656439781189	0.056301895529031754	-0.021170776337385178	0.07380308210849762	0.1237376481294632	0.00571797788143158	-0.06340010464191437	-0.04155084490776062	-0.06955311447381973	0.12713688611984253	0.0067197410389781	0.10097873210906982	0.0846741646528244	0.10227356851100922	0.021557629108428955	0.051327936351299286	0.005337236449122429	0.060145698487758636	0.08676758408546448	-0.02440349943935871	0.03616524487733841	-0.06667782366275787	0.021014172583818436	0.009471982717514038	0.06560297310352325	0.15329095721244812	0.025493847206234932	-0.032446328550577164
2	-0.02631770819425583	-0.04470682144165039	-0.026146432384848595	-0.03890584409236908	-0.04771868884563446	-0.020024411380290985	-0.0628313422203064	-0.026412934064865112	-0.04474829137325287	-0.04912149906158447	-0.04832467809319496	-0.031161291524767876	-0.04640061408281326	-0.06241947412490845	-0.04279809445142746	-0.01567929983139038	-0.03638005629181862	-0.051669515669345856	-0.053602926433086395	-0.03484046831727028	-0.041684627532958984	-0.0534210130572319	-0.049914006143808365	-0.0339171402156353	-0.018508518114686012	-0.043553076684474945	-0.04064498096704483	-0.04659276083111763	-0.04523536190390587	-0.041003890335559845	-0.04165268689393997	-0.046047504991292953	-0.02561825141310692	-0.03481902554631233	-0.052649542689323425	-0.05087318271398544	-0.05893079936504364	-0.06262526661157608	-0.0563327930867672	-0.04249294847249985	-0.03527034446597099	-0.032480545341968536	-0.023206796497106552	-0.04748300835490227	-0.059168741106987	-0.041782405227422714	-0.039989735931158066	-0.033342137932777405	-0.05630870163440704	-0.04033399745821953	-0.055014751851558685	-0.05539943277835846	-0.023860853165388107	-0.0333651639521122	-0.05017024278640747	-0.020346738398075104	-0.04327501729130745	-0.05391218513250351	-0.0409366600215435	-0.06414337456226349	-0.053013190627098083	-0.03506086766719818	-0.04652168229222298	-0.07126709818840027	-0.032510288059711456	-0.046146195381879807	-0.04787734895944595	-0.06374470144510269	-0.043096959590911865	-0.03727923333644867	-0.04667452722787857	-0.03889014571905136	-0.06766634434461594	-0.041644856333732605	-0.018949102610349655	-0.04842983931303024	-0.03270178288221359	-0.04477464407682419	-0.041571229696273804	-0.05614142492413521	-0.042946889996528625	-0.05626705288887024	-0.034601181745529175	-0.011083999648690224	-0.018506772816181183	-0.040371738374233246	-0.03792557120323181	-0.06047455221414566	-0.026029415428638458	-0.04526422917842865	-0.05900734290480614	-0.038733042776584625	-0.049534376710653305	-0.04243570566177368	-0.04197585582733154	-0.06821960210800171	-0.060045573860406876	-0.04189850389957428	-0.03763119876384735	-0.03877318277955055	0.09061913192272186	-0.0648607388138771	0.05283660441637039	-0.11263176798820496	-0.07156508415937424	0.05221382901072502	0.07547932863235474	0.0013400763273239136	0.12544214725494385	0.1560669243335724	0.06973420828580856	0.07381181418895721	0.005219306796789169	0.10539857298135757	-0.19196255505084991	0.05746709555387497	0.07863674312829971	0.011322345584630966	0.04269682615995407	0.14670595526695251	0.1257556676864624	-0.0014826104743406177	0.11575644463300705	0.0509842224419117	0.24105513095855713	0.13389769196510315	0.08000838756561279	0.020791087299585342	0.23464739322662354	0.06771063804626465	0.07362207770347595	0.0010845307260751724	-0.0021832287311553955	0.14816036820411682	0.05831381678581238	0.02823527529835701	-0.07069024443626404	0.03088301420211792	0.0642688199877739	0.038114748895168304	0.07408001273870468	-0.05273260176181793	0.07907205820083618	0.013492833822965622	-0.04159841313958168	0.008905868977308273	-0.018057577311992645	-0.011579890735447407	0.01060500554740429	-0.07071272283792496	0.25158166885375977	0.10216144472360611	-0.045256227254867554	0.10775775462388992	-0.007709943689405918	0.05447351932525635	0.06809324771165848	0.13467179238796234	0.08655887842178345	0.16940432786941528	-0.003964337520301342	-0.030324352905154228	0.1334802508354187	-0.015584052540361881	0.16674989461898804	0.038168616592884064	0.052979256957769394	0.010825654491782188	0.08723091334104538	0.03641301766037941	-0.0029537759255617857	0.07897117733955383	0.017388038337230682	-0.03699583187699318	0.0078732930123806	-0.0027609895914793015	0.12298792600631714	0.008128609508275986	0.07625717669725418	0.0333888977766037	0.0352768748998642	-0.005771484225988388	-0.044593825936317444	0.013219758868217468	0.13176138699054718	0.04605682194232941	0.027443930506706238	0.12179736793041229	0.010625995695590973	0.15001457929611206	-0.10037904232740402	-0.0663871318101883	0.14034295082092285	0.02717001736164093	-0.08468648791313171	0.13403411209583282	0.0773395523428917	0.09579889476299286	0.10344037413597107	0.060672108083963394	0.06708582490682602	0.06991272419691086	-0.003650963306427002	0.06983969360589981	-0.012843042612075806	-0.06523492932319641	0.12146361917257309	0.014699503779411316	0.0950736254453659	-0.02470187097787857	0.20725655555725098	-0.0425424762070179	0.08572086691856384	0.012146858498454094	-0.017707478255033493	0.10489386320114136	0.07690460979938507	0.07237254083156586	0.016793886199593544	0.1498890519142151	0.013812460005283356	-0.09215763211250305	0.007929894141852856	-0.09885545074939728	0.1562630832195282	0.06363245844841003	0.04467317834496498	0.03703239560127258	-0.004678228870034218	0.052461009472608566	0.1609330028295517	0.10149125754833221	0.06855852901935577	0.04617231711745262	0.02334301359951496	0.09040459990501404	0.09717287123203278	0.10192731022834778	-0.006560898385941982	0.08907362073659897	-0.0014460566453635693	0.024930378422141075	-0.06825998425483704	0.08221801370382309	0.07271181046962738	0.02169455587863922	0.16849815845489502	-0.044731102883815765	0.11499841511249542	0.027838632464408875	0.056488584727048874	0.10302391648292542	0.011193796992301941	-0.01895730383694172	-0.09520530700683594	0.09718691557645798	0.10664437711238861	0.043231818825006485	0.07213834673166275	-0.015915170311927795	0.05166880041360855	0.0640348494052887	0.28471213579177856	-0.013901285827159882	-0.06538371741771698	-0.015812300145626068	-0.035079579800367355	0.008958296850323677	0.012366019189357758	-0.02551802061498165	-0.08310515433549881	0.097027987241745	-0.1469631791114807	0.174836203455925	-0.048470381647348404	0.09186042845249176	-0.11390696465969086	0.2614709734916687	0.006394355557858944	0.11565601825714111	0.006310984492301941	0.052731942385435104	-0.09028416872024536	0.08222206681966782	-0.06804083287715912	-0.006521934177726507	0.10390861332416534	0.012529939413070679	0.08622343093156815	0.1298363208770752	0.04969725012779236	0.030072998255491257	0.0013519339263439178	0.036725178360939026	0.024975571781396866	0.11246232688426971	0.02604735642671585	-0.037976838648319244	0.12288950383663177	0.07735742628574371	0.15673576295375824	0.10959885269403458	0.23369500041007996	0.019103549420833588	-0.16138623654842377	-0.02361230179667473	0.09727976471185684	0.07342012971639633	-0.0952388197183609	0.05692310631275177	0.042940542101860046	-0.07584868371486664	0.030956847593188286	-0.07231724262237549	0.1232832670211792	0.17057634890079498	0.05942126363515854	0.005112957209348679	-0.06776784360408783	-0.03713282197713852	-0.001009184867143631	0.12067179381847382	-0.027653589844703674	0.04139898717403412	-0.006874508690088987	-0.004846715368330479	-0.023702912032604218	0.025358550250530243	-0.004240343347191811	0.11284075677394867	0.07706305384635925	0.025927016511559486	0.13903523981571198	0.008031437173485756	0.06677328050136566	-0.005783027969300747	0.05602987855672836	0.12124905735254288	0.06948240846395493	0.0925067812204361	-0.08005927503108978	-0.005481729283928871	0.045511394739151	0.1259503960609436	0.20537006855010986	-0.007328813895583153	0.07076852023601532	-0.02484116517007351	0.03549406677484512	-0.05757575109601021	0.022202949970960617	0.10864520072937012	-0.030945058912038803	0.00999072752892971	0.08938542008399963	0.14064237475395203	0.045544613152742386	0.08005458116531372	0.09177054464817047	0.28953859210014343	-0.0007209144532680511	0.11368917673826218	0.1050526425242424	0.24481970071792603	-0.01038629561662674	-0.024210847914218903	0.10342255234718323	0.06409493088722229	0.09856857359409332	0.08566583693027496	0.022360481321811676	0.07033409923315048	0.05235855281352997	0.13147161900997162	0.15952523052692413	0.1057121679186821	0.22951698303222656	-0.118193618953228	0.1407354176044464	0.0253651961684227	-0.057462409138679504	0.016886524856090546	0.009456533938646317	0.039403047412633896	0.060190364718437195	0.050747085362672806	0.11770226806402206	0.03779483959078789	0.040588751435279846	0.09381115436553955	0.0948227196931839	0.09950128942728043	0.08580365777015686	0.06659180670976639	0.02909603714942932	-0.06419913470745087	0.046835482120513916	-0.08145704120397568	0.07047724723815918	-0.012722177430987358	0.016413724049925804	0.144802987575531	-0.019752884283661842	-0.05542945861816406	0.0754176676273346	0.04396698996424675	0.14950214326381683	0.13319630920886993	-0.07516661286354065	0.05972632020711899	0.06910429149866104	-0.07693906873464584	0.0019783563911914825	0.10489857196807861	0.059500470757484436	-0.0031044017523527145	0.13335388898849487	0.08259975910186768	0.17007151246070862	0.06075756624341011	-0.06344299018383026	-0.02357746846973896	0.04170127585530281	0.11804003268480301	0.13275432586669922	0.12329526245594025	0.10540124028921127	0.03195616230368614	0.1172526478767395	0.1048736646771431	0.02811681479215622	-0.04086978733539581	0.08465082198381424	-0.010413754731416702	0.05424162745475769	-0.00306456396356225	0.01975410431623459	0.16875605285167694	-0.03778688237071037	0.08286316692829132	-0.04732821509242058	0.1178184300661087	0.03537101298570633	-0.08165385574102402	0.008466212078928947	0.05686519294977188	0.05590379983186722	0.11725987493991852	0.21787217259407043	-0.009871658869087696	0.08207421004772186	0.07844416797161102	0.04903751239180565	0.06865093111991882	0.07333578914403915	-0.03095335327088833	-0.014440744183957577	0.11226604133844376	0.03111279383301735	-0.057514436542987823	0.09538894146680832	0.1968822330236435	-0.05709340050816536	0.09670271724462509	0.10423095524311066	0.2473728507757187	-0.045185741037130356	-0.053242698311805725	0.14752992987632751	-0.09582814574241638	0.04612492769956589	0.023991789668798447	0.20997905731201172	-0.12530763447284698	0.10436339676380157	0.08758366107940674	-0.004201808944344521	0.0764751061797142	0.040283724665641785	0.06641742587089539	0.10840162634849548	0.06896516680717468	0.02010519430041313	0.08660924434661865	0.07475455105304718	0.0023462995886802673	0.08217467367649078	0.11434806138277054	0.07858157902956009	0.15280573070049286	-0.10243462771177292	0.0040161870419979095	0.04694785177707672	0.05209146812558174	0.04533984139561653	0.0408601388335228	-0.05005476623773575	0.054509494453668594	0.17955860495567322	0.028296958655118942	0.009541124105453491	0.06141039729118347	-0.07230140268802643	-0.040669746696949005	0.08975949883460999	0.04040069133043289	0.13905251026153564	0.10161186754703522	-0.129542276263237	0.03332795202732086	-0.0816098302602768	0.07483626157045364	-0.05988859385251999	0.1806982308626175	-0.03715188801288605	0.08818493038415909	0.04551360756158829	0.08200913667678833	0.09604842215776443	0.04693672060966492	-0.08946171402931213	0.007512637414038181	0.05159098654985428	0.04150813817977905	0.1017494946718216	0.022973978891968727	0.05649444833397865	0.02795090526342392	0.0563930906355381	-0.06125865876674652	0.04370805248618126	0.13162602484226227	-0.0482807457447052	0.037522099912166595	0.02237561158835888	-0.0638129785656929	-0.025040537118911743	-0.04250863939523697	-0.05309034883975983	-0.04928533732891083	0.07784582674503326	-0.04523499310016632	0.025210930034518242	0.08898411691188812	-0.02579028531908989	-0.03061962127685547	0.004990842193365097	0.18352651596069336	-0.04069657623767853	-0.05431131273508072	0.03984398767352104	0.0856747180223465	-0.08083172142505646	0.06702685356140137	0.0038517869543284178	0.009489074349403381	0.1427777111530304	0.14731015264987946	0.09233216941356659	-0.07884405553340912	-0.11029111593961716	0.06074455380439758	0.08830196410417557	0.07495713233947754	0.034430112689733505	0.03609675541520119	-0.005985956639051437	0.04295611381530762	0.002495541237294674	-0.0006139073520898819	0.09139096736907959	0.025552771985530853	0.07522443681955338	0.08308616280555725	-0.031247200444340706	-0.17466776072978973	-0.0826827883720398	0.030545072630047798	0.0389469750225544	-0.007732043042778969	0.058589957654476166	-0.04649164527654648	-0.11651802062988281	0.046505969017744064	0.023261748254299164	-0.07317069917917252	0.12322010099887848	0.20180968940258026	0.20315389335155487	0.12204055488109589	0.013063902966678143	0.10840219259262085	0.00690808892250061	-0.017117531970143318	0.10674238204956055	-0.0010078735649585724	0.11010658740997314	0.019121427088975906	0.06021428480744362	0.05426153913140297	0.02858009934425354	-0.01578383520245552	0.0371302030980587	-0.1185532957315445	0.1662764698266983	0.08772431313991547	0.027158115059137344	0.010569119825959206	0.1723683923482895	-0.06268829107284546	0.11195628345012665	0.0922560766339302	-0.038251496851444244	0.06838123500347137	0.1367129236459732	0.029571102932095528	0.10101112723350525	0.011840762570500374	-0.03842737525701523	0.07199777662754059	0.008651282638311386	0.023408982902765274	0.022949155420064926	0.06880103051662445	0.017409030348062515	0.1387990415096283	0.15424887835979462	-0.05539283528923988	0.09758178144693375	0.00892229937016964	0.13506345450878143	0.10053224861621857	0.01459863968193531	0.04906618967652321	0.05930966138839722	-0.04084758833050728	0.008904554881155491	0.014367379248142242	-0.012640385888516903	0.06905528903007507	0.10327120870351791	0.06935512274503708	-0.030161336064338684	0.02046983689069748	0.1494084596633911	-0.00019917497411370277	0.03382308408617973	-0.09570220112800598	0.023385753855109215	0.11780443787574768	0.03616117686033249	-0.11988404393196106	0.10711202025413513	-0.01634465530514717	0.08136440813541412	0.022534912452101707	0.08758941292762756	-0.034482572227716446	0.018298646435141563	0.0726233720779419	0.05194031447172165	-0.005904612131416798	0.23856738209724426	0.0057881176471710205	0.16069820523262024	0.08432125300168991	-0.1204066276550293	-0.06690714508295059	0.00022813305258750916	0.17916297912597656	0.08437561988830566	0.13511750102043152	-0.17253190279006958	0.02505575492978096	0.07149427384138107	0.04566900432109833	-0.06712953746318817	0.03484637290239334	0.13348934054374695	0.036120302975177765	0.03792992979288101	0.013195578008890152	0.12508714199066162	0.09887079149484634	0.06620075553655624	0.26579493284225464	0.07654785364866257	0.15986023843288422	-0.06890707463026047	0.09108812361955643	-0.11863788962364197	0.14998826384544373	-0.028881164267659187	-0.04705704748630524	-0.03206891566514969	0.034598708152770996	0.08068489283323288	-0.0068569486029446125	0.13418222963809967	0.12867344915866852	0.03195549547672272	-0.022017836570739746	0.0723104476928711	0.006773144006729126	0.05576884746551514	-0.0716162770986557	0.12833528220653534	0.03572855517268181	0.048961982131004333	0.0969349592924118	0.09004423767328262	0.0021996311843395233	0.010240180417895317	0.07349616289138794	0.04205894470214844	0.0460200309753418	-0.07809701561927795	0.037321507930755615	0.27525925636291504	0.015945326536893845	0.07375334203243256	0.17474041879177094	-0.117001473903656	0.0027116751298308372	0.12228235602378845	0.17796191573143005	0.04374197870492935	0.0928647518157959	0.18296052515506744	0.10976830869913101	0.11259493976831436	0.09303116798400879	-0.013779275119304657	0.12470415234565735	0.1550314873456955	0.12399647384881973	0.024755824357271194	0.032445672899484634	-0.03412496671080589	0.0019832514226436615	0.07329373061656952	0.15142899751663208	0.004558036103844643	-0.04842466861009598	-0.027367733418941498	0.14168453216552734	0.06603547930717468	-0.07123162597417831	-0.014474333263933659	0.027217907831072807	0.0922333374619484	0.027517784386873245	0.04118742793798447	0.0013906508684158325	-0.008956889621913433	-0.003322513774037361	-0.031590379774570465	-0.0074946098029613495	0.009115281514823437	0.051295407116413116	0.15046152472496033	0.22826704382896423	-0.0352042019367218	-0.049670830368995667	0.04990331456065178	-0.048466458916664124	0.10973481088876724	0.08170507103204727	0.009501318447291851	0.063623808324337	0.052535280585289	0.05243491381406784	0.08802127093076706	0.1540990024805069	0.11154362559318542	-0.07983816415071487	0.0747862309217453	0.10510566085577011	0.07318771630525589	0.2089521884918213	-0.017069939523935318	0.01753520965576172	6.295740604400635e-07	0.07521384209394455	-0.011708802543580532	0.027756081894040108	0.0650046318769455	-0.016191309317946434	0.037310853600502014	0.008823690935969353	-0.0776195079088211	0.06946972012519836	0.030649136751890182	0.020276742056012154	0.02698056399822235	0.015135115012526512	0.0002890340983867645	-0.011410268023610115	-0.004085369408130646	0.058753564953804016	0.0759512409567833	0.15221312642097473	-0.056935228407382965	0.159426748752594	0.015778085216879845	0.05104377493262291	-0.034857604652643204	0.07024085521697998	0.06831192970275879	-0.06870754808187485	0.17035944759845734	0.021818794310092926	0.026510346680879593	0.024386554956436157	0.06406103074550629	0.2038002610206604	-0.007125308737158775	0.139318585395813	0.038138072937726974	0.0069253109395504	0.02265116199851036	0.03186514601111412	0.05846748501062393	0.10155276954174042	0.09104063361883163	-0.04397350549697876	0.009310856461524963	-0.0017847921699285507	-0.011775854974985123	0.06961280107498169	0.011813321150839329	0.0815710574388504	-0.09952138364315033	-0.07710447907447815	0.05598169565200806	0.14386674761772156	0.13838091492652893	-0.034445520490407944	0.006984228268265724	0.12224936485290527	0.2014702707529068	-0.09741560369729996	-0.08609601855278015	0.09501753002405167	-0.0033187055960297585	0.08195832371711731	0.11008226126432419	0.08983840048313141	0.049101635813713074	0.12740756571292877	0.03084290400147438	-0.006272213067859411	0.09780922532081604	-0.05524510145187378	0.07375570386648178	0.11265335977077484	0.07357678562402725	0.010700647719204426	0.13336414098739624	0.07037182152271271	0.10737679898738861	-0.019842009991407394	-0.17218990623950958	0.02527421899139881	0.04228341579437256	0.030681166797876358	-0.0462028868496418	-0.1871657371520996	0.17173868417739868	0.17256101965904236	0.04033701866865158	-0.0011826269328594208	-0.04959126189351082	0.012946934439241886	0.19774401187896729	0.032106995582580566	0.029636776074767113	-0.07629776746034622	0.11224310100078583	0.12350477278232574	0.04792240262031555	-0.08563191443681717	0.0741436630487442	-0.0509035587310791	-0.15446530282497406	0.04377661645412445	0.03533490002155304	0.12091148644685745	0.010404306463897228	0.02162688970565796	0.06039232760667801	0.025991342961788177	0.018264587968587875	-0.029301896691322327	-0.042150888592004776	0.011580925434827805	-0.13495118916034698	0.19841670989990234	0.11561677604913712	0.11774693429470062	0.08924713730812073	0.18160608410835266	0.03916323930025101	0.13248535990715027	0.034844737499952316	0.05234222114086151	0.08387267589569092	0.07151994109153748	0.05716298148036003	0.0193638876080513	-0.03211050480604172	0.15266261994838715	-9.395740926265717e-05	0.02188851311802864	0.06745579838752747	0.09424017369747162	0.12911635637283325	0.01403365284204483	0.08135411143302917	0.015915239229798317	-0.0213570985943079	0.11822208762168884	0.07946231961250305	0.12032563239336014	0.1438145786523819	0.09255453944206238	0.16656848788261414	-0.10263904929161072	0.19525612890720367	0.0893498882651329	0.019401349127292633	-0.006286448799073696	0.008976086974143982	0.034832946956157684	0.0014440268278121948	0.12463406473398209	0.10803312063217163	-0.03243080526590347	0.06457450240850449	0.004265747033059597	-0.03125237673521042	0.12186762690544128	-0.006125936284661293	0.0017872750759124756	-0.0596599206328392	0.14262720942497253	0.14264632761478424	0.09989407658576965	-0.033883653581142426	0.020365672186017036	0.08853115141391754	0.05724785104393959	0.06278566271066666	-0.07465647161006927	0.08098708838224411	-0.04500941187143326	0.040455568581819534	-0.03566022962331772	0.016865868121385574	-0.09395881742238998	0.018220949918031693	0.12677790224552155	0.117767333984375	0.05224421247839928	0.15195897221565247	0.04644429683685303	0.03566974401473999	-0.014831025153398514	0.15466423332691193	0.05025845766067505	-0.059759337455034256	-0.07651221752166748	0.04591129720211029	-0.08869075030088425	-0.05231260880827904	-0.058061812072992325	0.12085515260696411	0.04948431998491287	0.08790811896324158	0.08125568181276321	0.006420895457267761	0.19684995710849762	0.07238489389419556	-0.09554281085729599	0.0735211968421936	0.02306646853685379	0.07591944187879562	0.049369752407073975	0.03742193803191185	0.08650650084018707	0.10599487274885178	0.07997147738933563	0.05898313969373703	-0.02245269902050495	-0.0075416285544633865	0.04548954591155052	0.17081552743911743	-0.02047732099890709	0.07967308163642883	-0.027335114777088165	0.03652997314929962	0.12409859895706177	-0.045765530318021774	0.10501332581043243	0.07561086118221283	0.04818333685398102	-0.23394298553466797	0.11174997687339783	0.0903220847249031	0.044931329786777496	-0.10119341313838959	0.022668350487947464	-0.0008411855669692159	0.033681921660900116	0.19091421365737915	0.021287227049469948	0.05167365446686745	0.14942637085914612	0.03698548674583435	0.056943103671073914	0.0054383063688874245	0.00013415515422821045	0.03502053767442703	0.1919761300086975	0.028993070125579834	0.04630103334784508	0.01749957725405693	0.12440286576747894	-0.10064124315977097	0.16475096344947815	-0.07351422309875488	0.07847224920988083	-0.05064406991004944	0.10790383815765381	0.0077183423563838005	0.07369715720415115	0.1045057624578476	0.14677397906780243	0.0443594790995121	0.0701700747013092	0.029752859845757484	0.1002238467335701	0.17760257422924042	0.14699773490428925	0.042977698147296906	0.04761554300785065	-0.1285005360841751	0.027091195806860924	-0.025836270302534103	0.07089006155729294	0.04892094433307648	0.1087699756026268	0.09699273854494095	-0.029670095071196556	0.08462779968976974	0.05610737204551697	0.03206459432840347	-0.0016021300107240677	-0.019685283303260803	0.03407975658774376	0.013440369628369808	0.07853329181671143	0.23100988566875458	0.03259548172354698	0.037155620753765106	0.011396033689379692	-0.08682084083557129	-0.03688982129096985	0.07653632014989853	0.02870076894760132	0.006763894110918045	0.01965353824198246	-0.09801764041185379	0.15046098828315735	0.08484248071908951	0.15279938280582428	-0.03592928126454353	-0.02669605426490307	-0.08190616220235825	-0.002517951652407646	0.1916150152683258	0.002348334062844515	-0.09131209552288055	0.09045571088790894	0.10676675289869308	0.09754396229982376	0.012065696530044079	-0.0414888821542263	0.032380882650613785	0.02160480059683323	0.088624507188797	-0.0043400973081588745	0.10663601011037827	0.027228944003582	0.047927625477313995	0.019344482570886612	0.2021075040102005	0.10384999960660934	0.11000077426433563	-0.021049706265330315
3	-0.044299013912677765	-0.0476546585559845	-0.05950866639614105	-0.08092191070318222	-0.059818170964717865	-0.048475902527570724	-0.06533777713775635	-0.04595252498984337	-0.0396183617413044	-0.07427375763654709	-0.04898462072014809	-0.049185678362846375	-0.04506707563996315	-0.027983151376247406	-0.04110740125179291	-0.07311106473207474	-0.0648486316204071	-0.07587194442749023	-0.05935359001159668	-0.05347542464733124	-0.04557039961218834	-0.0521685965359211	-0.05452112480998039	-0.060576483607292175	-0.030683772638440132	-0.03380003198981285	-0.04970227926969528	-0.06438956409692764	-0.05042395740747452	-0.04872053116559982	-0.03561372309923172	-0.04644095152616501	-0.06007435917854309	-0.04174163565039635	-0.0523451566696167	-0.03982040286064148	-0.06875725090503693	-0.06911525130271912	-0.0514773428440094	-0.052241697907447815	-0.05108121410012245	-0.07858297228813171	-0.052401382476091385	-0.05210556834936142	-0.057688578963279724	-0.08942654728889465	-0.05427669733762741	-0.05984438583254814	-0.0714326947927475	-0.0611984021961689	-0.05364320054650307	-0.046727776527404785	-0.07418099045753479	-0.05533747375011444	-0.04338821396231651	-0.04176602512598038	-0.06241442635655403	-0.05788217484951019	-0.048619139939546585	-0.07710706442594528	-0.059532251209020615	-0.059724945574998856	-0.07159364223480225	-0.06326033920049667	-0.054161109030246735	-0.05463609844446182	-0.06242290511727333	-0.07246612012386322	-0.04237637668848038	-0.07758329808712006	-0.029143210500478745	-0.06329730898141861	-0.05195711553096771	-0.035519517958164215	-0.045943714678287506	-0.051167190074920654	-0.05546007305383682	-0.05479349568486214	-0.05642468482255936	-0.058096569031476974	-0.05907750874757767	-0.059808433055877686	-0.06388481706380844	-0.040784455835819244	-0.04551488906145096	-0.05482008308172226	-0.05861364305019379	-0.06463971734046936	-0.04155881702899933	-0.04304088279604912	-0.06332574784755707	-0.07725496590137482	-0.07541531324386597	-0.05020816624164581	-0.046067945659160614	-0.048648227006196976	-0.06252393126487732	-0.05023552477359772	-0.036839984357357025	-0.0665636882185936	0.06190017610788345	-0.04958048462867737	0.13980983197689056	0.18146958947181702	0.09196290373802185	-0.018148042261600494	0.006143338978290558	-0.0855654627084732	-0.034671492874622345	-0.09411078691482544	0.11785460263490677	0.09516657888889313	-0.008220838382840157	-0.04532111436128616	0.0866381898522377	0.026976369321346283	0.006010089069604874	0.1744479238986969	0.0641167014837265	0.09345131367444992	0.08752845227718353	0.020610107108950615	0.17078649997711182	0.1464633345603943	0.19517265260219574	0.10707192122936249	0.0010635480284690857	-0.1106102243065834	0.11347322165966034	0.014695815742015839	-0.03621808439493179	-0.02863747999072075	0.053398504853248596	0.005106716882437468	-0.057666078209877014	0.05380498617887497	-0.013786586001515388	-0.07053813338279724	-0.057613737881183624	0.13765467703342438	0.09012939035892487	0.08094507455825806	0.016734644770622253	0.12556704878807068	0.09580721706151962	-0.03341265767812729	0.07659441977739334	-0.02145020104944706	0.12903863191604614	-0.036938346922397614	0.29254141449928284	-0.057650789618492126	-0.011173635721206665	0.00449476670473814	0.08131174743175507	0.02228570729494095	0.2862345278263092	-0.03749492019414902	-0.024740319699048996	0.0013884976506233215	0.06264185905456543	0.16010889410972595	0.1074143573641777	0.056354325264692307	0.1333325356245041	0.011070100590586662	0.0466468520462513	0.058233823627233505	-0.008329464122653008	0.00960850715637207	-0.08157630264759064	0.112948939204216	0.2798950672149658	-0.06494688987731934	0.005778658203780651	-0.01892680861055851	0.06761717051267624	-0.2058059126138687	0.13044458627700806	0.03654143959283829	0.05368979275226593	0.07638636231422424	-0.029830049723386765	0.03692251816391945	0.023417454212903976	0.03324571251869202	-0.026934783905744553	0.006084488704800606	0.04810206592082977	-0.07905034720897675	0.12682156264781952	0.04572087898850441	0.1292864978313446	-0.02545950375497341	-0.1186942458152771	0.11996812373399734	0.12837590277194977	0.00227401964366436	-0.03219733014702797	-0.06467695534229279	0.11294819414615631	-0.11791658401489258	0.05369237810373306	0.018198084086179733	-0.07810612767934799	-0.041438035666942596	0.03676612302660942	0.06393086910247803	-0.11431531608104706	-0.03900495544075966	0.0719921737909317	-0.0665932297706604	0.08574482053518295	-0.039042145013809204	0.12352007627487183	0.02702181041240692	0.07551056146621704	0.02529294788837433	-0.023287715390324593	-0.08132408559322357	0.00019239820539951324	0.05328722670674324	0.11608231067657471	0.0916084423661232	0.13298603892326355	0.14446675777435303	0.05999930575489998	0.12086063623428345	-0.00805750209838152	0.22418232262134552	0.2621266841888428	0.05331289395689964	0.04963335767388344	0.09670829772949219	0.005262089893221855	0.11994227766990662	0.020639969035983086	0.05109598487615585	0.09004750847816467	-0.019735004752874374	0.12686344981193542	-0.06387509405612946	-0.11664171516895294	0.13383546471595764	0.23084820806980133	0.04546769708395004	0.09092216193675995	0.09304003417491913	0.07785911113023758	0.09043422341346741	0.045402541756629944	-0.006306203082203865	-0.07429556548595428	-0.08392217755317688	0.11497238278388977	0.10154268890619278	-0.07202579081058502	0.038679324090480804	0.06933978945016861	0.026364436373114586	0.07333194464445114	0.1990445852279663	0.11063530296087265	-0.04618775472044945	-0.026126552373170853	0.02110174484550953	0.150252565741539	-0.0595691055059433	0.002235567197203636	-0.01265157014131546	0.05013338103890419	0.0519687756896019	-0.055706996470689774	0.031208857893943787	0.01562606170773506	0.08030993491411209	-0.047019507735967636	0.14758174121379852	-0.09200982749462128	-0.03492427244782448	0.23772254586219788	0.11130915582180023	0.04647018760442734	0.053704001009464264	0.1383272111415863	0.09616466611623764	0.0623769536614418	0.003913942724466324	0.12111769616603851	0.06385554373264313	0.07690086960792542	-0.015467740595340729	-0.02247508428990841	-0.07825839519500732	0.22310487926006317	-0.05227847397327423	0.15128791332244873	0.28536856174468994	-0.06317377835512161	0.12887321412563324	0.23543576896190643	0.07781967520713806	0.13748961687088013	0.08934113383293152	-0.005057878792285919	0.22501738369464874	0.15183383226394653	0.0360790491104126	-0.08973228931427002	0.07490253448486328	-0.02404865063726902	0.029948532581329346	0.10423672944307327	0.04795340448617935	0.04829312115907669	0.05102939531207085	0.10810407996177673	0.04493483155965805	0.04232139512896538	0.0030185766518115997	-0.058076705783605576	-0.0006590113043785095	0.105534628033638	-0.03542572259902954	-0.0044186972081661224	0.09046357125043869	-0.023558976128697395	-0.02732299268245697	0.05046753212809563	0.007498954422771931	0.2176600694656372	-0.11487846821546555	-0.045172642916440964	0.06617659330368042	0.013065824285149574	-0.10697565227746964	0.10301920026540756	0.11078261584043503	0.013175971806049347	0.11282416433095932	0.09813351929187775	0.08784205466508865	0.009044606238603592	0.1502865105867386	0.07220964878797531	-0.0078102294355630875	0.01744673401117325	-0.10674658417701721	0.01067057903856039	0.12457635998725891	0.13615740835666656	-0.04080209136009216	-0.005679573863744736	-0.1370813101530075	0.04362098127603531	0.22330141067504883	0.01046166941523552	0.18435430526733398	-0.013213960453867912	0.08795841038227081	-0.04619491845369339	-0.05218436196446419	0.1684499830007553	0.2350606471300125	-0.090399831533432	-0.0482889786362648	0.19249314069747925	0.16246333718299866	0.0810697078704834	0.036521390080451965	0.01913337968289852	0.031642764806747437	0.10250304639339447	0.0240162406116724	0.18514785170555115	-0.009671268984675407	-0.020203491672873497	-0.10648946464061737	0.04939815774559975	0.020893119275569916	0.1087976023554802	0.02695636637508869	-0.06620746850967407	0.1634644865989685	-0.11184201389551163	0.10912483930587769	0.19974130392074585	-0.08899330347776413	0.09066346287727356	-0.0025853989645838737	0.010222483426332474	0.045024968683719635	-0.012872699648141861	0.04446469247341156	0.08787868916988373	-0.014759615063667297	0.0930124968290329	-0.09416323155164719	-0.04401729628443718	0.04180075600743294	-0.056727007031440735	0.13430996239185333	-0.017176944762468338	0.2572181820869446	-0.17666645348072052	0.23205780982971191	0.09045444428920746	0.02179989218711853	0.0586259625852108	0.06904304027557373	-0.027375102043151855	0.01838201843202114	0.024326471611857414	0.07010624557733536	0.15273363888263702	-0.0022505978122353554	0.0778946578502655	0.06771934032440186	0.12148955464363098	0.06160058453679085	0.048643216490745544	0.015605458989739418	0.01378379762172699	0.25958728790283203	0.31934523582458496	-0.08379293233156204	0.09248441457748413	0.032558731734752655	0.021712884306907654	0.04421388357877731	0.09272336959838867	0.010919760912656784	0.09278992563486099	0.0711631327867508	-0.02359844744205475	0.1386084109544754	0.030626920983195305	0.02851717732846737	-0.1693880259990692	-0.12170886993408203	0.0443856418132782	-0.014442984014749527	0.07720011472702026	-0.117171511054039	-0.08329610526561737	-0.016907062381505966	-0.06696729362010956	0.08343416452407837	0.08971928805112839	-0.06762915849685669	0.06572851538658142	0.04191971942782402	0.054242320358753204	0.1645604968070984	0.05661022663116455	0.1418987512588501	0.016315970569849014	0.08859538286924362	0.0024436376988887787	0.10227760672569275	-0.09469722211360931	0.1485101580619812	0.025221992284059525	-0.0406746044754982	-0.015535484999418259	0.10620647668838501	-0.01749943196773529	0.057286880910396576	0.057566896080970764	-0.04681020230054855	0.014472313225269318	0.047934964299201965	0.26492059230804443	0.0010213851928710938	0.09931838512420654	-0.052408989518880844	0.0144820436835289	0.10848460346460342	0.09753550589084625	-0.05094403028488159	0.08985806256532669	0.024910256266593933	-0.08007204532623291	0.18400442600250244	0.180807426571846	-0.06678299605846405	0.0010659024119377136	0.10329815745353699	0.016139019280672073	0.02191431075334549	0.015566641464829445	0.027002986520528793	0.005648819729685783	0.05597769469022751	0.10511793941259384	0.06362000852823257	-0.0350249707698822	0.1876126527786255	0.038488127291202545	-0.041672032326459885	0.08972492069005966	-0.0896371379494667	-0.029630988836288452	0.0033864500001072884	0.058181121945381165	0.0762992650270462	-0.04563990235328674	0.03091055527329445	-0.031180569902062416	-0.0038672350347042084	0.09627257287502289	0.015451062470674515	-0.028887342661619186	0.16746331751346588	-0.09443426877260208	-0.013990640640258789	-0.043771903961896896	0.034010808914899826	-0.04925558716058731	0.08413900434970856	0.1352858543395996	-0.002017062157392502	0.10627027601003647	-0.04132756590843201	0.10911566019058228	0.07941526174545288	0.09452371299266815	-0.04170481115579605	0.0708751231431961	-0.03281499445438385	0.225551575422287	0.16429300606250763	0.0025644246488809586	0.01867825910449028	0.0796668529510498	0.17459920048713684	0.021734684705734253	-0.08096682280302048	0.1152983233332634	0.1325990855693817	0.11010527610778809	0.07159382104873657	0.10658861696720123	0.1114504411816597	0.197100430727005	0.03178482502698898	0.04216797649860382	0.17921441793441772	-0.09561732411384583	0.1297529637813568	0.061438120901584625	0.07499615848064423	-0.039470113813877106	0.12130102515220642	0.04103599861264229	0.008492495864629745	0.05449340119957924	0.132103830575943	-0.05562816560268402	0.08542635291814804	-0.07538361847400665	0.06758438795804977	0.07368067651987076	0.13075974583625793	0.10967689007520676	-0.10688052326440811	-0.08273965120315552	0.08777400106191635	0.1686130166053772	0.13414691388607025	0.017398014664649963	-0.03203891962766647	0.15642820298671722	0.027867646887898445	0.08249327540397644	-0.08294390887022018	-0.07853500545024872	0.025266490876674652	-0.10114898532629013	-0.009959053248167038	-0.10570956021547318	0.1641702651977539	0.05005969479680061	0.07956455647945404	-0.03690916299819946	0.008005503565073013	-0.010965734720230103	0.09845332056283951	0.06464724242687225	0.2200194001197815	-0.00045390427112579346	0.049086347222328186	0.09192252159118652	0.09849929809570312	0.11722040176391602	0.10036186873912811	0.04364055022597313	-0.047398895025253296	0.15659847855567932	0.17251084744930267	0.08611313253641129	0.05133061856031418	0.016352111473679543	-0.07960519939661026	0.08404861390590668	0.053269460797309875	-0.01718786358833313	0.1656261384487152	0.024415219202637672	-0.007444044575095177	0.05905784294009209	0.024065788835287094	0.029125839471817017	-0.01748569868505001	-0.07265570759773254	0.1722680926322937	0.034289777278900146	0.08870326727628708	-0.0387011393904686	0.04466141760349274	-0.020062318071722984	0.11392098665237427	0.1558803766965866	-0.061869051307439804	-0.017521431669592857	-0.03952745348215103	0.24863432347774506	-0.0978822261095047	0.03383038192987442	0.029966358095407486	0.044409431517124176	0.09026902168989182	-0.06905244290828705	0.09911464154720306	0.07514885812997818	-0.08815125375986099	-0.014854827895760536	0.0536828450858593	0.11113991588354111	-0.07230207324028015	-0.07136445492506027	-0.10982441902160645	0.004176542162895203	0.10507883131504059	0.2649962306022644	-0.07154613733291626	0.004570790566504002	0.035798460245132446	-0.07213252037763596	0.06310480087995529	0.014742851257324219	0.14081555604934692	0.18604718148708344	0.020223136991262436	-0.016653630882501602	0.112140953540802	0.014349095523357391	0.10212039947509766	0.14711785316467285	0.09125763177871704	-0.017317235469818115	0.06581036746501923	0.13079284131526947	0.03152476251125336	0.30125153064727783	0.20092958211898804	0.05706499516963959	0.0377805233001709	-0.005136331543326378	-0.08517704159021378	-0.0160294808447361	0.03980572149157524	0.046855125576257706	0.06781125068664551	0.10770837217569351	0.04956395924091339	0.03570498526096344	0.020080160349607468	0.14702904224395752	0.1638878881931305	-0.05963414907455444	0.0932544469833374	-0.026343338191509247	0.13053402304649353	0.3172037601470947	0.17909088730812073	0.04665596783161163	0.13671062886714935	0.0210927315056324	0.15155893564224243	0.16720454394817352	0.059524379670619965	0.10073366016149521	0.1035054475069046	0.050593797117471695	-0.07408227771520615	-0.10196825861930847	0.053650863468647	0.0459861233830452	0.2592163681983948	0.03549274802207947	-0.017357077449560165	0.09506045281887054	0.05655255541205406	0.07869593799114227	0.06916099041700363	0.09952152520418167	0.06863756477832794	0.03591177612543106	-0.10884252190589905	-0.04774504899978638	-0.038617074489593506	-0.04521732032299042	0.013178767636418343	0.11316636204719543	0.03994593769311905	0.09199373424053192	-0.15197759866714478	0.14051461219787598	0.0698164626955986	0.09144415706396103	0.10488147288560867	0.10467475652694702	0.01933436468243599	0.1956830471754074	-0.1396181434392929	-0.05292314663529396	0.24352377653121948	0.08714218437671661	0.10484708845615387	0.0009581847116351128	0.03438078612089157	0.19225549697875977	0.05096757411956787	0.1788811981678009	0.08476672321557999	-0.00228242389857769	-0.03027523308992386	-0.1513555943965912	0.05752890184521675	0.039207421243190765	0.16486075520515442	0.012064333073794842	0.06505859643220901	0.027569152414798737	0.12635380029678345	0.0750172808766365	-0.034445568919181824	0.1645462065935135	-0.01203772984445095	0.13496607542037964	0.06551587581634521	-0.045298028737306595	0.10212384909391403	0.12623098492622375	-0.016737408936023712	0.026385758072137833	0.043427690863609314	0.04587531089782715	-0.03931481018662453	-0.0081042954698205	0.17491888999938965	-0.019404953345656395	0.22282198071479797	0.18370535969734192	-0.008296996355056763	0.07799454033374786	0.1311551332473755	0.0497099906206131	-0.030444517731666565	0.11551721394062042	-0.03394586592912674	0.06478215754032135	0.13676850497722626	0.12399318814277649	-0.054352086037397385	0.037718407809734344	-0.021523745730519295	0.12719684839248657	0.16491055488586426	0.04358408972620964	-0.10948187857866287	0.12468308955430984	0.08393299579620361	-0.08049982786178589	-0.022544637322425842	0.07257368415594101	0.13968078792095184	0.1745809018611908	0.08283568173646927	-0.08946127444505692	0.18861880898475647	0.04237239807844162	-0.08361999690532684	0.04812890663743019	0.032745663076639175	0.09345254302024841	-0.004974000155925751	0.027956869453191757	0.014642495661973953	0.021012991666793823	0.08425216376781464	-0.023761238902807236	-0.01977994479238987	-0.08590111881494522	-0.021927092224359512	-0.005703166127204895	-0.0029813721776008606	0.07187093794345856	-0.06530728936195374	0.1309461146593094	0.01897324062883854	0.12453977763652802	0.0011768639087677002	0.044079091399908066	0.14029467105865479	0.12572771310806274	-0.003275405615568161	0.16665205359458923	-0.05261196196079254	0.04946520924568176	-0.016398577019572258	0.02860228344798088	0.053970374166965485	0.00813305377960205	-0.08513586968183517	0.09877310693264008	0.1509949266910553	0.03241362050175667	0.24082881212234497	0.0035444004461169243	0.19528190791606903	0.03122614696621895	-0.1296834498643875	0.21599045395851135	0.1843966543674469	0.17498767375946045	0.06962475180625916	0.017426403239369392	0.018088359385728836	-0.025951923802495003	0.060164690017700195	0.17032945156097412	0.0054327622056007385	0.17661336064338684	-0.02910395711660385	-0.02905350923538208	0.08037081360816956	0.029579536989331245	0.07941511273384094	-0.08482268452644348	-0.07450797408819199	0.06207412853837013	-0.08177142590284348	0.1382846087217331	0.03020261786878109	0.04584493860602379	0.02317291498184204	0.13321207463741302	-0.09751885384321213	-0.08635902404785156	-0.09482292830944061	0.05723347142338753	0.0565577931702137	-0.029952242970466614	0.2719232141971588	-0.07054676115512848	0.006623683497309685	0.040352098643779755	0.04875277355313301	0.012809200212359428	-0.0036136098206043243	-0.044007278978824615	-0.0575484074652195	0.12169209122657776	0.029917696490883827	-0.04116673022508621	-0.04434427246451378	0.07218484580516815	0.311046302318573	0.19334936141967773	-0.03216428682208061	-0.005699053406715393	-0.12137025594711304	-0.021696200594305992	-0.10252277553081512	0.13320830464363098	-0.022239714860916138	0.09703662991523743	0.1464194357395172	-0.023600343614816666	-0.013273721560835838	0.02283036708831787	-0.08991090208292007	0.055941540747880936	0.1544325202703476	0.08512584865093231	0.33079132437705994	-0.0013295134995132685	0.1590767204761505	0.012927516363561153	0.18619213998317719	0.1474861353635788	0.17765870690345764	0.03810587152838707	0.012208509258925915	0.1390637308359146	0.030601199716329575	0.012143095955252647	0.04189176484942436	-0.07843650132417679	0.1667608618736267	0.3160019814968109	0.026853159070014954	0.10020627826452255	-0.007619448006153107	0.28248628973960876	0.013143576681613922	0.10471455752849579	0.1045001745223999	-0.03106021136045456	0.16775715351104736	-0.060428306460380554	-0.06624048203229904	0.0849413126707077	0.08872480690479279	0.07261119782924652	-0.010744353756308556	0.12138060480356216	-0.015111670829355717	0.14780238270759583	-0.07847844809293747	0.004132706671953201	-0.0558348223567009	-0.058397963643074036	0.11957515776157379	0.021654505282640457	0.058886367827653885	-0.05295567959547043	0.06258410215377808	0.07270987331867218	0.004272161051630974	-0.04755658283829689	-0.12367624789476395	-0.0075524188578128815	0.0003883242607116699	-0.20329813659191132	0.17044878005981445	0.010955750942230225	0.022953294217586517	0.017999425530433655	-0.031678952276706696	0.020000319927930832	-0.12196572870016098	0.1991838812828064	0.1892225444316864	0.04058614373207092	0.06128823012113571	0.23893778026103973	-0.08938230574131012	-0.07602398097515106	0.14114919304847717	0.07919427752494812	0.060922086238861084	0.142297625541687	0.024694200605154037	0.0001476593315601349	0.11552342772483826	-0.09484939277172089	0.0331457145512104	0.07844189554452896	0.034229129552841187	0.023573189973831177	-0.10042481869459152	0.02487313374876976	-0.14789405465126038	0.36382755637168884	-0.06512313336133957	-0.03698800876736641	0.08230405300855637	-0.00813959538936615	0.13543592393398285	0.015611331909894943	0.048599086701869965	-0.01799646206200123	0.1785140484571457	-0.06400046497583389	-0.20640671253204346	0.11343223601579666	-0.011521369218826294	0.03190116584300995	-0.0908512994647026	0.026127099990844727	-0.04590999707579613	0.011791495606303215	-0.16182157397270203	-0.0195169560611248	-0.017240997403860092	0.10773757845163345	-0.09992726147174835	0.05955080687999725	0.019567780196666718	-0.08967418968677521	0.09918796271085739	0.07642114907503128	0.05126811936497688	0.0595959834754467	-0.02968299202620983	-0.029193047434091568	0.07476039230823517	-0.02348281629383564	-0.00020378269255161285	0.0032179616391658783	0.04640861973166466	0.18672585487365723	-0.0559588260948658	0.013440375216305256	0.10084656625986099	0.1176408901810646	0.10647912323474884	0.08824410289525986	-0.00673752510920167	0.039976708590984344	-0.04274166375398636	0.0902223140001297	0.01835145801305771	-0.07178153097629547	0.13315780460834503	-0.07169224321842194	0.06197543442249298	-0.15906637907028198	0.02549881488084793	-0.09735019505023956	0.22242610156536102	0.08779950439929962	0.11814451217651367	0.008401800878345966	0.10514813661575317	0.0643196776509285	0.06495323777198792	-0.0854772999882698	0.1101280152797699	0.1134173646569252	0.20609846711158752	-0.0006843730807304382	0.006397616118192673	-0.017957128584384918	-0.09277169406414032	-0.006463507190346718	0.1990009844303131	0.09136997908353806	0.12915955483913422	0.14575554430484772	0.05153047293424606	-1.485925167798996e-05	-0.045244939625263214	0.0454573892056942	0.06568365544080734	0.09793344140052795	0.012522805482149124	-0.00028258003294467926	0.02061885967850685	0.04024580866098404	0.04616161435842514	0.04315370321273804	-0.025080282241106033	0.0023057889193296432	0.06812559068202972	0.1414669305086136	0.08911153674125671	-0.007736280560493469	-0.027310043573379517	0.054290831089019775	0.05910584330558777	0.05972422659397125	0.16599202156066895	0.04536059871315956	-0.09562809765338898	-0.04354967549443245	0.022889014333486557	0.16115212440490723	-0.025060342624783516	-0.0071016461588442326	-0.014254719018936157	0.01086881011724472	0.12452428042888641	-0.06354933977127075	0.11266161501407623	-0.02171150967478752	-0.12347269803285599	0.1051560491323471	-0.04812842980027199	0.03144058585166931	0.1558585911989212	0.1023145467042923	0.015884578227996826	0.05913513898849487	-0.002906979527324438	-0.03500061482191086	-0.022034985944628716
