	PA3423	PA0084	PA2455	PA3029	PA1588	PA2220	PA4656	PA3585	PA1325	PA3067	PA1018	PA3558	PA2145	PA4624	PA5159	PA1429	PA5032	PA4551	PA1532	PA2918	PA0748	PA4370	PA3387	PA4813	PA4142	PA1365	PA1214	PA1687	PA0638	PA1558	PA2809	PA2648	PA0193	PA3770	PA2792	PA0221	PA4197	PA3414	PA0029	PA0055	PA5460	PA1342	PA4772	PA1466	PA2356	PA0816	PA5367	PA3406	PA0868	PA4755	PA1489	PA3083	PA1909	PA4309	PA4903	PA2713	PA0330	PA1907	PA0982	PA4103	PA1774	PA4567	PA5508	PA1524	PA2118	PA4842	PA3564	PA4264	PA1064	PA0341	PA1345	PA2478	PA0077	PA1232	PA1878	PA2875	PA4436	PA2812	PA1286	PA3173	PA2662	PA0106	PA0405	PA0499	PA3658	PA0644	PA3190	PA1471	PA0096	PA3023	PA1766	PA4217	PA0996	PA3950	PA5115	PA0505	PA0114	PA5150	PA4042	PA2678	PA5112	PA3528	PA4610	PA1692	PA3056	PA5552	PA0999	PA4667	PA1252	PA0672	PA4146	PA1382	PA2816	PA1939	PA1706	PA1370	PA1363	PA2418	PA1255	PA4504	PA0760	PA4358	PA0028	PA1225	PA0027	PA5509	PA4155	PA1552	PA5091	PA0803	PA2217	PA4237	PA3404	PA0556	PA3861	PA3494	PA1527	PA2043	PA1547	PA0233	PA3128	PA2772	PA1475	PA3309	PA1491	PA1493	PA4792	PA4347	PA2090	PA3466	PA4305	PA3501	PA2727	PA1006	PA0569	PA5393	PA3858	PA1637	PA5263	PA5207	PA4789	PA1694	PA1130	PA4453	PA1960	PA2770	PA4760	PA2451	PA1049	PA4513	PA4281	PA0497	PA2182	PA3579	PA0372	PA3053	PA4334	PA4494	PA4814	PA0901	PA5274	PA0571	PA1306	PA3115	PA5319	PA0299	PA2307	PA3722	PA3094	PA3367	PA2577	PA3764	PA5116	PA2218	PA2614	PA4125	PA4024	PA0425	PA2225	PA3735	PA0250	PA1842	PA2895	PA1138	PA0017	PA5242	PA0698	PA0260	PA0929	PA5050	PA1578	PA3327	PA4109	PA1526	PA2287	PA2930	PA1749	PA2518	PA2642	PA3256	PA0633	PA5171	PA2524	PA3091	PA0343	PA3515	PA1594	PA1344	PA0687	PA1194	PA2570	PA1952	PA2791	PA3556	PA1685	PA0121	PA1253	PA0951	PA4312	PA0268	PA2861	PA3288	PA2679	PA0346	PA2027	PA0835	PA4060	PA1242	PA4851	PA1730	PA2175	PA4778	PA4465	PA3010	PA1324	PA2384	PA0321	PA0769	PA0787	PA4425	PA1739	PA4607	PA4229	PA5505	PA3440	PA4395	PA0132	PA4361	PA1267	PA4934	PA4459	PA2730	PA4931	PA1372	PA3833	PA3477	PA3686	PA0210	PA3119	PA5549	PA0234	PA3258	PA2966	PA4535	PA5512	PA4982	PA0147	PA2677	PA3938	PA3670	PA0386	PA2675	PA2625	PA3266	PA2505	PA1050	PA3185	PA4739	PA5217	PA0477	PA4781	PA0919	PA4072	PA0993	PA0807	PA5153	PA1458	PA0282	PA0432	PA2590	PA1816	PA4404	PA0808	PA3857	PA4181	PA3928	PA0495	PA3549	PA1845	PA1862	PA2764	PA1358	PA3215	PA4932	PA4555	PA2029	PA3949	PA1513	PA1748	PA4642	PA4817	PA4621	PA5360	PA1795	PA1333	PA3817	PA0126	PA5449	PA1636	PA0614	PA0586	PA4700	PA1024	PA0791	PA2226	PA4751	PA1980	PA1792	PA2330	PA1889	PA4168	PA3106	PA3744	PA5554	PA3381	PA4713	PA2091	PA5450	PA3777	PA4231	PA0908	PA4346	PA0256	PA4302	PA4529	PA3088	PA2006	PA3350	PA4131	PA0692	PA3534	PA3899	PA2749	PA2092	PA3724	PA2548	PA3560	PA4746	PA1043	PA1434	PA1828	PA3228	PA2201	PA4782	PA5331	PA5272	PA0047	PA4333	PA2318	PA0203	PA4014	PA2787	PA5289	PA2535	PA0240	PA3333	PA3079	PA1807	PA4705	PA2102	PA1935	PA0773	PA1712	PA2109	PA4693	PA0049	PA0143	PA1265	PA4723	PA4881	PA1116	PA2755	PA1789	PA1075	PA5107	PA5221	PA4280	PA2398	PA0247	PA1762	PA3596	PA3298	PA4872	PA3365	PA5415	PA5365	PA5532	PA3690	PA4785	PA4715	PA2349	PA4205	PA2370	PA5514	PA3997	PA4043	PA5436	PA1327	PA3538	PA0401	PA0824	PA0998	PA2236	PA5557	PA2638	PA3462	PA3290	PA3994	PA0777	PA3268	PA5382	PA1014	PA3613	PA1931	PA5202	PA0062	PA3844	PA1301	PA5253	PA0125	PA2985	PA1339	PA2264	PA1207	PA3248	PA1341	PA2615	PA2705	PA5256	PA5036	PA2651	PA3605	PA0332	PA2971	PA2060	PA5034	PA3836	PA0229	PA2910	PA4170	PA1147	PA5087	PA3138	PA2506	PA4590	PA1107	PA4178	PA3784	PA0097	PA3905	PA3085	PA1940	PA3435	PA3951	PA1890	PA5170	PA4262	PA2853	PA4118	PA2480	PA4989	PA1920	PA3484	PA2681	PA0817	PA1254	PA1560	PA4477	PA0391	PA1030	PA3246	PA1048	PA3109	PA0540	PA1681	PA5521	PA1804	PA0010	PA0801	PA2829	PA2189	PA4928	PA5465	PA5160	PA2324	PA5141	PA4805	PA2603	PA2909	PA2640	PA3284	PA0183	PA1013	PA4936	PA3674	PA3691	PA5376	PA2644	PA2141	PA0833	PA2432	PA0513	PA4191	PA1078	PA1178	PA4426	PA1653	PA2250	PA1770	PA2142	PA3006	PA0398	PA0669	PA1181	PA1961	PA0377	PA1165	PA0169	PA0303	PA1203	PA3170	PA3557	PA4860	PA1450	PA1291	PA4279	PA1205	PA4120	PA0878	PA2989	PA0628	PA1304	PA0191	PA0603	PA2972	PA1106	PA3027	PA2870	PA1778	PA2471	PA1644	PA4540	PA2780	PA3401	PA0594	PA2781	PA1361	PA3957	PA4630	PA1420	PA4675	PA1105	PA3227	PA3725	PA1226	PA2151	PA1140	PA1292	PA4658	PA5029	PA2123	PA2147	PA2431	PA0019	PA4341	PA4733	PA3093	PA3361	PA4637	PA1698	PA3160	PA0845	PA0912	PA5364	PA4521	PA1422	PA3886	PA4203	PA1551	PA0629	PA5547	PA4919	PA0913	PA0903	PA3458	PA1271	PA0384	PA5332	PA3386	PA2167	PA2396	PA1108	PA4372	PA1888	PA1478	PA5337	PA0821	PA1231	PA2337	PA2049	PA1002	PA2632	PA5558	PA3320	PA4680	PA4938	PA2210	PA1791	PA3134	PA3275	PA2597	PA0044	PA2446	PA5142	PA3633	PA3779	PA3509	PA4066	PA0881	PA3973	PA3974	PA1846	PA4929	PA0389	PA2939	PA1462	PA4254	PA1593	PA1835	PA0647	PA4887	PA4650	PA1750	PA1487	PA1469	PA5378	PA0040	PA0854	PA1080	PA0493	PA2194	PA1022	PA4471	PA0113	PA4033	PA5098	PA4902	PA1885	PA2840	PA5327	PA0781	PA0214	PA5422	PA3455	PA0836	PA2592	PA3719	PA0588	PA0616	PA3218	PA3782	PA2751	PA3932	PA1201	PA5309	PA4391	PA3148	PA2086	PA3446	PA1204	PA3627	PA2995	PA3272	PA3868	PA2885	PA0991	PA4003	PA1003	PA5099	PA2293	PA0636	PA4412	PA1699	PA0225	PA0872	PA3373	PA5492	PA2714	PA4677	PA4141	PA5434	PA1530	PA2015	PA3586	PA1019	PA1431	PA3200	PA1963	PA1581	PA3419	PA5504	PA0112	PA4937	PA3745	PA4208	PA2778	PA4724	PA3269	PA3523	PA2288	PA3422	PA0454	PA5495	PA0812	PA3074	PA3714	PA0101	PA2579	PA0413	PA3866	PA5544	PA4572	PA5493	PA0871	PA4344	PA3746	PA3642	PA1100	PA0354	PA0717	PA1386	PA1294	PA3679	PA3676	PA2668	PA2741	PA2882	PA4707	PA4585	PA4092	PA2216	PA5321	PA2711	PA3554	PA0670	PA1505	PA2087	PA4095	PA4037	PA4798	PA4492	PA0746	PA2256	PA4560	PA2685	PA2907	PA4622	PA2598	PA4458	PA2962	PA2842	PA0626	PA0856	PA3839	PA3636	PA3850	PA3581	PA1871	PA2035	PA2963	PA3848	PA3653	PA3411	PA4405	PA0814	PA0209	PA2959	PA3671	PA0192	PA2039	PA0318	PA1196	PA3131	PA4906	PA5259	PA0002	PA1639	PA0222	PA2439	PA3322	PA4199	PA5417	PA1511	PA1684	PA2779	PA2663	PA2864	PA3540	PA2056	PA1623	PA3910	PA0020	PA1921	PA1948	PA3717	PA1480	PA0347	PA3907	PA1160	PA1136	PA2958	PA5147	PA1908	PA2703	PA0252	PA0825	PA1326	PA1122	PA1027	PA1007	PA4991	PA3644	PA4853	PA2785	PA5474	PA2929	PA1768	PA3234	PA0721	PA3576	PA1659	PA3726	PA1738	PA0977	PA1335	PA5377	PA4664	PA3121	PA0934	PA1041	PA5396	PA1192	PA2858	PA1864	PA4245	PA4749	PA4004	PA2227	PA2334	PA4080	PA2789	PA0003	PA2752	PA4243	PA4704	PA0223	PA3069	PA5101	PA2041	PA0189	PA0530	PA4979	PA1442	PA3036	PA2452	PA3760	PA3877	PA0272	PA0310	PA4345	PA0592	PA4717	PA4738	PA2691	PA1834	PA4964	PA3570	PA2723	PA4339	PA0137	PA0904	PA4653	PA1686	PA5200	PA2533	PA1146	PA1118	PA3525	PA4911	PA1626	PA3925	PA2766	PA1378	PA3513	PA3104	PA1103	PA1886	PA3594	PA2096	PA3604	PA0706	PA2073	PA3470	PA1543	PA4545	PA4883	PA5369	PA4296	PA0083	PA5081	PA2848	PA4061	PA0104	PA2624	PA3589	PA2159	PA4052	PA0911	PA2146	PA2831	PA1808	PA4577	PA0063	PA0078	PA5444	PA1125	PA5516	PA2582	PA3374	PA3797	PA4972	PA0709	PA3008	PA3193	PA4741	PA4753	PA3526	PA0634	PA4676	PA1405	PA2631	PA0479	PA1661	PA4259	PA1772	PA5481	PA5281	PA5038	PA0923	PA5479	PA3353	PA5551	PA3101	PA3180	PA2380	PA0607	PA0212	PA3818	PA0840	PA2575	PA0014	PA1664	PA2323	PA3143	PA0254	PA2243	PA3038	PA5249	PA0053	PA3718	PA3537	PA4308	PA4057	PA0103	PA4294	PA0963	PA4410	PA4737	PA0793	PA3323	PA2369	PA0858	PA5372	PA3651	PA0779	PA4850	PA2897	PA3493	PA0579	PA2759	PA4514	PA0031	PA5128	PA4377	PA2826	PA0167	PA1651	PA4475	PA5520	PA0766	PA2645	PA4589	PA2237	PA2788	PA2516	PA0066	PA4067	PA1531	PA0414	PA3236	PA2419	PA5082	PA0727	PA0733	PA2005	PA4376	PA2266	PA3300	PA0094	PA3237	PA2377	PA0619	PA0442	PA0790	PA0961	PA5346	PA0707	PA1263	PA0015	PA2077	PA5403	PA1554	PA5483	PA0621	PA1994	PA0177	PA3210	PA2997	PA0659	PA3891	PA1650	PA2205	PA3941	PA5451	PA1737	PA3541	PA1033	PA1691	PA3555	PA3720	PA4912	PA2606	PA3887	PA2053	PA3396	PA3073	PA4330	PA2133	PA5025	PA3297
0	-0.020522430539131165	-0.02679605409502983	-0.02261630818247795	-0.027035418897867203	-0.028029832988977432	-0.019462857395410538	-0.030141621828079224	-0.01933731883764267	-0.025152642279863358	-0.023931588977575302	-0.022154144942760468	-0.013691302388906479	-0.016299687325954437	-0.0216328464448452	-0.02787429466843605	-0.02351120486855507	-0.024871550500392914	-0.027208486571907997	-0.019066471606492996	-0.023074127733707428	-0.02018117904663086	-0.032216522842645645	-0.02160460874438286	-0.03170645982027054	-0.02215690165758133	-0.013534780591726303	-0.024351559579372406	-0.021872494369745255	-0.03681977465748787	-0.023379433900117874	-0.03154589235782623	-0.021155327558517456	-0.022068984806537628	-0.026694580912590027	-0.019586745649576187	-0.031243205070495605	-0.022675395011901855	-0.029366157948970795	-0.02465725690126419	-0.023700717836618423	-0.026750732213258743	-0.021370206028223038	-0.019312774762511253	-0.015025954693555832	-0.02816712111234665	-0.014382503926753998	-0.016558226197957993	-0.034041304141283035	-0.016594748944044113	-0.01582762598991394	-0.026625625789165497	-0.024846110492944717	-0.02116423472762108	-0.02577025443315506	-0.027542762458324432	-0.01627049222588539	-0.029015596956014633	-0.02624586597084999	-0.02975405380129814	-0.030713669955730438	-0.023720968514680862	-0.021586067974567413	-0.024376757442951202	-0.028367310762405396	-0.018524739891290665	-0.023781485855579376	-0.02893742173910141	-0.012687936425209045	-0.023847907781600952	-0.017121225595474243	-0.02121404930949211	-0.024829372763633728	-0.02606598660349846	-0.015259120613336563	-0.016979198902845383	-0.016630977392196655	-0.021617203950881958	-0.01957045868039131	-0.022817246615886688	-0.020807083696126938	-0.02052421309053898	-0.024231597781181335	-0.025332443416118622	-0.026866912841796875	-0.031145893037319183	-0.0179494209587574	-0.021605398505926132	-0.02991233766078949	-0.015733834356069565	-0.02648298628628254	-0.012166827917098999	-0.023318756371736526	-0.020159456878900528	-0.009250659495592117	-0.03112894855439663	-0.022009147331118584	-0.02188820019364357	-0.028280306607484818	-0.01961420848965645	-0.01407269760966301	-0.08538797497749329	-0.24978993833065033	-0.07427548617124557	0.056722693145275116	-0.0770682767033577	-0.13909637928009033	0.011990019120275974	-0.053057961165905	-0.04293767735362053	-0.0008213333785533905	-0.01619178056716919	-0.13313958048820496	-0.0714586079120636	-0.17676730453968048	0.09262076765298843	-0.09335879981517792	-0.011447577737271786	-0.05891195684671402	-0.04302595928311348	-0.051607027649879456	-0.20270636677742004	0.007352376356720924	-0.09987346082925797	-0.0017162018921226263	-0.08456002175807953	-0.07894011586904526	-0.004844691604375839	-0.10896715521812439	0.034631483256816864	-0.0038668853230774403	0.02702532522380352	-0.05703744664788246	-0.004634801298379898	-0.13330575823783875	-0.13230551779270172	0.030245719477534294	0.03459139168262482	0.044412992894649506	-0.09452973306179047	0.007964219897985458	-0.044565774500370026	-0.11511542648077011	-0.06723006069660187	-0.18810197710990906	-0.01800835132598877	0.03184209764003754	-0.0395544096827507	-0.040181536227464676	0.12381014227867126	0.05243595689535141	-0.08530108630657196	0.06361771374940872	0.10269707441329956	-0.023986119776964188	0.023364577442407608	0.041750792413949966	-0.1204364001750946	-0.06679073721170425	-0.26729878783226013	-0.05596659332513809	-0.23467111587524414	0.10629799216985703	-0.012136515229940414	-0.19583183526992798	-0.058679040521383286	-0.14885137975215912	-0.0740395337343216	-0.06587961316108704	-0.06637564301490784	-0.022208938375115395	0.02917606011033058	-0.00512596033513546	0.01900222897529602	-0.05779532715678215	-0.16631464660167694	-0.08977149426937103	-0.03143996745347977	-0.10869956016540527	-0.05081217363476753	-0.033367179334163666	-0.10938414186239243	-0.10187516361474991	-0.10291245579719543	-0.33511215448379517	-0.025601036846637726	-0.07545283436775208	0.11558307707309723	-0.10511254519224167	-0.03938182443380356	0.00686245784163475	-0.19700567424297333	-0.11117592453956604	-0.02305089682340622	-0.03055884875357151	-0.07273072004318237	-0.016807682812213898	0.0143742635846138	-0.10780109465122223	-0.07808460295200348	-0.09544148296117783	-0.1789511889219284	0.03764507919549942	0.05823983997106552	0.12248170375823975	0.006047729402780533	-0.19647760689258575	-0.059020813554525375	-0.07727908343076706	-0.04702950641512871	-0.06615617871284485	0.08296531438827515	-0.02726174145936966	-0.14894630014896393	-0.0734887570142746	-0.1152694970369339	-0.03783136606216431	-0.11461551487445831	-0.11926896870136261	-0.018210100010037422	-0.06256864964962006	-0.088128462433815	-0.10222313553094864	-0.0859704539179802	-0.22148942947387695	-0.0708802118897438	-0.037856776267290115	-0.06968419998884201	0.011786764487624168	0.07268445193767548	0.018110448494553566	-0.06319199502468109	0.015050402842462063	-0.011859658174216747	-0.002840236760675907	0.02779575251042843	-0.04615041986107826	0.0016479226760566235	-0.10184617340564728	-0.14390681684017181	-0.0666017159819603	0.06450875103473663	-0.038166869431734085	-0.1437554657459259	-0.02905890718102455	0.048430636525154114	-0.22231696546077728	-0.11001066863536835	-0.08667261898517609	0.02081213891506195	0.04641442000865936	-0.02414577081799507	-0.09349725395441055	-0.21693673729896545	0.027967818081378937	-0.09191309660673141	-0.0898718312382698	-0.06684211641550064	-0.06341250240802765	-0.006503032986074686	-0.3101792335510254	0.06861868500709534	-0.34480518102645874	7.536262273788452e-05	-0.2428351193666458	-0.2361731231212616	-0.17034326493740082	-0.036779243499040604	-0.07862944900989532	0.0179314985871315	-0.2057313323020935	-0.13189859688282013	-0.19915853440761566	-0.08119489997625351	-0.0843052864074707	-0.11616000533103943	-0.023429643362760544	-0.2551765739917755	0.14066562056541443	0.13955633342266083	-0.04129871353507042	-0.013581028208136559	-0.039491936564445496	-0.31865784525871277	-0.07887265831232071	-0.0669095367193222	-0.020544076338410378	0.08837249875068665	0.06334725767374039	0.18278832733631134	-0.023212557658553123	-0.24243159592151642	-0.0025151390582323074	-0.022985078394412994	0.00548013299703598	-0.053192708641290665	-0.00035207998007535934	-0.2256227284669876	-0.20449528098106384	-0.014853579923510551	-0.08766280114650726	-0.0683111622929573	-0.021036677062511444	0.018241731449961662	-0.05668477714061737	-0.13116928935050964	-0.14119036495685577	-0.054331738501787186	0.16562840342521667	-0.11281678825616837	0.05130213871598244	-0.06091103330254555	-0.11981784552335739	-0.05560498684644699	-0.20067532360553741	-0.014831611886620522	-0.052604250609874725	0.002768624573945999	-0.015409874729812145	0.013748187571763992	-0.13817434012889862	-0.06030626595020294	-0.07992307096719742	-0.1714342087507248	-0.0680687427520752	-0.2273249626159668	-0.07636624574661255	0.027621954679489136	-0.037369634956121445	-0.10639696568250656	-0.17649753391742706	-0.04665413126349449	0.029609594494104385	-0.04609861224889755	0.011123009026050568	-0.20350709557533264	0.07891756296157837	-0.07074779272079468	-0.06557784229516983	-0.054295506328344345	-0.06886863708496094	-0.12221162021160126	-0.045495565980672836	0.06548707187175751	-0.15166978538036346	-0.1477026343345642	-0.025700196623802185	-0.10547079145908356	-0.10126586258411407	0.10273609310388565	-0.18934014439582825	-0.0209824088960886	-0.04593076556921005	-0.1503865122795105	-0.09794821590185165	-0.06770513206720352	-0.19385448098182678	0.04351867362856865	-0.18569937348365784	-0.03303438797593117	-0.06396648287773132	-0.051230303943157196	-0.05911410227417946	-0.03129957616329193	-0.19244466722011566	-0.07863723486661911	-0.08410048484802246	0.014645785093307495	0.04517647996544838	-0.12313207983970642	-0.12039536237716675	0.03363104164600372	0.029899902641773224	-0.057222530245780945	0.1001412570476532	-0.16269956529140472	-0.02857777662575245	0.04520057141780853	0.00904594361782074	-0.05399813503026962	-0.056075822561979294	-0.08986357599496841	-0.1610994189977646	0.009419592097401619	0.04901726916432381	-0.19103474915027618	-0.1719280630350113	-0.04601321369409561	-0.12187612056732178	-0.13817062973976135	-0.031407300382852554	-0.017446907237172127	-0.03457649424672127	-0.02152644842863083	0.08118626475334167	-0.05747329443693161	-0.04834790527820587	0.014516536146402359	-0.08873670548200607	-0.05798676609992981	-0.1453707218170166	-0.029759980738162994	-0.0752750113606453	0.10640616714954376	-0.12053040415048599	-0.13563907146453857	-0.010591251775622368	-0.15430346131324768	0.026987258344888687	-0.18825840950012207	-0.10107786953449249	-0.07434064894914627	-0.1501481533050537	-0.19063977897167206	-0.11507677286863327	-0.15733350813388824	-0.007018189877271652	-0.036261074244976044	-0.0077836886048316956	0.044190023094415665	-0.050777360796928406	-0.07029751688241959	-0.06866197288036346	-0.16026000678539276	-0.07537493854761124	-0.055469948798418045	-0.17983415722846985	-0.02186625450849533	-0.1343649923801422	-0.0886770635843277	-0.0380244180560112	0.09686274081468582	-0.03704697638750076	-0.06672032177448273	-0.06416656076908112	-0.2517426609992981	-0.26340240240097046	-0.12498639523983002	-0.0896812230348587	0.09320329874753952	-0.16271288692951202	-0.07456555962562561	-0.022861184552311897	-0.03475344181060791	-0.09512744843959808	-0.1231030523777008	-0.03446474298834801	-0.05572707951068878	0.01276609767228365	0.16632674634456635	-0.04647424817085266	-0.0845850259065628	-0.1018349677324295	-0.06570456922054291	-0.10819966346025467	-0.04123115539550781	-0.2025069296360016	-0.1292155385017395	-0.062210798263549805	-0.30991867184638977	-0.19108933210372925	-0.01035550981760025	-0.06915952265262604	0.0035532228648662567	0.020495720207691193	-0.059492480009794235	-0.016154270619153976	-0.03342558443546295	-0.05916696786880493	-0.29761525988578796	0.04501000791788101	-0.10488039255142212	-0.06413908302783966	-0.2553068697452545	-0.1786278486251831	0.10341203212738037	-0.06552969664335251	-0.15621209144592285	0.031753405928611755	0.01718761771917343	-0.09086772054433823	0.03233621269464493	0.007039391901344061	0.0575069785118103	0.030091553926467896	-0.17701545357704163	0.049962062388658524	-0.005283903796225786	0.05613226443529129	-0.03855635225772858	-0.07509734481573105	-0.13544338941574097	-0.028053680434823036	-0.1400064080953598	-0.09003134071826935	-0.14557036757469177	-0.19064344465732574	-0.011830121278762817	-0.49559667706489563	-0.16455373167991638	0.028291834518313408	-0.1664721667766571	0.04013105481863022	-0.0029392242431640625	0.07352996617555618	0.04763870686292648	-0.051511216908693314	0.10442643612623215	-0.1479741781949997	-0.086714968085289	-0.14789992570877075	-0.04491607844829559	-0.04738640412688255	0.03531859442591667	-0.14125919342041016	-0.29505470395088196	-0.06844715029001236	-0.29698795080184937	-0.016567720100283623	0.11381413042545319	0.04076259583234787	0.008992321789264679	-0.0022651292383670807	-0.048923030495643616	0.009170370176434517	0.10157231241464615	-0.09518665075302124	0.0329485684633255	0.056297194212675095	-0.04251398518681526	-0.21775047481060028	0.10691247880458832	0.20154669880867004	-0.25926142930984497	-0.23858465254306793	-0.05852788686752319	-0.16157010197639465	-0.15786288678646088	0.018681755289435387	0.02975274622440338	-0.14810779690742493	-0.04512191191315651	-0.03593023866415024	0.09712798148393631	-0.10468920320272446	0.0021404772996902466	-0.19140705466270447	-0.041877489537000656	-0.13715489208698273	-0.15937550365924835	0.009265076369047165	-0.08459687978029251	-0.15179523825645447	0.06327506899833679	0.017569243907928467	0.049021556973457336	0.01908760517835617	0.03575373440980911	-0.06470095366239548	-0.030033670365810394	-0.08444537222385406	-0.1638009399175644	0.03131233900785446	0.1158970296382904	-0.020082730799913406	-0.02145540714263916	-0.017020555213093758	0.05466471239924431	-0.052167054265737534	0.018622297793626785	-0.05060986429452896	-0.05398609861731529	0.1151166558265686	0.03013981319963932	-0.05355622619390488	-0.0851559191942215	-0.045043930411338806	-0.09783139824867249	-0.010339394211769104	0.12705747783184052	-0.027461864054203033	-0.08957687020301819	-0.09007124602794647	-0.1310248225927353	0.0019481517374515533	-0.23318740725517273	-0.021734800189733505	0.11444427073001862	-0.09733157604932785	-0.10587172210216522	-0.14041627943515778	-0.08135569095611572	-0.09664221107959747	-0.3378196954727173	-0.008781343698501587	0.00951649434864521	-0.018066592514514923	0.037397053092718124	0.02803582325577736	0.03697998449206352	-0.0661110207438469	-0.06546004116535187	-0.007602274883538485	-0.01994950883090496	-0.3496633768081665	-0.028977807611227036	-0.02932925708591938	-0.042955346405506134	-0.07188581675291061	0.0275497417896986	0.11989752948284149	-0.21797043085098267	-0.024247515946626663	-0.08132242411375046	-0.117423877120018	-0.15766392648220062	-0.04132980853319168	0.033374398946762085	0.024058274924755096	-0.12509696185588837	-0.04071970283985138	-0.08389195799827576	-0.036633022129535675	-0.2523873746395111	-0.05232907086610794	-0.1027989536523819	0.03512177616357803	-0.30052363872528076	-0.2800009846687317	-0.09328946471214294	-0.04466111212968826	-0.1858561635017395	0.05077594146132469	-0.042076870799064636	0.02801697887480259	0.0025568134151399136	-0.27201229333877563	-0.010851843282580376	0.09834112226963043	-0.06048783287405968	0.18442197144031525	-0.054208897054195404	0.08008906245231628	-0.2289283722639084	-0.07927396893501282	-0.14630615711212158	-0.03561335429549217	0.05216246470808983	-0.009328211657702923	-0.05656016618013382	-0.045077111572027206	0.04713810235261917	0.19342546164989471	-0.00942559540271759	-0.1256709098815918	0.044655539095401764	0.10697256773710251	-0.026264093816280365	-0.003485029563307762	0.03995796665549278	-0.05841726064682007	-0.03188956901431084	-0.021018970757722855	-0.10041114687919617	-0.1941729635000229	-0.09006377309560776	-0.14429138600826263	-0.19960005581378937	-0.11700807511806488	-0.10973972082138062	-0.04724150523543358	0.022000297904014587	-0.06680981814861298	-0.20804014801979065	-0.0364515520632267	-0.03643374890089035	-0.0994882583618164	-0.059140898287296295	-0.07489161938428879	-0.15783798694610596	-0.07550311088562012	-0.045863859355449677	0.016353297978639603	-0.08674624562263489	-0.07971581816673279	0.052548859268426895	5.6941062211990356e-05	-0.1349191963672638	-0.061504799872636795	0.21786847710609436	-0.059514984488487244	0.08664622902870178	0.1019105315208435	-0.269925057888031	0.03208201006054878	-0.19353803992271423	-0.18876618146896362	-0.0036732200533151627	-0.13138234615325928	-0.041784562170505524	0.03193097934126854	-0.05935405194759369	-0.17277324199676514	0.16140593588352203	-0.1626136153936386	-0.04032345861196518	-0.087017722427845	-0.2681538164615631	0.131092369556427	0.16603511571884155	-0.05671387165784836	-0.03553042188286781	0.14108222723007202	0.058359336107969284	-0.00610345508903265	-0.12489438056945801	-0.047264214605093	-0.13363371789455414	-0.14224562048912048	-0.036412209272384644	0.0843111127614975	-0.06315677613019943	-0.08154497295618057	0.10715026408433914	-0.06800730526447296	-0.20552527904510498	-0.12855805456638336	-0.1297164410352707	-0.0017491336911916733	0.03900066763162613	-0.2965889871120453	-0.10777004808187485	-0.1396172046661377	-0.15078526735305786	-0.0550413504242897	-0.026617612689733505	-0.1965976059436798	-0.18564070761203766	-0.034383099526166916	-0.16465869545936584	-0.012587614357471466	-0.0884171724319458	-0.09473051875829697	-0.04130528122186661	-0.22421881556510925	0.054860468953847885	0.01818072609603405	-0.05983822047710419	0.024744700640439987	0.035148315131664276	-0.060178689658641815	0.03897654265165329	-0.03316255658864975	-0.20406846702098846	0.11250975728034973	-0.06329793483018875	-0.01595963165163994	0.006429220549762249	-0.08263629674911499	-0.19452320039272308	-0.0036319009959697723	0.03824421763420105	-0.012373890727758408	-0.01618824154138565	-0.2843029499053955	0.0051542045548558235	-0.07252037525177002	-0.014025889337062836	0.04024643078446388	-0.008007680997252464	-0.06318306922912598	-0.111457459628582	-0.009319249540567398	-0.07389260828495026	-0.11564072966575623	-0.11809533089399338	-0.1840030997991562	-0.1006980612874031	0.006973393261432648	-0.005620143376290798	-0.008437847718596458	0.03141111880540848	-0.10969037562608719	-0.0009307824075222015	0.14774657785892487	-0.048577919602394104	-0.04330321401357651	0.12901099026203156	-0.02190612442791462	-0.04577521234750748	0.02247033454477787	-0.08658559620380402	-0.050763845443725586	0.0158877894282341	-0.07500108331441879	0.02467331662774086	0.0019307159818708897	-0.018223652616143227	0.0569610670208931	-0.1928797960281372	0.018795378506183624	0.046165477484464645	-0.07136208564043045	-0.21740511059761047	4.243571311235428e-05	-0.05478958040475845	-0.057527802884578705	-0.05232234671711922	-0.10941796004772186	0.03933856263756752	-0.01566108874976635	-0.07397954910993576	-0.11505289375782013	-0.054223090410232544	-0.05694039538502693	0.14318937063217163	0.11716752499341965	-0.09407728165388107	-0.001037798821926117	0.13971033692359924	0.019939616322517395	0.01562642492353916	0.013283909298479557	0.01728595234453678	0.0022990573197603226	-0.09248825162649155	-0.16466400027275085	-0.013336146250367165	0.040316492319107056	-0.007787797600030899	-0.06145307049155235	0.07991380989551544	-0.0467853769659996	-0.04357039928436279	-0.19334058463573456	-0.10087118297815323	-0.08838772773742676	-0.31644999980926514	-0.012542931362986565	0.05486806854605675	0.021214528009295464	-0.12750007212162018	-0.296543687582016	-0.04380810260772705	0.011774854734539986	-0.2700197696685791	0.09390591084957123	-0.1466621309518814	-0.0755055695772171	-0.04402371123433113	0.10178250819444656	-0.09335355460643768	-0.11649316549301147	0.001999311149120331	-0.11783783882856369	-0.07683726400136948	-0.04661178216338158	-0.02695312537252903	0.012301016598939896	-0.03343214467167854	-0.05284176394343376	0.1666405349969864	-0.1975950300693512	-0.133775532245636	-0.12000413239002228	-0.12973009049892426	-0.1209418848156929	-0.011465368792414665	-0.1493917554616928	0.060916803777217865	-0.03819410502910614	-0.04229064658284187	0.0039264727383852005	-0.016559667885303497	0.009536546654999256	-0.08740286529064178	-0.06845508515834808	-0.029158009216189384	0.15249882638454437	-0.02803163044154644	-0.11609894782304764	-0.08962888270616531	-0.03928576037287712	0.21274740993976593	-0.08005259931087494	-0.18338468670845032	-0.04961057007312775	-0.04854412376880646	-0.13639283180236816	0.030963610857725143	-0.2234497368335724	-0.0018897615373134613	-0.054573748260736465	-0.11648576706647873	-0.08211882412433624	-0.27297917008399963	-0.004401013720780611	-0.11026117950677872	-0.020106419920921326	0.0014731213450431824	-0.027193482965230942	-0.08697804063558578	-0.015496820211410522	-0.06934841722249985	0.06861431151628494	-0.11853168904781342	-0.008189125917851925	-0.06919606775045395	0.003357507288455963	-0.18171849846839905	-0.08618693798780441	-0.048176687210798264	-0.12675446271896362	-0.19492807984352112	-0.011112689971923828	-0.023190202191472054	-0.06498835980892181	0.06973642110824585	-0.05739500746130943	-0.09936296194791794	0.16129377484321594	-0.1685500293970108	-0.043744899332523346	-0.02521441876888275	-0.09852368384599686	-0.06101135537028313	0.002729180734604597	0.07881014049053192	-0.011903085745871067	0.02172638103365898	0.15107503533363342	-0.017903510481119156	-0.04920130968093872	-0.04792839661240578	0.009154182858765125	-0.3148152828216553	-0.09726707637310028	0.008806049823760986	-0.014523523859679699	-0.056469302624464035	-0.012321218848228455	-0.05056740343570709	-0.025667540729045868	-0.18458805978298187	-0.09514676034450531	-0.24050061404705048	0.057102806866168976	-0.1047855094075203	-0.11814836412668228	0.009002884849905968	-0.11169962584972382	-0.00584612600505352	-0.15574759244918823	0.025969330221414566	-0.23123762011528015	-0.020102910697460175	0.01950206607580185	-0.1666022688150406	-0.1917295753955841	-0.0073585957288742065	-0.12523755431175232	-0.0917477160692215	-0.041729412972927094	-0.12429752945899963	-0.05110321193933487	-0.012734852731227875	-0.07328087836503983	-0.09940209984779358	-0.17259813845157623	-0.04620065167546272	0.006933609023690224	-0.2366887629032135	0.014500876888632774	-0.2655985653400421	-0.08278593420982361	-0.2306722104549408	-0.12157203257083893	-0.1494322270154953	-0.028726093471050262	-0.23457561433315277	0.04092653468251228	-0.03008677437901497	-0.08003898710012436	-0.016105880960822105	-0.09743817895650864	-0.27796807885169983	-0.2231937050819397	-0.01578771509230137	-0.2026810348033905	-0.16940073668956757	-0.20852437615394592	-0.1188594326376915	-0.13909786939620972	-0.20260865986347198	0.02146175131201744	-0.06896895915269852	-0.0554288849234581	0.09794149547815323	-0.031004350632429123	0.1546383947134018	-0.12767638266086578	-0.14589041471481323	-0.0694706067442894	-0.2459280639886856	-0.12784989178180695	-0.043605655431747437	0.0689002051949501	-0.18050619959831238	0.05227046087384224	-0.09598881751298904	-0.010181296616792679	0.013855135068297386	-0.21310429275035858	-0.19958773255348206	0.05556751787662506	-0.14330948889255524	-0.02620825730264187	-0.13602611422538757	-0.21837274730205536	0.024836881086230278	-0.011107740923762321	-0.017026353627443314	-0.05177333950996399	-0.017028197646141052	-0.04165779426693916	-0.01529887318611145	-0.09436115622520447	-0.042407259345054626	0.0034051015973091125	-0.10427843034267426	0.022123392671346664	-0.1011168360710144	-0.010647200047969818	-0.2964542508125305	-0.03162232041358948	-0.006817542016506195	-0.13739997148513794	0.12928245961666107	-0.21294216811656952	-0.010919896885752678	-0.2255430668592453	-0.09306424111127853	-0.01655106619000435	0.055145587772130966	-0.047125838696956635	0.01826726831495762	-0.07283321022987366	-0.20534953474998474	-0.09054131805896759	-0.1159900650382042	-0.09568214416503906	-0.10573570430278778	-0.017462298274040222	-0.0010819286108016968	0.06931979209184647	-0.07068932801485062	-0.020464874804019928	0.05109546333551407	-0.035915784537792206	-0.09887877851724625	-0.0480773001909256	-0.013592857867479324	-0.07664258778095245	0.06794286519289017	-0.04530220478773117	-0.07600262761116028	-0.1513022929430008	-0.00937704835087061	-0.07750523090362549	-0.190727099776268	0.07852873206138611	-0.09877008199691772	-0.12222395837306976	-0.18907785415649414	-0.045184168964624405	-0.09896890074014664	-0.018944861367344856	-0.11361458897590637	0.06851501762866974	-0.3181873559951782	0.06151451915502548	-0.06937523186206818	0.023078862577676773	-0.03268802911043167	-0.026179999113082886	0.09322194755077362	-0.0037603117525577545	-0.0771440863609314	-0.000145740807056427	0.07185111939907074	-0.011200923472642899	-0.05759616941213608	-0.11617961525917053	-0.1633293181657791	-0.0598444864153862	-0.04071717709302902	-0.01782858371734619	-0.1459134817123413	0.062296971678733826	0.061796993017196655	0.02078806236386299
1	-0.13496971130371094	-0.13565823435783386	-0.1406092792749405	-0.13438716530799866	-0.13277889788150787	-0.14204688370227814	-0.14138412475585938	-0.13471609354019165	-0.1423662304878235	-0.13747631013393402	-0.1474655270576477	-0.13625094294548035	-0.13436663150787354	-0.13681572675704956	-0.13380888104438782	-0.13622821867465973	-0.14078061282634735	-0.13880272209644318	-0.1548166573047638	-0.1365319937467575	-0.1503954380750656	-0.13992564380168915	-0.1373230516910553	-0.14415967464447021	-0.13673606514930725	-0.14116907119750977	-0.15074576437473297	-0.13510861992835999	-0.1430862694978714	-0.145757257938385	-0.13716989755630493	-0.13978838920593262	-0.14980509877204895	-0.13792620599269867	-0.14570948481559753	-0.15147936344146729	-0.14200758934020996	-0.13715414702892303	-0.1436031460762024	-0.1344124674797058	-0.13884803652763367	-0.13875018060207367	-0.1462511569261551	-0.13436239957809448	-0.13289466500282288	-0.1417934000492096	-0.1348547339439392	-0.1453382521867752	-0.13813239336013794	-0.13407188653945923	-0.1382697969675064	-0.1373904049396515	-0.14835582673549652	-0.1292860507965088	-0.1333102434873581	-0.14397189021110535	-0.13855944573879242	-0.13358689844608307	-0.14132311940193176	-0.14613083004951477	-0.14860007166862488	-0.14805470407009125	-0.13366466760635376	-0.13887916505336761	-0.13801583647727966	-0.1404615342617035	-0.1453232318162918	-0.1427953690290451	-0.1414910852909088	-0.14293256402015686	-0.15064823627471924	-0.13879728317260742	-0.137996107339859	-0.13827909529209137	-0.13891151547431946	-0.14106906950473785	-0.13813355565071106	-0.13939708471298218	-0.13564780354499817	-0.13295787572860718	-0.1422894448041916	-0.14230506122112274	-0.1418418437242508	-0.14430484175682068	-0.13482774794101715	-0.1461891233921051	-0.1417645961046219	-0.13905198872089386	-0.14113155007362366	-0.1351608783006668	-0.14142905175685883	-0.14609596133232117	-0.14239446818828583	-0.13707783818244934	-0.14026401937007904	-0.13343065977096558	-0.14115503430366516	-0.13909529149532318	-0.14021718502044678	-0.14526887238025665	-0.04152502119541168	-0.10456757247447968	0.029503945261240005	-0.07903552055358887	-0.01653825119137764	-0.10239116102457047	-0.08651290088891983	-0.186183899641037	-0.023760756477713585	-0.02398063614964485	-0.07219411432743073	-0.0769231840968132	-0.07248029112815857	0.03268814831972122	0.01721377857029438	-0.005568434484302998	0.05602867901325226	-0.01184156909584999	0.008537502959370613	-0.028063079342246056	-0.12935858964920044	-0.008523103781044483	0.000264948233962059	-0.024679718539118767	0.06796302646398544	-0.09737938642501831	-0.03583429753780365	-0.15157300233840942	-0.023831231519579887	-0.05392657592892647	-0.009398192167282104	-0.10379226505756378	0.014800500124692917	-0.08392277359962463	-0.1303347796201706	-0.05485060065984726	-0.16969433426856995	-0.05961816757917404	-0.050234753638505936	-0.015975896269083023	-0.01725199818611145	-0.054444391280412674	-0.11947080492973328	-0.15298548340797424	-0.04751965031027794	-0.02989889681339264	-0.08303450793027878	-0.035486895591020584	-0.04742656648159027	-0.028728749603033066	-0.12662287056446075	-0.04906326159834862	-0.13974377512931824	-0.024209629744291306	-0.003970193210989237	-0.02052772045135498	-0.07019883394241333	-0.03604323789477348	-0.19013606011867523	0.07763414829969406	-0.15059956908226013	0.03467145562171936	0.07178936153650284	-0.21515323221683502	0.05790860205888748	-0.054573215544223785	-0.15297381579875946	-0.002268866403028369	-0.0631430447101593	0.03716426342725754	-0.034670639783144	0.00938853994011879	0.048039741814136505	-0.06395409256219864	-0.1253386288881302	-0.05960122495889664	-0.00914006307721138	0.051985811442136765	-0.08754067122936249	-0.019434131681919098	-0.17992067337036133	-0.10400388389825821	-0.07221595197916031	-0.16787773370742798	0.0020109869074076414	-0.11812399327754974	-0.037501800805330276	0.005149805452674627	0.007443919777870178	0.04782162606716156	-0.08438844233751297	-0.1832178682088852	-0.08428376913070679	0.04090500250458717	-0.16984933614730835	-0.044244639575481415	-0.07486160844564438	-0.1405913531780243	-0.00909004919230938	-0.13765676319599152	-0.0691794604063034	0.021168572828173637	-0.08323946595191956	-0.0757371336221695	-0.08311811834573746	-0.08054690808057785	0.0730077475309372	-0.05245722085237503	-0.00972110778093338	-0.06530117988586426	-0.021869221702218056	-0.039635248482227325	-0.0888909250497818	-0.05338985472917557	-0.007655974477529526	0.0022899238392710686	0.0995904877781868	-0.06029212847352028	-0.22454923391342163	-0.0612056665122509	-0.10046356916427612	-0.11700651049613953	-0.04118321090936661	-0.021234415471553802	-0.034487683326005936	0.04583493620157242	-0.022963181138038635	-0.08145832270383835	0.06744279712438583	-0.02910756878554821	0.0962480828166008	-0.029173415154218674	0.05051279813051224	-0.07405250519514084	0.003057650290429592	-0.0254414901137352	0.0008725528605282307	0.023847220465540886	-0.07715378701686859	-0.08621179312467575	-0.019215118139982224	0.012847772799432278	-0.018798351287841797	-0.01896313950419426	0.026722852140665054	-0.0742313340306282	-0.14553949236869812	-0.018067866563796997	-0.10181455314159393	-0.0765189677476883	-0.1263180822134018	-0.10088591277599335	-0.14518146216869354	-0.030551929026842117	-0.07321236282587051	-0.1240035817027092	-0.07245369255542755	-0.07684704661369324	-0.027669847011566162	-0.27685970067977905	0.040527962148189545	-0.1933165043592453	-0.16665342450141907	-0.13318893313407898	-0.2259443998336792	-0.009283555671572685	0.021701687946915627	0.02712494693696499	-0.029017025604844093	-0.20213891565799713	-0.11530753970146179	-0.09797082096338272	-0.04489099979400635	-0.010627038776874542	-0.06770305335521698	-0.1630852222442627	0.0014402056112885475	-0.002941366285085678	0.01128672156482935	-0.06139113008975983	-0.02273295260965824	-0.013605649583041668	-0.404232382774353	-0.02659483812749386	0.06052327901124954	0.0025846464559435844	-0.0937446728348732	-0.014505458995699883	0.052283644676208496	-0.015085538849234581	-0.28456348180770874	-0.013647526502609253	-0.06082194298505783	-0.02094675973057747	-0.03344787657260895	-0.05914071202278137	-0.19247661530971527	-0.21199029684066772	-0.08268193900585175	-0.025180624797940254	-0.019433163106441498	-0.07793954014778137	0.04899778589606285	0.033560335636138916	-0.06549158692359924	-0.06448517739772797	-0.11670182645320892	0.03446056693792343	-0.12309424579143524	0.027296558022499084	-0.008675383403897285	-0.09825435280799866	-0.019110599532723427	-0.09899595379829407	-0.02894767001271248	-0.0517178475856781	-0.022412970662117004	-0.07567423582077026	0.01997993141412735	0.0334869809448719	-0.06406457722187042	-0.017124542966485023	-0.03433872014284134	-0.15111665427684784	-0.02541838213801384	0.017768118530511856	-0.06415475159883499	-0.035289015620946884	-0.0030751642771065235	-0.060468606650829315	-0.01941986009478569	0.021931948140263557	0.04104076325893402	-0.17934268712997437	-0.08634315431118011	0.025223955512046814	-0.09502671658992767	0.002674034098163247	-0.08221900463104248	-0.058874472975730896	-0.13995374739170074	-0.1785893440246582	-0.07954484224319458	-0.061188407242298126	0.01861817203462124	-0.1182950809597969	-0.07963423430919647	-0.062025949358940125	-0.07048645615577698	-0.11706892400979996	0.011657696217298508	-0.07279495894908905	-0.19728581607341766	-0.12418389320373535	0.08492045104503632	-0.07227276265621185	-0.028782691806554794	-0.05261322855949402	-0.12218520790338516	-0.14831697940826416	-0.0031624548137187958	-0.024838630110025406	0.011708468198776245	0.007384456694126129	-0.01332097314298153	-0.08334837108850479	-0.024353638291358948	-0.08735674619674683	-0.09609241038560867	0.007072845473885536	0.008662872016429901	-0.032515279948711395	-0.04033897444605827	-0.06285208463668823	-0.045029595494270325	-0.02503158524632454	-0.006210962310433388	0.0016928166151046753	-0.09408360719680786	-0.06940308958292007	0.04910910129547119	-0.1237524077296257	-0.02429533749818802	-0.013787683099508286	-0.13085223734378815	-0.038201235234737396	-0.0448380671441555	-0.10315102338790894	-0.05727461352944374	0.019825531169772148	-0.04254590719938278	0.05266411602497101	-0.04930568486452103	-0.01690402254462242	-0.06589629501104355	0.010726109147071838	0.01973596401512623	-0.01630513183772564	-0.035247426480054855	-0.04364300146698952	-0.03853336349129677	-0.09531194716691971	0.013731129467487335	-0.03911585360765457	0.06759825348854065	0.04036259651184082	-0.12252940237522125	-0.07667277008295059	-0.25156930088996887	-0.2348216474056244	-0.003330540843307972	-0.12871892750263214	-0.07224886119365692	-0.08050888031721115	-0.1117749810218811	-0.020915929228067398	0.049460142850875854	-0.05634218454360962	0.005909277591854334	0.03839777410030365	-0.15048786997795105	-0.02588627114892006	-0.2217005491256714	0.0024037212133407593	-0.09541240334510803	0.07263018935918808	-0.02963929809629917	-0.021217603236436844	-0.05305749177932739	0.03586394339799881	-0.049313925206661224	0.02504187636077404	-0.07387465983629227	0.02493557706475258	-0.1350073218345642	-0.17304787039756775	-0.04582934081554413	0.03205586224794388	0.03280029818415642	-0.06715984642505646	-0.032698243856430054	-0.09605027735233307	-0.11905708909034729	-0.19538000226020813	-0.17548146843910217	0.01659494638442993	-0.14361904561519623	0.021868083626031876	-0.057407498359680176	0.02073974534869194	-0.05097097158432007	0.011009352281689644	-0.01105610653758049	-0.09879442304372787	-0.05318234860897064	-0.04803334176540375	0.05949339270591736	0.005604516249150038	-0.32650208473205566	-0.06407728046178818	-0.01916438341140747	-0.05495703965425491	-0.09712687134742737	-0.02585025690495968	-0.01161334291100502	-0.02411644160747528	-0.17733347415924072	-0.12702922523021698	-0.01270807720720768	-0.03773798793554306	0.04682169854640961	-0.07717319577932358	-0.1476326733827591	-0.18723398447036743	-0.0012557096779346466	0.015155692584812641	-0.10301822423934937	0.0014644023030996323	-0.07438813149929047	-0.07207054644823074	-0.008353134617209435	-0.004060408566147089	0.07818146049976349	-0.05144239962100983	0.03295318782329559	0.02281349152326584	0.058855652809143066	0.03926796466112137	-0.06716788560152054	-0.08363546431064606	-0.09519477188587189	-0.06536274403333664	-0.07262180745601654	-0.08683083206415176	-0.029304947704076767	-0.1140887439250946	-0.19013451039791107	-0.42646360397338867	0.02151241898536682	0.013969291001558304	-0.10949461162090302	0.019708383828401566	-0.03742979094386101	0.004255879670381546	-0.06752495467662811	-0.014290216378867626	0.03192174807190895	-0.18368415534496307	0.05267966166138649	0.02320062927901745	-0.1414390653371811	-0.19572681188583374	-0.020403845235705376	-0.05213430896401405	-0.20602968335151672	-0.04803357273340225	-0.3039034605026245	0.02173027954995632	-0.07973209023475647	0.012580261565744877	-0.07336311042308807	-0.06471459567546844	-0.019792187958955765	-0.02111082524061203	-0.053012505173683167	-0.11192464828491211	-0.05331232026219368	-0.05534396693110466	-0.04906633123755455	-0.24036560952663422	-0.049173954874277115	-0.04272596910595894	-0.17926867306232452	-0.16717959940433502	-0.011335307732224464	-0.2214076817035675	-0.05646416172385216	-0.06296231597661972	-0.06316090375185013	-0.12249074876308441	0.04478985071182251	-0.05942496657371521	-0.05986523628234863	-0.023413902148604393	-0.14704111218452454	-0.05812055617570877	-0.024569641798734665	-0.19464725255966187	-0.14649677276611328	-0.08296286314725876	-0.028323423117399216	-0.0707806795835495	-0.017301445826888084	-0.03501885011792183	0.10456070303916931	-0.0538385845720768	-0.05738108232617378	-0.019067514687776566	-0.008631160482764244	-0.05785404145717621	-0.1670970618724823	0.007114039734005928	-0.09811090677976608	0.01657782308757305	-0.008741380646824837	0.04118390008807182	-0.013096436858177185	-0.08378426730632782	0.001815503928810358	0.09529079496860504	-0.0626024380326271	0.011793037876486778	-0.08024328947067261	0.00536698941141367	-0.09337753057479858	-0.035200562328100204	-0.11441836506128311	-0.10073477774858475	0.01866164803504944	0.013718748465180397	-0.05816824734210968	-0.07981223613023758	-0.008846305310726166	-0.0022590216249227524	-0.2702077627182007	-0.02437039650976658	0.026241092011332512	-0.029316283762454987	0.019978977739810944	-0.027572758495807648	0.006057538092136383	-0.08213738352060318	-0.2258341908454895	0.021905556321144104	-0.04228667542338371	-0.03378293290734291	0.055989593267440796	-0.020064134150743484	-0.055638011544942856	-0.04691611975431442	-0.043885838240385056	0.028629787266254425	-0.017136137932538986	-0.18154913187026978	-0.1141563355922699	-0.12345873564481735	-0.07376497983932495	0.016622286289930344	0.007700368762016296	0.014362391084432602	-0.12852433323860168	-0.0352768674492836	-0.06031502038240433	-0.14077721536159515	-0.04519614577293396	-0.03574354946613312	-0.07475030422210693	0.005894877947866917	-0.01490669697523117	-0.10800016671419144	0.030660662800073624	-0.056583065539598465	-0.12198954820632935	-0.16437721252441406	-0.03818640485405922	-0.1003928929567337	-0.04348290339112282	-0.1831998974084854	-0.052519697695970535	-0.06589454412460327	-0.11140097677707672	0.030246920883655548	-0.11885966360569	-0.06402549892663956	-0.13161930441856384	-0.28463900089263916	0.053520262241363525	0.017080657184123993	-0.0342327281832695	-0.015352893620729446	-0.039002180099487305	0.07399466633796692	-0.2592816948890686	0.06732095777988434	-0.015930775552988052	-0.07695978134870529	0.007682259660214186	-0.05856388434767723	-0.13865597546100616	-0.08085957914590836	-0.05508032441139221	0.013152867555618286	0.008406608365476131	-0.13359352946281433	-0.06223282217979431	-0.07359732687473297	0.003334738314151764	0.054141901433467865	-0.029580138623714447	0.04211592674255371	0.0165484007447958	-0.010808942839503288	-0.031900230795145035	-0.05790538340806961	0.009227082133293152	-0.07223883271217346	-0.3378508985042572	-0.022977367043495178	0.007770088501274586	0.011197253130376339	-0.04169731214642525	-0.0003535407595336437	-0.06219104677438736	-0.08594338595867157	0.007678252644836903	-0.01870943233370781	-0.06608686596155167	-0.09261336922645569	-0.08354504406452179	0.05603650212287903	-0.04440790414810181	-0.0374002605676651	-0.036603979766368866	0.003784283995628357	-0.029881920665502548	-0.023042311891913414	-0.10723736137151718	-0.10214964300394058	-0.03422486037015915	-0.053742665797472	-0.005825486034154892	0.03267510235309601	-0.10143233835697174	-0.05531640723347664	-0.06647123396396637	-0.01300674770027399	-0.019315078854560852	-0.16901415586471558	-0.03580927476286888	0.09813879430294037	-0.09809987246990204	-0.07600861042737961	0.013011027127504349	-0.09819358587265015	-0.07850578427314758	-0.07509715110063553	-0.05179356411099434	-0.020756058394908905	-0.00023241154849529266	-0.05998203903436661	-0.030890803784132004	0.007788605988025665	-0.08535133302211761	-0.0027413915377110243	-0.05448451638221741	0.019312869757413864	-0.22232596576213837	-0.003894893918186426	0.005416050553321838	-0.03606864809989929	-0.09729112684726715	-0.1492752879858017	-0.005198793485760689	-0.04713854193687439	-0.10873937606811523	0.05148385465145111	-0.11384811252355576	-0.02641964703798294	0.004380419850349426	-0.1276448369026184	-0.022305134683847427	-0.12324749678373337	-0.18525336682796478	0.10387696325778961	0.005423702299594879	-0.23955059051513672	-0.1465500146150589	-0.004915381781756878	-0.18274740874767303	-0.12284262478351593	-0.11827068030834198	0.01891237683594227	-0.10132414847612381	-0.22455212473869324	0.05148933082818985	-0.019132863730192184	-0.10468121618032455	0.06784398853778839	0.06967838853597641	-0.09416133165359497	-0.07550182938575745	-0.12675462663173676	-0.059021495282649994	-0.05509403347969055	-0.10979177057743073	-0.07357291132211685	-0.05856692045927048	-0.05481736361980438	-0.18328391015529633	0.03452480584383011	0.01275174506008625	-0.10047294199466705	-0.11802200227975845	-0.03894985467195511	-0.026515066623687744	-0.12593156099319458	-0.06825779378414154	-0.020971352234482765	-0.09313696622848511	0.003358160611242056	-0.002887159585952759	-0.08831234276294708	-0.09673573076725006	-0.030548810958862305	-0.03206787630915642	-0.27643802762031555	0.14513882994651794	0.031107664108276367	-0.08800235390663147	-0.004659746773540974	-0.052698083221912384	-0.08052143454551697	-0.12509003281593323	-0.033745747059583664	0.01038305088877678	-0.04468939080834389	0.03588808327913284	-0.05386898294091225	-0.12305797636508942	-0.0014645276824012399	-0.11738720536231995	-0.13182681798934937	-0.06905391812324524	-0.21465903520584106	-0.09298478811979294	-0.18402057886123657	-0.027379555627703667	0.01898214966058731	-0.31280872225761414	-0.06275621801614761	0.06581543385982513	-0.0760248452425003	-0.11971575021743774	0.10733062028884888	-0.13755106925964355	-0.012221934273838997	-0.03041330724954605	0.11098844558000565	0.025928188115358353	0.027437053620815277	-0.07675878703594208	-0.2527746856212616	-0.040477871894836426	0.018137387931346893	-0.04477352276444435	-0.026722775772213936	-0.045633815228939056	-0.08631093055009842	-0.02027285099029541	0.0804089680314064	-0.09125179797410965	-0.0033101700246334076	-0.05818355828523636	0.007356665097177029	-0.028286579996347427	-0.14676815271377563	0.007219309918582439	0.008179660886526108	0.02864689752459526	-0.08972825109958649	-0.04289843142032623	-0.018361227586865425	-0.048005856573581696	-0.08180127292871475	-0.10326975584030151	0.010559029877185822	-0.07745425403118134	0.01800520345568657	-0.014329858124256134	-0.09834107756614685	0.09829442948102951	-0.014150909148156643	-0.07289241254329681	-0.04465331509709358	-0.09318643808364868	-0.055019401013851166	-0.010693978518247604	-0.079222172498703	-0.07536076009273529	-0.04025834798812866	-0.11639483273029327	-0.2284027338027954	0.0430462546646595	-0.08767923712730408	-0.058278799057006836	0.04804348573088646	0.011362036690115929	-0.013157840818166733	-0.030670825392007828	0.007298116572201252	-0.21622201800346375	-0.18110860884189606	-0.19499734044075012	-0.05751030892133713	0.07445918023586273	-0.0009288829751312733	-0.07644055783748627	0.009274769574403763	0.030078928917646408	-0.0675315335392952	0.04590388387441635	-0.07244791090488434	-0.08564803749322891	0.04562048241496086	-0.04311606287956238	-0.0887143686413765	-0.19941972196102142	-0.023822475224733353	-0.11106131970882416	-0.19834789633750916	0.005739866755902767	-0.08000695705413818	-0.06705020368099213	-0.04657610505819321	-0.2075558304786682	-0.2318226397037506	-0.16054899990558624	0.0057097505778074265	-0.08727028220891953	-0.04280030354857445	-0.011070857755839825	0.011575324460864067	-0.01261574774980545	-0.21349875628948212	-0.032815463840961456	-0.04819376766681671	-0.11418671905994415	-0.01945887692272663	0.06174037605524063	0.021525952965021133	-0.016929656267166138	-0.0327337384223938	-0.11102835088968277	-0.032738786190748215	-0.06801223754882812	-0.026598043739795685	0.014934173785150051	0.03656483441591263	-0.11911889910697937	-0.11232861876487732	0.0133295226842165	-0.07576574385166168	-0.17942599952220917	-0.006377655081450939	0.03377997502684593	-0.0952049046754837	-0.15290817618370056	-0.0767684206366539	-0.056590545922517776	-0.06442677974700928	-0.19083677232265472	0.04738808423280716	-0.09739981591701508	-0.21258389949798584	0.011450432240962982	-0.05925825983285904	-0.040080007165670395	-0.07382456213235855	-0.048215724527835846	0.013816993683576584	0.04894590377807617	-0.037906695157289505	-0.05549459159374237	-0.03289155662059784	-0.08884045481681824	-0.2516908049583435	-0.0067780502140522	-0.021811824291944504	-0.10145673155784607	-0.12020847201347351	-0.010643348097801208	-0.017216235399246216	-0.09453421831130981	-0.07221146672964096	-0.12025082111358643	-0.020556114614009857	0.07115653902292252	-0.08935653418302536	-0.14614909887313843	-0.1498248130083084	-0.11101844161748886	-0.23322267830371857	0.06154205650091171	-0.1935930848121643	-0.04121191427111626	-0.06397014856338501	-0.08554485440254211	-0.054268866777420044	-0.18420706689357758	-0.0783829465508461	-0.06696991622447968	-0.04827045276761055	-0.0334462970495224	-0.1389894038438797	-0.06686735898256302	-0.06382531672716141	0.0017765872180461884	-0.10406842082738876	0.1175599992275238	-0.07036256045103073	-0.1841002255678177	0.0050366828218102455	-0.05872857943177223	-0.1201154813170433	-0.24767369031906128	-0.07071611285209656	-0.060233861207962036	-0.07700979709625244	-0.08124977350234985	-0.03964050114154816	-0.04719782993197441	-0.16203680634498596	0.02098771557211876	-0.3181418776512146	-0.08820317685604095	-0.0808129534125328	-0.08792565017938614	-0.06279060989618301	-0.054159700870513916	0.08428319543600082	-0.11672971397638321	0.03562992438673973	0.002657391130924225	0.007902459241449833	-0.07923492044210434	-0.06480403244495392	0.016496505588293076	-0.021524440497159958	0.0662512555718422	-0.05963379144668579	0.014216577634215355	-0.10131209343671799	-0.0496937558054924	0.023867947980761528	-0.0775812640786171	-0.03759469464421272	0.008168365806341171	7.753074169158936e-05	-0.044162314385175705	-0.001916857436299324	-0.10929270833730698	-0.16089913249015808	-0.1789311021566391	-0.0706445574760437	0.00826922245323658	0.009134477004408836	-0.1151856854557991	-0.06642710417509079	-0.06745784729719162	-0.032808542251586914	-0.023914530873298645	-0.03983521834015846	-0.03719029575586319	-0.13375945389270782	-0.14175164699554443	-0.16149470210075378	-0.1666787564754486	-0.09512272477149963	-0.14143510162830353	-0.03807370364665985	0.018629413098096848	-0.09118970483541489	-0.13678160309791565	-0.08325300365686417	-0.12328248471021652	-0.21817930042743683	-0.0555480495095253	-0.2015194296836853	-0.057901740074157715	-0.2104622721672058	-0.07463918626308441	-0.03298414871096611	-0.11260053515434265	-0.025228705257177353	-0.05613226443529129	-0.05377485975623131	-0.1266346573829651	-0.04097108170390129	-0.05268346890807152	-0.00013152463361620903	0.023415757343173027	0.03780067339539528	-0.019146952778100967	0.00825946219265461	0.06663157790899277	-0.07437235116958618	-0.0880359634757042	0.02175252139568329	-0.09186138957738876	0.005240136757493019	0.003708767704665661	-0.05812688544392586	0.17430271208286285	-0.003598220646381378	-0.002806750126183033	-0.030387964099645615	-0.05746714025735855	-0.14927756786346436	-0.07217280566692352	-0.017179841175675392	0.049329549074172974	-0.1812763810157776	-0.08581140637397766	0.007662009913474321	-0.044912271201610565	-0.04548881575465202	0.0027668382972478867	0.06542960554361343	-0.19497276842594147	-0.046033769845962524	0.015693016350269318	0.011471344158053398	0.00857737846672535	0.022571086883544922	-0.004008988384157419	-0.013431329280138016	-0.06436392664909363	-0.016773030161857605	0.005737002938985825	0.025734471157193184	-0.04640425369143486	-0.10585044324398041	-0.12238907814025879	-0.023931380361318588	-0.03130524978041649	-0.039740510284900665	-0.032079897820949554	-0.012224812060594559	0.08500006794929504	-0.05682625621557236
2	0.029496431350708008	0.0279838964343071	0.025449194014072418	0.029831616207957268	0.019198182970285416	0.038971204310655594	0.03181467205286026	0.041537217795848846	0.029773913323879242	0.03104468807578087	0.033137403428554535	0.030326737090945244	0.04514645040035248	0.018261238932609558	0.014291573315858841	0.03476528078317642	0.02570950798690319	0.04066992551088333	0.04312371462583542	0.02648192271590233	0.0326194241642952	0.02934274449944496	0.021847959607839584	0.03089475817978382	0.02671109139919281	0.026797236874699593	0.032232388854026794	0.034001849591732025	0.035569630563259125	0.033582501113414764	0.02699623443186283	0.02021602727472782	0.03830708563327789	0.02767159789800644	0.01978953741490841	0.025157736614346504	0.03542691469192505	0.03293605148792267	0.0364142507314682	0.04141084849834442	0.03211470693349838	0.02746950462460518	0.04091506823897362	0.02808309718966484	0.03521949052810669	0.036495391279459	0.029813367873430252	0.03343898802995682	0.031133459880948067	0.027207259088754654	0.03175272420048714	0.027323022484779358	0.03964822366833687	0.0297382939606905	0.033703312277793884	0.03692339360713959	0.022706378251314163	0.023126278072595596	0.03376451134681702	0.040014125406742096	0.033135414123535156	0.03182891011238098	0.02888893336057663	0.027861546725034714	0.022336307913064957	0.0387113057076931	0.03509734570980072	0.0291531290858984	0.03067757375538349	0.02600843459367752	0.0365758016705513	0.021476726979017258	0.027142036706209183	0.03946121037006378	0.033514466136693954	0.0303216390311718	0.03328446298837662	0.03349437192082405	0.03081844002008438	0.02757781185209751	0.038419611752033234	0.031137529760599136	0.03316902369260788	0.028070494532585144	0.02736606076359749	0.03134533762931824	0.03462720662355423	0.03352667763829231	0.03559358790516853	0.032173387706279755	0.0351991131901741	0.03891541808843613	0.0322791188955307	0.028859049081802368	0.028636787086725235	0.022917700931429863	0.024026237428188324	0.0343344509601593	0.03938141465187073	0.038683921098709106	-0.11702771484851837	-0.21804283559322357	0.15466982126235962	0.1992778182029724	0.132324680685997	-0.10336095094680786	0.062368787825107574	-0.14380322396755219	0.008449962362647057	0.29913443326950073	-0.026775360107421875	-0.09404154121875763	-0.00406660744920373	-0.2058800905942917	0.2650264501571655	-0.07930092513561249	0.24004526436328888	0.03147132694721222	0.09111569821834564	0.02444966696202755	0.08638036996126175	0.19264407455921173	0.015367839485406876	0.044426340609788895	-0.005402924492955208	0.010048595257103443	0.10729287564754486	-0.22380569577217102	0.024612093344330788	0.07212239503860474	0.020828329026699066	-0.05619695782661438	0.04975799471139908	-0.004059017635881901	-0.18807044625282288	0.06825874745845795	-0.27516332268714905	0.03127695620059967	0.05827470123767853	0.048595160245895386	-0.02566792443394661	-0.09525734186172485	0.013646189123392105	0.20955325663089752	0.06593246012926102	-0.17023080587387085	0.09780475497245789	-0.0976441353559494	0.061780575662851334	-0.03406599536538124	-0.13281263411045074	-0.12426243722438812	-0.17531989514827728	-0.045185744762420654	0.09546425938606262	0.00764455646276474	-0.15067481994628906	0.06292469054460526	-0.2642579972743988	0.14475245773792267	-0.04748436063528061	0.20199523866176605	0.12201784551143646	-0.4260692596435547	0.10653087496757507	0.018064092844724655	-0.16870003938674927	0.137834832072258	-0.09829491376876831	-0.005817410070449114	0.1805504709482193	-0.0879766196012497	-0.014750259928405285	-0.06506530195474625	-0.21678245067596436	-0.18908967077732086	-0.022300370037555695	0.0031419843435287476	0.02795959822833538	-0.09571211040019989	-0.21647173166275024	-0.04474854841828346	-0.05745788291096687	0.008789420127868652	-0.007521049119532108	-0.0459640733897686	0.05904540419578552	-0.09281358122825623	-0.08084093034267426	-0.01632673107087612	-0.08932940661907196	-0.1483430564403534	0.008678759448230267	-0.03471767157316208	-0.2444019317626953	-0.028707481920719147	-0.03676462918519974	-0.15435835719108582	-0.05956482142210007	-0.07813334465026855	-0.15030768513679504	-0.09321032464504242	0.01615520380437374	-0.07623139023780823	-0.21728143095970154	-0.18507035076618195	-0.02992744743824005	-0.11786989122629166	0.18936437368392944	-0.04331381991505623	0.027722658589482307	-0.12662698328495026	0.0132148377597332	-0.1761249154806137	0.0021024979650974274	0.011826921254396439	-0.01947714388370514	0.04276585578918457	-0.3145265579223633	0.08384822309017181	-0.3128888010978699	0.08403952419757843	-0.10558384656906128	0.1957808881998062	-0.07181021571159363	0.09425130486488342	0.0520697757601738	-0.13585670292377472	0.027625475078821182	-0.003677261993288994	0.14738517999649048	0.02961486205458641	0.19764718413352966	-0.1116224080324173	0.0650968849658966	-0.08217605948448181	0.04214341565966606	0.035603269934654236	0.04348105937242508	-0.04651200771331787	0.23849275708198547	0.0019928552210330963	-0.08799338340759277	0.1697072684764862	-0.028358865529298782	-0.10838043689727783	-0.15827323496341705	0.19490456581115723	-0.03231510892510414	0.08833262324333191	0.12533199787139893	0.06932014226913452	-0.15604037046432495	0.16200655698776245	0.10709445178508759	0.34167152643203735	0.008658384904265404	-0.044280700385570526	-0.03651193156838417	-0.18689967691898346	-0.0014442270621657372	0.18675467371940613	0.4023834466934204	-0.36990776658058167	0.02437777817249298	0.011125300079584122	-0.12309622764587402	0.16703999042510986	0.10491664707660675	-0.14998158812522888	-0.1971694976091385	-0.34229254722595215	-0.1427578330039978	-0.15408195555210114	0.010193279013037682	0.1951586902141571	-0.043121419847011566	0.092778280377388	-0.09439931064844131	-0.19832220673561096	-0.0801658034324646	-0.17619651556015015	-0.016615431755781174	-0.011914800852537155	-0.058519236743450165	0.010357596911489964	0.09462685883045197	0.015532373450696468	0.03063204139471054	-0.002018176019191742	-0.1872491091489792	-0.09011668711900711	-0.17513784766197205	0.10018768906593323	0.059348590672016144	0.05311812832951546	0.03723689168691635	0.18054187297821045	0.09228919446468353	-0.10026571899652481	-0.009296766482293606	-0.02658333256840706	0.07562275230884552	0.11410219967365265	-0.20561647415161133	-0.2379300743341446	-0.15252575278282166	-0.022649899125099182	0.07714314758777618	-0.0050202528946101665	-0.017264636233448982	0.13739348948001862	0.040100183337926865	-0.18504995107650757	0.07781898975372314	0.13989627361297607	-0.005082996562123299	-0.10751136392354965	0.011328943073749542	0.19840103387832642	0.011900724843144417	0.03247923403978348	0.06246475875377655	-0.07673655450344086	-0.07139670103788376	0.014106713235378265	-0.17277461290359497	-0.1148255318403244	-0.08322438597679138	-0.11883325129747391	-0.013183154165744781	-0.042762599885463715	-0.1259848177433014	-0.24268725514411926	-0.16496379673480988	0.10244043171405792	-0.14116090536117554	-0.1967414915561676	-0.07316488027572632	-0.127706378698349	0.0798579528927803	-0.3650110065937042	-0.08853983134031296	-0.044144608080387115	0.04483707994222641	-0.007066890597343445	0.015402847900986671	-0.1700991541147232	-0.028294481337070465	-0.12971755862236023	0.17953422665596008	-0.07248818874359131	-0.05101349949836731	-0.18080267310142517	-0.151707723736763	-0.019214022904634476	0.028156496584415436	-0.2767474055290222	0.06041703000664711	0.3797038495540619	0.007192991673946381	-0.2084181308746338	-0.07543408870697021	-0.06567179411649704	0.08273939788341522	-0.20149141550064087	0.18375922739505768	-0.14002367854118347	-0.19838538765907288	-0.05482172220945358	-0.07832977920770645	0.35129326581954956	-0.0658121109008789	0.09487167000770569	0.15032629668712616	-0.04961247742176056	-0.014368457719683647	0.14341378211975098	0.026554279029369354	-0.00671786442399025	0.008383158594369888	-0.1407339721918106	0.12333475053310394	0.054493214935064316	-0.03221976011991501	-0.19440262019634247	0.020843621343374252	-0.29711705446243286	-0.09494172036647797	-0.06773856282234192	0.07567236572504044	-0.00423320010304451	-0.11200922727584839	0.04694260656833649	0.04466090723872185	-0.19279137253761292	0.056603215634822845	-0.14081616699695587	0.04269763082265854	-0.18424849212169647	-0.049580127000808716	-0.05121321976184845	0.3169710636138916	-0.0789402425289154	-0.05090515315532684	-0.19214066863059998	-0.17276690900325775	0.0993853434920311	-0.03042682260274887	-0.11505888402462006	-0.11943422257900238	-0.17517545819282532	-0.05563972145318985	-0.05003860220313072	-0.14764395356178284	-0.0426761619746685	-0.01278468407690525	0.20738333463668823	0.08798650652170181	0.07040047645568848	-0.013013593852519989	-0.10586215555667877	-0.20646455883979797	-0.15074190497398376	-0.2445637285709381	-0.21601040661334991	-0.016513030976057053	0.04097996652126312	-0.0954093337059021	0.005984120070934296	0.025989975780248642	0.01735057681798935	-0.001233801245689392	-0.1013881117105484	0.0021965932101011276	-0.1814826875925064	-0.16740432381629944	-0.03719567507505417	0.04591195657849312	-0.010394500568509102	-0.011171577498316765	0.07476257532835007	-0.18409396708011627	-0.17968587577342987	-0.33095723390579224	0.04541529715061188	-0.07264120876789093	0.012074007652699947	-0.03154336288571358	0.009668830782175064	-0.023337967693805695	0.12381865084171295	0.12596672773361206	0.06737908720970154	-0.08376701176166534	-0.1915086805820465	0.12378840148448944	0.3536566495895386	0.0530802346765995	0.008028913289308548	0.021560369059443474	0.012091651558876038	-0.10606030374765396	-0.024432478472590446	-0.1676541417837143	0.028824085369706154	-0.2072678655385971	-0.11846989393234253	0.15158608555793762	0.016963323578238487	-0.14981116354465485	0.1247587502002716	-0.09143248200416565	-0.05078164115548134	0.13197505474090576	0.21530687808990479	-0.07513715326786041	-0.04320936277508736	-0.02647087350487709	-0.008981369435787201	0.18547934293746948	-0.1483403891324997	0.1668907105922699	-0.07440759241580963	-0.08017240464687347	0.10595390200614929	0.07337189465761185	0.3400768041610718	-0.08970023691654205	-0.06523294746875763	-0.10341804474592209	-0.11851126700639725	-0.10655152052640915	-0.12252271175384521	-0.014253286644816399	-0.0022930391132831573	-0.04941421002149582	-0.009427614510059357	-0.07838193327188492	0.05294045805931091	-0.16444970667362213	-0.02216758206486702	-0.14641939103603363	0.0587940439581871	-0.06672120839357376	-0.013496913015842438	0.05922654643654823	-0.3351392149925232	0.14942362904548645	-0.06645055115222931	-0.17098647356033325	-0.07227934151887894	-0.06263291835784912	0.050469160079956055	-0.27304166555404663	-0.05690931901335716	-0.08717212080955505	0.14660203456878662	0.1267959326505661	0.004610443487763405	0.14408865571022034	-0.12054610997438431	0.08282798528671265	-0.02994675748050213	0.09114858508110046	-0.3122730255126953	-0.027625806629657745	0.016517169773578644	-0.044840678572654724	-0.5066329836845398	-0.004259392619132996	-0.040781084448099136	-0.2459651380777359	-0.1636352837085724	-0.11402544379234314	0.16619080305099487	-0.1188252866268158	-0.401850163936615	0.11728791147470474	-0.16920672357082367	0.022276781499385834	-0.00444767065346241	-0.037570416927337646	-0.05240938067436218	-0.257695734500885	-0.07698933035135269	-0.013789622113108635	-0.059849612414836884	0.03594101592898369	0.10010333359241486	0.0804169774055481	0.01787334680557251	0.007613253779709339	-0.00986314658075571	0.0468461699783802	-0.037597134709358215	-0.018119508400559425	-0.09195257723331451	-0.01791878044605255	-0.07186660170555115	-0.0020390599966049194	-0.028650447726249695	0.108577199280262	0.03168463706970215	0.054811254143714905	-0.057479098439216614	-0.035071998834609985	0.11691765487194061	0.0863117128610611	0.13620209693908691	-0.040177419781684875	0.09380987286567688	0.05635284632444382	-0.17839455604553223	-0.11702299118041992	0.1648085117340088	0.03712797909975052	-0.062011003494262695	0.12508058547973633	0.019354790449142456	-0.06482900679111481	-0.013916967436671257	0.14157982170581818	-0.0119471475481987	-0.32835066318511963	0.12355504930019379	0.08169970661401749	0.05556190758943558	-0.02479785494506359	0.017207205295562744	-0.034243546426296234	-0.15810662508010864	-0.4377683997154236	0.08226572722196579	0.013575863093137741	0.1230134442448616	-0.12062039971351624	-0.010597337037324905	-0.05360637605190277	-0.03863675147294998	0.006908967159688473	0.0810370147228241	0.044263359159231186	-0.21070434153079987	0.03657995164394379	0.01729169487953186	-0.04024972766637802	-0.07015533000230789	0.1333879828453064	0.16770127415657043	-0.05959365516901016	0.0033269478008151054	-0.04255717992782593	0.07893224060535431	0.07775484770536423	0.022302160039544106	0.04709519445896149	-0.05869434028863907	-0.16537848114967346	-0.0995069295167923	-0.00847584381699562	-0.1336422562599182	-0.11855372786521912	-0.3382624387741089	0.13977184891700745	-0.15687191486358643	-0.04006700590252876	-0.17457512021064758	0.19131290912628174	0.09901006519794464	0.14259709417819977	0.1490859091281891	0.06570681929588318	-0.00311961118131876	0.11370354890823364	0.05940953642129898	-0.008184079080820084	-0.014204418286681175	0.0545523464679718	0.1654566526412964	0.09672526270151138	0.07713226228952408	-0.2425086796283722	0.19466091692447662	-0.06867225468158722	-0.1349029541015625	0.052562881261110306	-0.1510777473449707	-0.17560620605945587	0.13972365856170654	-0.0027569755911827087	0.20831891894340515	-0.08758585155010223	-0.19245675206184387	-0.04991436377167702	0.039736874401569366	0.10711391270160675	-0.16696174442768097	0.06349005550146103	0.18316860496997833	0.05004534870386124	-0.1697719693183899	0.09357072412967682	-0.1542292982339859	0.12108460813760757	-0.043925121426582336	-0.2642330825328827	0.038598716259002686	-0.024853339418768883	-0.05020105466246605	-0.10372260212898254	-0.10171187669038773	-0.06989727169275284	-0.19046203792095184	0.1435105800628662	-0.15629829466342926	0.04890100285410881	-0.11562343686819077	-0.16324572265148163	0.02837521582841873	-0.05102081596851349	-0.047151900827884674	0.5187902450561523	-0.1298850178718567	0.07224904000759125	0.039245326071977615	-0.03405033051967621	-0.01403089053928852	-0.04245518893003464	0.01694023236632347	-0.09536604583263397	0.0695742815732956	-0.2010878175497055	-0.02600056678056717	0.03434768319129944	-0.05212249979376793	0.10558602213859558	0.04574546217918396	-0.021405525505542755	-0.002922855317592621	0.08273454755544662	0.020599547773599625	-0.09766029566526413	-0.0910053700208664	-0.030272988602519035	0.006251517683267593	-0.15820246934890747	0.019409874454140663	-0.07827942073345184	-0.09604254364967346	0.010300997644662857	0.018367905169725418	-0.0988287627696991	-0.0019622035324573517	-0.029375581070780754	0.06251655519008636	-0.2833297550678253	0.10802602767944336	0.0584661066532135	0.06537046283483505	-0.2569938600063324	-0.3965519666671753	0.19625216722488403	-0.03943636268377304	-0.031205058097839355	-0.09019345045089722	-0.16014572978019714	-0.012541616335511208	0.22454629838466644	0.05979933589696884	0.035025786608457565	-0.21090367436408997	-0.04274487495422363	0.1049487516283989	0.11388936638832092	0.21031321585178375	-0.15275125205516815	0.05347470939159393	-0.19104422628879547	0.09385065734386444	-0.16954202950000763	0.01610488072037697	-0.13298526406288147	-0.06577189266681671	0.009019505232572556	-0.11832784861326218	-0.03442727401852608	-0.011911127716302872	0.038205526769161224	-0.16718783974647522	-0.1148006021976471	-0.011388503015041351	-0.19017168879508972	0.10766798257827759	-0.15415377914905548	-0.06550831347703934	-0.048242561519145966	-0.06191522628068924	-0.03894125297665596	0.012666365131735802	0.02273314818739891	-0.16842734813690186	-0.28875410556793213	-0.011860616505146027	0.10113774985074997	-0.09162233769893646	-0.13416314125061035	-0.18206000328063965	-0.09881813079118729	0.1593945026397705	-0.005513705313205719	0.14404970407485962	0.008448969572782516	-0.11072466522455215	-0.1737319380044937	0.05760025233030319	-0.09693184494972229	0.17213693261146545	-0.053509920835494995	-0.08004489541053772	-0.13930349051952362	-0.13425946235656738	-0.06055261939764023	-0.14722269773483276	-0.0820520669221878	0.04665626585483551	0.0925481989979744	0.008232630789279938	-0.09846450388431549	-0.05263807624578476	-0.06398621201515198	0.014706466346979141	-0.0511946864426136	-0.3442211151123047	-0.1357908397912979	-0.09307995438575745	0.08729442954063416	-0.026501087471842766	-0.3860835134983063	0.031064258888363838	0.14700540900230408	-0.0391242653131485	-0.13679203391075134	-0.02988838031888008	0.09770163148641586	-0.07232005894184113	-0.18381474912166595	0.19386017322540283	0.055100440979003906	-0.11087536066770554	-0.05249389633536339	-0.29904305934906006	0.17365266382694244	-0.05694858729839325	0.17563670873641968	0.12752723693847656	0.13358822464942932	0.02831464633345604	0.05035887658596039	-0.009130764752626419	-0.030738458037376404	-0.06076568365097046	0.08859911561012268	0.10313504934310913	0.006361433304846287	-0.17940104007720947	-0.023029875010252	0.0818781703710556	0.02822783589363098	-0.06110037490725517	-0.0011851168237626553	-0.17816996574401855	-0.09195059537887573	-0.1885596215724945	-0.08636119961738586	0.15154069662094116	-0.09640313684940338	-0.013578206300735474	0.14904020726680756	-0.020569592714309692	-0.08894113451242447	0.09211349487304688	0.01132521778345108	0.027588695287704468	-0.09334419667720795	-0.028459180146455765	-0.17551946640014648	-0.0609305314719677	0.061006542295217514	0.10978654772043228	-0.06116202473640442	-0.3369770050048828	0.32589563727378845	-0.16674184799194336	0.0920335128903389	-0.050117626786231995	-0.005098121240735054	0.08599835634231567	-0.04926450550556183	0.09278394281864166	-0.11795725673437119	-0.20216333866119385	-0.07317069917917252	0.07629766315221786	-0.06109698861837387	0.11427757143974304	-0.11047841608524323	-0.05479775369167328	0.1783822625875473	0.0055844420567154884	0.09183339774608612	0.02786128595471382	0.0898839458823204	0.033783528953790665	-0.040567971765995026	-0.0700516626238823	-0.26880666613578796	-0.07209832221269608	-0.24205155670642853	0.12448516488075256	-0.18341708183288574	0.022844593971967697	0.09344784170389175	0.30253928899765015	-0.04765068739652634	-0.21363922953605652	-0.11656930297613144	0.01687004044651985	-0.11827315390110016	-0.12725885212421417	-0.02846919558942318	-0.06631454080343246	0.1986292004585266	-0.0854215919971466	0.1577896624803543	-0.06794042885303497	-0.20593026280403137	0.012232532724738121	0.05985694378614426	-0.014007199555635452	-0.02247536927461624	-0.044524744153022766	-0.13737547397613525	0.05473790317773819	0.153646320104599	0.0022211913019418716	0.00014614500105381012	0.2097979635000229	-0.1645507663488388	0.11526043713092804	-0.11772096157073975	-0.14492686092853546	0.15613888204097748	0.07771382480859756	0.05863187462091446	-0.29149964451789856	0.09979844093322754	0.0016305223107337952	-0.06429393589496613	0.15613172948360443	-0.27870628237724304	-0.1321549266576767	0.13437519967556	-0.1831304430961609	0.07247714698314667	0.02028389647603035	0.012782994657754898	-0.16630327701568604	0.0360613614320755	0.03858475759625435	-0.004617471247911453	-0.10832297801971436	-0.022513965144753456	-0.03812943398952484	-0.032486237585544586	-0.1321476697921753	0.1749422252178192	-0.04362475872039795	0.0070176683366298676	-0.16202738881111145	0.1714540421962738	0.1775795817375183	0.00976849626749754	-0.1474124789237976	-0.27630048990249634	0.08145277947187424	-0.2503511309623718	0.01282510906457901	-0.14565713703632355	-0.08569195121526718	0.0577235147356987	-0.18318384885787964	0.2028634399175644	-0.34361883997917175	0.06822869181632996	0.2414979636669159	-0.029683034867048264	-0.2041901797056198	0.25555509328842163	-0.3054686188697815	-0.2735612392425537	-0.04221460595726967	-0.13277341425418854	-0.26094484329223633	0.028221920132637024	-0.022852901369333267	0.01937960833311081	-0.11960509419441223	-0.05316051468253136	0.06541354954242706	-0.31643322110176086	-0.04506435990333557	-0.2324293702840805	-0.027989652007818222	-0.062404945492744446	-0.26568806171417236	-0.005346217192709446	-0.23569612205028534	-0.013880694285035133	-0.09281108528375626	0.048654429614543915	-0.025608494877815247	-0.05475826561450958	-0.16640765964984894	0.17113465070724487	0.05526105687022209	-0.1545068621635437	-0.04200403392314911	-0.07496747374534607	-0.052800554782152176	-0.028430692851543427	-0.02327480912208557	-0.1569177210330963	0.03987311199307442	0.16516563296318054	-0.03043486550450325	0.036714740097522736	-0.07320869714021683	0.04210672527551651	-0.25732195377349854	-0.05625368282198906	-0.09725643694400787	-0.08636573702096939	-0.0026959553360939026	-0.09103018045425415	0.0797804668545723	-0.0650971382856369	0.040025901049375534	-0.09041844308376312	0.17498494684696198	-0.021635593846440315	-0.1348099708557129	-0.08558700233697891	0.17133589088916779	-0.16272297501564026	-0.016270948573946953	-0.3278009295463562	-0.1843569278717041	-0.07582459598779678	0.0058126142248511314	-0.005184551700949669	0.02004151977598667	-0.08337399363517761	0.1140403300523758	-0.195805162191391	-0.05655372515320778	-0.04134785383939743	-0.17391419410705566	0.09081142395734787	0.06171611696481705	0.03127531707286835	-0.0741131454706192	-0.07109687477350235	0.09689471870660782	-0.0878756046295166	-0.053982459008693695	0.004099471494555473	0.03848549351096153	0.014441238716244698	-0.2321905493736267	-0.4152183532714844	-0.020054340362548828	-0.1611420214176178	0.109537273645401	-0.006599472835659981	-0.10489121079444885	0.044303152710199356	0.013450272381305695	0.07487349212169647	-0.10088320821523666	-0.025921741500496864	0.09079684317111969	0.09899602830410004	-0.0690591037273407	0.1977531611919403	-0.10501457005739212	-0.08708503842353821	0.0764031633734703	-0.069621242582798	-0.056376777589321136	0.18861544132232666	-0.04634872078895569	0.08315284550189972	0.14904721081256866	0.004314584657549858	0.035209447145462036	0.2544572651386261	0.10428789258003235	-0.10541535168886185	-0.04458753764629364	-0.05169961601495743	-0.3501145839691162	-0.051107101142406464	-0.12030993402004242	-0.03528297692537308	0.08319413661956787	0.09230606257915497	0.034917205572128296	-0.20913933217525482	0.006532713770866394	-0.04741790518164635	-0.08424541354179382	-0.06381884962320328	-0.08944856375455856	0.007203739136457443	0.07174055278301239	-0.09831156581640244	0.21314381062984467	-0.05122343450784683	0.15450704097747803	-0.01320292241871357	0.06602835655212402	-0.06007715314626694	0.014359768480062485	0.03642453998327255	-0.021849825978279114	-0.014159093610942364	-0.024862375110387802	0.09133119881153107	-0.12925849854946136
3	-0.02197360433638096	-0.02907036989927292	-0.014275387860834599	-0.01051067654043436	-0.018280332908034325	-0.02586858719587326	-0.027229420840740204	-0.01570466347038746	-0.027825908735394478	-0.017364490777254105	-0.017816606909036636	-0.030592044815421104	-0.017565948888659477	-0.02992643415927887	-0.029897378757596016	-0.020868131890892982	-0.029231537133455276	-0.027469974011182785	-0.022720973938703537	-0.01947825588285923	-0.02129608765244484	-0.02433982864022255	-0.024625707417726517	-0.019774802029132843	-0.022906243801116943	-0.02357548661530018	-0.02794734202325344	-0.016804389655590057	-0.019535699859261513	-0.029605049639940262	-0.022712796926498413	-0.017045751214027405	-0.02800159715116024	-0.03430107980966568	-0.027307884767651558	-0.0354372076690197	-0.013662291690707207	-0.02989931032061577	-0.02918323315680027	-0.023007400333881378	-0.030411364510655403	-0.01987100951373577	-0.020874852314591408	-0.026172831654548645	-0.007026586681604385	-0.02577517181634903	-0.024186471477150917	-0.02641838788986206	-0.020414354279637337	-0.01985125243663788	-0.021966246888041496	-0.03103559836745262	-0.014534877613186836	-0.013607512228190899	-0.018423642963171005	-0.020963754504919052	-0.02750529535114765	-0.02591807022690773	-0.016044672578573227	-0.02504054829478264	-0.02117711864411831	-0.017655443400144577	-0.013841906562447548	-0.016244476661086082	-0.018956325948238373	-0.02123688906431198	-0.030460726469755173	-0.023075446486473083	-0.023299558088183403	-0.03160659223794937	-0.01716938242316246	-0.015045564621686935	-0.02825288102030754	-0.021294547244906425	-0.0096937520429492	-0.023354537785053253	-0.025311335921287537	-0.027970589697360992	-0.021450430154800415	-0.015143897384405136	-0.02117677964270115	-0.025655534118413925	-0.02237379178404808	-0.0275430828332901	-0.031542837619781494	-0.012975916266441345	-0.01142662763595581	-0.016728561371564865	-0.021894365549087524	-0.027991853654384613	-0.01129162311553955	-0.02118508517742157	-0.026005296036601067	-0.02173887938261032	-0.023005902767181396	-0.018829695880413055	-0.02592177502810955	-0.02128755860030651	-0.023866355419158936	-0.02145073190331459	-0.012823009863495827	-0.15433689951896667	0.19381585717201233	0.2539145350456238	-0.23428556323051453	-0.03291384503245354	0.22735044360160828	-0.23335088789463043	-0.08916628360748291	0.07180479168891907	0.10284532606601715	-0.060624368488788605	-0.25630903244018555	-0.46543118357658386	-0.047849610447883606	-0.1762155294418335	0.0739416778087616	0.12662342190742493	-0.005041198804974556	-0.018597787246108055	0.04434024170041084	0.028909379616379738	0.048320069909095764	0.09849229454994202	0.050405800342559814	-0.11748725175857544	0.004112314432859421	-0.06183794140815735	0.0485435351729393	-0.18443287909030914	0.02529982663691044	0.020707886666059494	0.013115830719470978	-0.16053415834903717	-0.09817789494991302	-0.2605433166027069	-0.0701240748167038	-0.05422750860452652	-0.2543373703956604	0.024955961853265762	-0.054083939641714096	-0.025434982031583786	-0.22451850771903992	0.056910574436187744	-0.12689167261123657	0.10121965408325195	-0.019696533679962158	-0.018718179315328598	0.14953239262104034	-0.04866752400994301	-0.0837593749165535	-0.12947644293308258	0.09461981058120728	-0.0011826660484075546	0.1709284484386444	0.012414030730724335	-0.14892426133155823	-0.20079101622104645	-0.06902693957090378	-0.03844606131315231	-0.02376706339418888	0.1251567006111145	0.03010973520576954	-0.0954449474811554	-0.10753753781318665	-0.02562408708035946	0.031204959377646446	0.0405631847679615	0.09416437149047852	0.09413034468889236	-0.06678059697151184	0.02886183373630047	0.1684960275888443	-0.07839551568031311	-0.06797895580530167	-0.11807501316070557	-0.002215459942817688	-0.10561851412057877	0.14586374163627625	-0.0029042772948741913	-0.29776710271835327	-0.005552303045988083	-0.12699231505393982	-0.054530560970306396	-0.11296506226062775	-0.16894996166229248	0.089228555560112	-0.07485757768154144	-0.060891419649124146	-0.15395642817020416	-0.11329063028097153	-0.07028400897979736	0.1555069237947464	-0.19478097558021545	-0.23689314723014832	0.04440869390964508	0.02064375951886177	-0.08867138624191284	-0.1756734848022461	-0.05158797651529312	-0.051556963473558426	0.07443664968013763	-0.06703053414821625	0.0567643903195858	-0.32165461778640747	-0.2455437034368515	0.22219614684581757	0.2133183777332306	-0.09975765645503998	-0.06372880935668945	-0.07033219188451767	0.030077259987592697	-0.17726458609104156	-0.05410037934780121	-0.01814926415681839	-0.004542317241430283	-0.09034851938486099	-0.030333291739225388	-0.09993676841259003	-0.08121661841869354	0.01791488751769066	0.09176312386989594	0.002762561198323965	-0.062243156135082245	-0.01793743669986725	0.03130297362804413	0.05320344120264053	-0.13199742138385773	0.056318432092666626	0.259286105632782	0.04909684509038925	-0.06394442915916443	-0.07592243701219559	-0.00728813000023365	-0.1975243240594864	0.16970062255859375	0.030018189921975136	-0.17500628530979156	-0.13757860660552979	-0.1091880351305008	0.14862163364887238	-0.11849832534790039	-0.13432428240776062	0.16970226168632507	0.10795082896947861	0.10110166668891907	0.009119353257119656	0.047871556133031845	-0.2199585735797882	-0.12404745072126389	-0.17241144180297852	-0.1857571005821228	-0.41880327463150024	-0.0843123197555542	0.07400856167078018	0.0018228329718112946	-8.751678979024291e-05	-0.2730652093887329	0.10533515363931656	-0.2652416527271271	-0.008134732022881508	-0.07529574632644653	0.011812597513198853	-0.08083173632621765	-0.35096603631973267	-0.02022944763302803	0.030943330377340317	-0.1958482563495636	0.04134088754653931	-0.061514001339673996	-0.25613605976104736	-0.4329074025154114	0.011015631258487701	-0.2920857071876526	-0.06158803030848503	-0.40098387002944946	-0.025476913899183273	0.21012109518051147	-0.007782306522130966	-0.0493137389421463	0.2746480703353882	0.010178525000810623	-0.24232041835784912	-0.032435979694128036	0.28210389614105225	0.11351048946380615	-0.0014232955873012543	-0.010721256956458092	0.26348012685775757	0.07054468989372253	-0.07360073924064636	0.08084087818861008	-0.12843012809753418	0.07002285122871399	0.1494368463754654	0.02495180070400238	-0.22408515214920044	0.213835671544075	0.027316691353917122	0.10868695378303528	-0.1211458072066307	-0.2031024545431137	0.2060174196958542	0.12781164050102234	-0.003945432603359222	-0.1967886984348297	-0.044084906578063965	0.14423160254955292	-0.1051352471113205	0.05930604413151741	-0.12790051102638245	-0.19154450297355652	0.09512795507907867	-0.2998991906642914	0.05630061402916908	-0.2530909776687622	0.013922607526183128	-0.011539904400706291	0.06101854890584946	-0.014145903289318085	0.01087096892297268	-0.26329830288887024	-0.12341289967298508	0.03475283086299896	-0.05693487077951431	-0.16367116570472717	-0.13530978560447693	-0.09510965645313263	0.001739785075187683	-0.07115694135427475	0.3234577775001526	0.05005861073732376	-0.053822461515665054	-0.15504223108291626	-0.18043333292007446	-0.13129690289497375	0.15832842886447906	-0.06661742925643921	-0.09654614329338074	0.11187869310379028	-0.15539640188217163	-0.11608231067657471	-0.020304009318351746	-0.10076121240854263	-0.12345103174448013	-0.08143074065446854	-0.009240508079528809	-0.1749841570854187	0.09073078632354736	-0.1113148033618927	0.14853179454803467	0.031050391495227814	-0.14596253633499146	-0.07856118679046631	0.04465658962726593	-0.02586108259856701	-0.02587277442216873	-0.024551840499043465	-0.21227848529815674	-0.05125140771269798	-0.0020808109547942877	-0.07233906537294388	0.10658998787403107	-0.019143998622894287	-0.23634029924869537	-0.30363571643829346	0.09906218945980072	-0.05993000045418739	0.09291708469390869	-0.04110242798924446	-0.06544151902198792	-0.027065282687544823	-0.045621395111083984	0.07735921442508698	0.04135984927415848	-0.07153093814849854	-0.009846068918704987	-0.14944984018802643	-4.109460860490799e-05	-0.15049299597740173	0.03207404911518097	-0.03737614303827286	-0.10564334690570831	0.09430482983589172	-0.1674986034631729	-0.11419407278299332	0.12758886814117432	-0.05357949435710907	-0.06015346571803093	-0.0459497794508934	0.03582129254937172	-0.16774137318134308	0.0022656754590570927	0.0699477270245552	0.050325773656368256	0.12732377648353577	-0.03801717981696129	-0.2033301740884781	-0.0563824363052845	-0.13547831773757935	-0.20501255989074707	-0.07229559123516083	-0.05410296842455864	0.10483630001544952	-0.2669161558151245	0.18163737654685974	-0.21807315945625305	-0.0838698074221611	-0.299959659576416	-0.02188253402709961	0.13107414543628693	0.05757725611329079	0.20013749599456787	-0.11241329461336136	-0.1359669715166092	-0.08394899219274521	0.042181506752967834	0.04759931564331055	0.15357716381549835	-0.06710980087518692	-0.15708982944488525	-0.05414551869034767	-0.07549093663692474	0.0050429534167051315	0.10120995342731476	-0.059878308326005936	0.017579548060894012	0.020452182739973068	-0.20435656607151031	0.05116870254278183	0.12830565869808197	-0.050474271178245544	-0.09268287569284439	-0.009984474629163742	-0.3459342420101166	-0.08059844374656677	0.23539574444293976	-0.14787660539150238	-0.1621512472629547	-0.002474326640367508	-0.12431534379720688	0.13042715191841125	-0.10156574845314026	-0.07739318162202835	-0.4857664108276367	-0.028831722214818	-0.16296590864658356	-0.01466439850628376	-0.06472077965736389	0.04510228708386421	-0.07085296511650085	-0.13513709604740143	0.2139458954334259	-0.07012297213077545	0.06357380747795105	0.03771427273750305	0.03733844310045242	0.0003374069929122925	-0.16344934701919556	0.07804357260465622	-0.10602329671382904	-0.10987649112939835	-0.07338283210992813	0.010435514152050018	-0.04132717475295067	-0.129105344414711	-0.1641252636909485	-0.15583500266075134	-0.09336584806442261	0.08284720778465271	-0.14484849572181702	-0.1433068960905075	-0.15607920289039612	-0.27083951234817505	-0.022074202075600624	-0.077814981341362	-0.15081806480884552	-0.013745642267167568	0.15683934092521667	-0.03558284789323807	0.007753424346446991	-0.08939357101917267	-0.05025869607925415	0.17841386795043945	-0.1454714685678482	-0.08940264582633972	0.15952613949775696	0.004665658809244633	0.07663672417402267	-0.11906177550554276	-0.05613556504249573	-0.11923433095216751	0.14470186829566956	0.012066446244716644	-0.14221392571926117	0.15509068965911865	-0.037067558616399765	-0.19389930367469788	-0.23440274596214294	-0.046647362411022186	-0.03424158692359924	0.0741521567106247	0.03425290435552597	-0.043615926057100296	-0.08369575440883636	0.03427019715309143	-0.025347402319312096	-0.18484348058700562	-0.013826169073581696	0.005619805306196213	-0.1568959504365921	-0.1691485196352005	-0.0564383789896965	0.021265871822834015	-0.4134212136268616	-0.1376124918460846	-0.4476402997970581	0.013965119607746601	0.07981551438570023	-0.05925837904214859	0.043871402740478516	-0.055922701954841614	0.0939672589302063	0.09409128129482269	0.11161598563194275	-0.08683528751134872	0.12089556455612183	0.019256344065070152	0.0016284584999084473	-0.21939700841903687	0.14005166292190552	0.2477242350578308	-0.11483253538608551	-0.2180047482252121	0.04387909546494484	-0.015902571380138397	-0.08129196614027023	-0.11042946577072144	-0.02015005797147751	-0.056208930909633636	0.10916200280189514	0.014634625986218452	0.145395427942276	0.01150602288544178	-0.22476914525032043	-0.016927136108279228	-0.006478544324636459	-0.12596942484378815	-0.22856837511062622	-0.006568576209247112	-0.10967667400836945	0.02915123477578163	0.06181609630584717	0.048573508858680725	0.058007046580314636	0.1709907203912735	-0.12809458374977112	0.13695287704467773	-0.07540098577737808	0.18162089586257935	-0.2226066291332245	-0.0506158284842968	0.04147357866168022	0.09577542543411255	0.04399627447128296	-0.10477051138877869	-0.055866315960884094	0.022359419614076614	0.1673051416873932	0.07414601743221283	-0.03308608755469322	0.013869207352399826	0.24171939492225647	0.030642466619610786	0.01868206262588501	-0.11443890631198883	-0.23654258251190186	-0.21651597321033478	-0.04062500223517418	-0.00907432846724987	-0.13579413294792175	0.042612653225660324	0.2271701991558075	-0.013493651524186134	-0.22003763914108276	0.18370449542999268	-0.07886479794979095	-0.1326804906129837	-0.005175631493330002	0.02627452090382576	0.020159481093287468	0.011921104043722153	-0.17601370811462402	-0.00533023476600647	0.04236287623643875	-0.057455629110336304	-0.009016655385494232	-0.09814831614494324	0.008246544748544693	0.15027710795402527	-0.01629667356610298	-0.013789251446723938	-0.10572617501020432	-0.357869029045105	-0.1196678876876831	-0.015091784298419952	-0.15720431506633759	0.14854997396469116	-0.12269444763660431	-0.053944796323776245	-0.32973337173461914	0.009546883404254913	0.05774687975645065	-0.1545846164226532	-0.2714346945285797	-0.037616197019815445	-0.13042615354061127	0.06287335604429245	-0.2303503304719925	0.003551926463842392	-0.2519216239452362	-0.025468934327363968	-0.010233081877231598	-0.048145994544029236	0.0430065393447876	-0.06695443391799927	0.009540542960166931	-0.4682503640651703	-0.07509064674377441	-0.13963916897773743	-0.026796385645866394	0.02295723371207714	-0.07569320499897003	-0.14871655404567719	-0.3290954828262329	-0.28066056966781616	-0.15571680665016174	0.18609558045864105	-0.05607551336288452	-0.07519066333770752	0.030227040871977806	-0.13357198238372803	-0.08942404389381409	-0.07502501457929611	0.1134398803114891	-0.13773050904273987	0.03401220217347145	0.06069224327802658	-0.17853738367557526	-0.27473172545433044	0.1479964554309845	0.14907808601856232	0.028161752969026566	-0.28152740001678467	-0.051275886595249176	-0.015917852520942688	-0.08499966561794281	0.0818721204996109	0.10838641226291656	0.017281804233789444	-0.04397447779774666	0.023771628737449646	0.16072259843349457	-0.11295048892498016	-0.014274314045906067	-0.07124628126621246	-0.21474190056324005	0.09757647663354874	0.015017843805253506	-0.239654541015625	-0.09828977286815643	-0.14739951491355896	-0.17881453037261963	-0.14897051453590393	-0.08378669619560242	-0.11856250464916229	0.08712269365787506	-0.12550103664398193	-0.0344875268638134	0.18253856897354126	0.10546177625656128	0.08275149762630463	0.11183127760887146	-0.10797297209501266	0.37295350432395935	0.1473967581987381	-0.037164121866226196	-0.03424553573131561	0.20243176817893982	0.0917687714099884	0.2405935823917389	-0.028975719586014748	-0.0965690091252327	-0.2047082781791687	-0.0003614407032728195	-0.17561398446559906	-0.09159670770168304	-0.08720092475414276	-0.12381477653980255	0.2776615023612976	-0.09850465506315231	-0.08367612957954407	0.22240889072418213	-0.04173556715250015	-0.032099686563014984	0.04846872016787529	-0.418648362159729	0.11906541883945465	0.084673210978508	-0.20967090129852295	-0.042403820902109146	-0.20353858172893524	0.03770839050412178	-0.04110407456755638	-0.055993400514125824	-0.062257952988147736	-0.2491392195224762	-0.27459651231765747	0.014395811595022678	0.1014331728219986	0.073578380048275	-0.1267668753862381	-0.010039483197033405	0.007556883152574301	-0.06972435116767883	-0.35531556606292725	-0.18224261701107025	0.20464465022087097	-0.03956690430641174	-0.06013641506433487	-0.01582426391541958	-0.318509042263031	-0.07323697209358215	0.0258786603808403	0.06181476265192032	-0.22853298485279083	-0.2725299000740051	-0.09087453037500381	-0.22726915776729584	-0.18450644612312317	-0.010772580280900002	0.08001959323883057	-0.06101161241531372	-0.18887673318386078	-0.011883776634931564	-0.018613364547491074	-0.1627051681280136	-0.0359436459839344	0.26576367020606995	-0.0766972005367279	-0.08820176124572754	-0.09332068264484406	0.03294539451599121	-0.009202847257256508	-0.0056629907339811325	-0.005196211859583855	0.07881076633930206	-0.032380253076553345	-0.011252785101532936	-0.05399248003959656	-0.1470528244972229	0.04819963127374649	-0.009370094165205956	0.01009594276547432	0.030251577496528625	-0.14289382100105286	0.014839346520602703	-0.0476817861199379	0.005687248893082142	-0.06977475434541702	-0.005597494542598724	0.058159053325653076	0.004709536675363779	0.14095544815063477	-0.04853479564189911	-0.2992089092731476	-0.007831603288650513	-0.00623791478574276	0.12986843287944794	0.0532490573823452	-0.0044044796377420425	-0.19289939105510712	0.05516766384243965	0.0281565822660923	-0.014936147257685661	-0.1440451592206955	0.08516442030668259	0.15043136477470398	-0.04077441990375519	-0.14856994152069092	-0.20055031776428223	-0.06917466223239899	0.01712108962237835	-0.22511647641658783	0.0036499202251434326	-0.2602759599685669	0.013216380029916763	0.09206327795982361	-0.4414331316947937	-0.11471737921237946	0.01471702754497528	-0.018601492047309875	-0.08531062304973602	0.06897161155939102	-0.35036700963974	0.06550486385822296	-0.11082875728607178	-0.1872193068265915	0.16763471066951752	-0.3145867884159088	-0.1385447382926941	-0.21415473520755768	-0.05149978771805763	-0.0380522795021534	-0.03188077732920647	0.18962496519088745	-0.10540363192558289	0.012301929295063019	0.15626779198646545	-0.06521286070346832	0.08282044529914856	0.17193366587162018	-0.05222945660352707	0.023828504607081413	-0.12671971321105957	-0.24455781280994415	0.02106924168765545	0.10005910694599152	-0.04559800401329994	0.0808216854929924	0.004586617462337017	0.05347679555416107	0.1973135769367218	-0.27960556745529175	-0.0707310289144516	0.19547908008098602	-0.02464616857469082	0.055240754038095474	-0.022735096514225006	-0.08547280728816986	-0.012941952794790268	-0.06989994645118713	0.0737900659441948	-0.1975618600845337	0.2025740146636963	-0.09999300539493561	-0.09100033342838287	0.0729878842830658	-0.009570802561938763	0.13166138529777527	-0.3503841161727905	-0.21740198135375977	0.07331319153308868	-0.08966775238513947	0.04129355400800705	-0.0725320354104042	0.057215139269828796	-0.16430579125881195	0.14874215424060822	-0.11920351535081863	-0.19748711585998535	-0.21275478601455688	-0.09494974464178085	0.1030820831656456	-0.16962328553199768	0.2214527726173401	-0.17823493480682373	-0.038069870322942734	-0.020973820239305496	-0.1771380752325058	0.10062835365533829	-0.10478168725967407	-0.20893505215644836	-0.011039823293685913	-0.05338543280959129	-0.12147601693868637	-0.12654855847358704	0.007161594927310944	-0.292777955532074	-0.04516209661960602	0.0523902103304863	-0.17778649926185608	-0.10860000550746918	-0.050425730645656586	-0.11475299298763275	-0.1721404790878296	-0.2939983606338501	-0.18315522372722626	0.09710759669542313	-0.032240722328424454	-0.14079062640666962	-0.11087659001350403	-0.012068241834640503	-0.20870748162269592	-0.10414271056652069	0.14498840272426605	-0.10173376649618149	0.13988736271858215	-0.07617808878421783	0.0804334431886673	-0.12689192593097687	0.12926119565963745	-0.12662070989608765	0.10014300793409348	0.0368945375084877	-0.04303290694952011	0.08018388599157333	-0.054537855088710785	-0.036746103316545486	-0.12013067305088043	-0.058850400149822235	-0.1001787781715393	0.2642349898815155	-0.015882065519690514	0.1344805508852005	-0.048589058220386505	0.036313727498054504	-0.21663489937782288	0.11645098030567169	-0.005354319699108601	-0.1822640597820282	0.08036192506551743	-0.22129537165164948	-0.18933650851249695	-0.010301249101758003	-0.06608285754919052	-0.05524611473083496	0.10102543979883194	0.14070072770118713	-0.158956378698349	0.17070303857326508	-0.1232554242014885	-0.09496933221817017	-0.33227574825286865	-0.29942747950553894	-0.11839418113231659	0.012000788003206253	0.04719886928796768	-0.1270042508840561	-0.10888177901506424	-0.06888455897569656	-0.16752108931541443	-0.05202656611800194	-0.15937505662441254	-0.07111940532922745	-0.07662221789360046	-0.0226626917719841	-0.1009133979678154	0.14703360199928284	-0.03799312189221382	-0.035016853362321854	-0.1435437947511673	-0.07427182793617249	-0.050533097237348557	0.1239580288529396	-0.014953702688217163	-0.024645742028951645	0.03693263605237007	0.0678703635931015	-0.09399905055761337	-0.1154850572347641	0.15753358602523804	0.013631322421133518	0.09467928111553192	-0.05025966092944145	-0.15440575778484344	-0.18773745000362396	-0.07577385008335114	-0.12744487822055817	-0.11446709930896759	-0.23509711027145386	0.038344260305166245	-0.14390583336353302	-0.20139171183109283	-0.19678565859794617	-0.3437446355819702	0.021887579932808876	0.022229796275496483	-0.1280890554189682	0.2308664321899414	-0.1788633167743683	-0.08674146980047226	0.23236456513404846	-0.0900287926197052	-0.13214099407196045	-0.04983818903565407	-0.11463921517133713	-0.38979262113571167	-0.07183904945850372	0.14386525750160217	-0.1641152799129486	-0.11594956368207932	-0.03216543421149254	-0.06640397757291794	-0.09500722587108612	-0.19403602182865143	-0.04451780393719673	0.008064758032560349	0.12815555930137634	-0.08144161105155945	0.024297842755913734	-0.011784796603024006	0.08146896213293076	-0.13139894604682922	0.1561163365840912	-0.006025251001119614	0.051180753856897354	-0.032152920961380005	-0.24429945647716522	0.0075883809477090836	-0.013437092304229736	-0.10565166175365448	-0.2989311218261719	0.10842640697956085	-0.07310638576745987	0.04205121845006943	-0.2107221782207489	-0.08498531579971313	0.11090505123138428	0.05137484148144722	-0.11262384057044983	0.006837519817054272	-0.12355469167232513	-0.19788609445095062	-0.03598631173372269	-0.07563385367393494	-0.4060157835483551	-0.08173130452632904	-0.19922545552253723	0.012904942035675049	-0.04345259815454483	-0.003920294344425201	-0.12508462369441986	-0.016349177807569504	0.043601829558610916	-0.02764662727713585	-0.02703307569026947	-0.2641461491584778	0.04337259754538536	-0.26253068447113037	-0.2185293287038803	-0.04070281982421875	-0.15510988235473633	0.052037112414836884	-0.10880431532859802	-0.17518197000026703	0.02757219597697258	-0.11512011289596558	-0.13170258700847626	-0.006622210144996643	0.07152573764324188	0.0917762815952301	0.194177508354187	0.0982082188129425	-0.16285957396030426	-0.12164689600467682	0.01606438308954239	0.014254443347454071	0.09620746225118637	0.09183654189109802	-0.0029154373332858086	-0.0957348495721817	0.01661451905965805	-0.1384449601173401	0.0037086308002471924	-0.10697231441736221	-0.06564593315124512	-0.05085677653551102	0.08549460768699646	0.05177757889032364	-0.16592159867286682	-0.1713731437921524	0.06965191662311554	-0.09229377657175064	-0.2812054753303528	-0.06583758443593979	-0.08413630723953247	-0.16086241602897644	-0.17213767766952515	0.09960636496543884	-0.056796297430992126	0.027484966441988945	0.11875713616609573	-0.17217105627059937	0.009725130163133144	0.0681472048163414	-0.07385727763175964	0.041782308369874954	-0.17602477967739105	0.13915777206420898	0.15353164076805115	-0.3885347843170166	0.09353640675544739	0.25308048725128174	-0.04692446067929268	-0.028628947213292122	0.07472485303878784	-0.15181086957454681	0.16073784232139587	-0.06135524809360504
